solver_type L2R_L2LOSS_SVR
nr_class 2
nr_feature 46208
bias -1
w
0 
0 
0 
0 
0 
0 
0 
0 
0 
0 
0 
0 
0 
0 
0 
0 
0 
0 
0 
0 
0 
0 
0 
0 
0 
0 
0 
0 
0 
0 
0 
0 
0 
0 
0 
0 
0 
0 
0 
0 
-7.806957193124693e-07 
-8.823583642415447e-06 
6.249460404559259e-06 
4.43658162192485e-06 
2.310098440903372e-06 
-1.97442916881282e-06 
3.907391338105323e-06 
1.529426824917871e-05 
1.299708915176509e-05 
1.032295295859074e-05 
2.134278176666638e-06 
-7.464906841913333e-06 
-1.940017654474671e-06 
2.759730889575144e-06 
1.029586283670579e-05 
1.346738693685398e-05 
-2.652271178275412e-06 
-1.250727455673066e-05 
5.261492400500565e-06 
-1.001724923381442e-05 
-6.697209172943356e-06 
-1.021834977974877e-08 
8.984366648289288e-07 
3.368382585935619e-06 
0 
0 
0 
0 
0 
0 
0 
0 
1.602885719329895e-05 
-6.152620249726547e-07 
-4.397998492799503e-06 
5.75436659090915e-06 
-4.853616927456578e-06 
-8.729204115425126e-06 
5.41875483360009e-06 
7.396997071798184e-06 
1.600176398261667e-05 
-1.603674069770702e-07 
-7.209248246890936e-06 
-8.331230139129623e-06 
7.54543218867759e-07 
-1.361399221279023e-05 
1.561687469933878e-06 
-4.610970520625723e-06 
6.029599204450256e-06 
5.272799152747045e-07 
1.032606887598965e-05 
1.216800825023662e-05 
1.312438536576396e-05 
7.156332587352994e-06 
9.90204510110794e-06 
7.468833724036156e-06 
0 
0 
0 
0 
0 
0 
0 
0 
7.786660747215588e-06 
6.102222489507306e-07 
2.365014778237664e-07 
1.404227939013294e-05 
6.486358818140704e-07 
-8.875056328764888e-06 
-1.481771377258586e-05 
1.361723485401222e-05 
-1.748533835687413e-05 
-3.159571841132456e-06 
3.432425881169484e-06 
7.687330253973529e-06 
-5.443302767208178e-06 
6.981736715864721e-06 
-1.10663146789242e-08 
1.866867393765829e-06 
9.954815049462485e-07 
6.994943865986626e-06 
-6.952009486278536e-06 
-7.49470552611175e-06 
-4.799693217278007e-06 
4.292280979785255e-06 
-7.396866516170511e-06 
5.226975086665314e-06 
0 
0 
0 
0 
0 
0 
0 
0 
0 
0 
0 
0 
0 
0 
0 
0 
0 
0 
0 
0 
0 
0 
0 
0 
0 
0 
0 
0 
0 
0 
0 
0 
2.4657255241646e-06 
-1.311575058930276e-06 
1.903272928848693e-06 
1.411764262443383e-06 
1.844922059113364e-06 
-1.674985257821963e-06 
-6.002736019741345e-07 
2.984367378526529e-06 
1.161986234605621e-06 
-1.607349613015921e-06 
7.836921602865477e-06 
4.521306066118174e-06 
4.129423964553928e-06 
-1.204892516692856e-06 
6.656311615379226e-06 
9.707284377071554e-06 
1.326779908770322e-05 
6.784704322776466e-06 
8.470789108658012e-06 
-1.146711542217647e-05 
-3.759364864161647e-07 
6.930526565441929e-06 
1.076318947653313e-05 
9.066711574650422e-06 
1.952471031149131e-06 
-5.101757584067683e-06 
2.882485105839314e-06 
-1.740643144614629e-07 
-9.554656576952637e-07 
6.863840413670645e-06 
-6.007468810236874e-06 
-9.601702992915154e-07 
8.743842807883199e-07 
2.428110743845557e-06 
-1.138038311923829e-06 
3.835688375916937e-06 
-5.976574506845967e-07 
1.667272468846962e-07 
-8.686344327524712e-07 
4.273831156819386e-06 
1.426389101539986e-05 
1.748742800274645e-06 
-5.259845080830162e-06 
-7.055756045344219e-06 
2.234028419843951e-06 
-8.693746487855845e-06 
1.36771226538964e-06 
-1.225468540183673e-06 
-1.298086525210642e-05 
1.264670523176416e-05 
5.037406153861416e-06 
2.891333041957059e-06 
1.858871685757643e-05 
-7.312961798888016e-06 
-7.687922580911912e-08 
1.379031548360546e-05 
7.11845112090898e-06 
-1.181942816103461e-05 
1.901165595949523e-06 
9.983985326099489e-06 
2.52615631542339e-06 
1.329143820979681e-06 
1.452046411744997e-05 
5.518072912541687e-06 
2.581249804751437e-06 
-4.566233861768924e-06 
6.312040217896248e-07 
3.752932593824483e-06 
3.897268525693095e-07 
-6.673319137887891e-08 
6.31116922214994e-07 
6.183262160179948e-06 
6.408978574534284e-07 
-1.060256767790039e-05 
7.428672705496759e-07 
8.86763497295115e-06 
1.986198357309438e-06 
-3.21060439586303e-06 
9.482171398565371e-06 
1.649863601816939e-06 
-1.252477205412232e-06 
9.253192747502456e-06 
1.142438910529093e-08 
-4.401316962717499e-06 
7.344561597080359e-06 
-3.509651804356736e-06 
1.354692165557849e-05 
6.613232237560863e-06 
-9.561345695517765e-06 
6.978353380584545e-06 
-6.766473419257903e-06 
-7.823200101971332e-06 
-8.820544822063385e-06 
7.749174978999375e-06 
-1.179403934113953e-05 
-7.341252426251486e-07 
0 
0 
0 
0 
0 
0 
0 
0 
0 
0 
0 
0 
0 
0 
0 
0 
0 
0 
0 
0 
0 
0 
0 
0 
0 
0 
0 
0 
0 
0 
0 
0 
-3.199130760732326e-06 
-6.109210311463747e-07 
5.906769636184315e-06 
1.823575260472666e-06 
7.359713567594931e-06 
-2.358263194003942e-06 
-4.269831414101619e-07 
9.78946752723476e-06 
3.79109293458075e-06 
9.277931094709521e-06 
4.509626520342978e-06 
-7.019991935262726e-06 
2.115716733918401e-06 
2.582128506525377e-06 
5.470723753291425e-06 
7.024653823349331e-06 
-5.883081866771469e-06 
-6.342653106594713e-06 
6.114196981476648e-06 
-7.635134992100557e-06 
-2.275722775376385e-06 
-1.327784444357621e-07 
4.701682254452915e-06 
6.071423224903129e-07 
-2.96533622271593e-07 
-1.903433236638807e-06 
1.733766143906935e-06 
3.998753466682978e-06 
9.590691464960246e-06 
5.163221569967004e-06 
-7.8212592340595e-06 
-2.26828820424362e-06 
6.235477772823995e-06 
-3.581570473239894e-06 
-3.045656221190146e-06 
5.798950124002521e-06 
-2.806568371097488e-06 
2.984190671152423e-06 
3.773190800895816e-07 
1.116829917131915e-05 
1.187143379655032e-05 
1.076786575198342e-05 
-1.055923455371603e-05 
-1.036721875548544e-05 
1.638936566484473e-06 
-8.196264774416534e-06 
-4.531238463336418e-06 
1.14211017761665e-06 
3.577325231809855e-06 
-3.128834362820319e-06 
9.391934496453903e-06 
1.054562881295915e-05 
4.367754374483034e-06 
-3.031171794780997e-07 
1.174378548821774e-05 
1.177808979902819e-05 
-6.683513357558175e-06 
-9.002860669445667e-06 
-6.315193855845992e-06 
7.957007262211652e-06 
8.035563861593561e-06 
2.081005343216487e-06 
3.220466074893443e-06 
-6.078833202038437e-07 
3.98901639435174e-06 
-4.554032905490176e-06 
-1.573893181397364e-06 
6.187705955037926e-06 
1.868341373685355e-06 
1.865433388039158e-07 
-7.624073562923489e-07 
5.576535816732461e-06 
-2.826087948425692e-06 
1.788201840977855e-07 
2.143312247519189e-06 
1.825602065528314e-06 
-8.300354691492685e-06 
-4.342223859468551e-07 
1.085108877306804e-05 
-5.573223777495871e-06 
6.473598473640275e-06 
2.438234264886901e-06 
-8.140694605059627e-06 
-4.918562565417356e-06 
-4.274281738610064e-06 
-2.446865410228839e-06 
5.679598755473477e-06 
8.888196314779368e-06 
5.534858092216491e-06 
2.668931951600563e-06 
2.827235018806429e-06 
-5.866750354877732e-06 
-6.763540050056327e-06 
5.719396820535333e-06 
-2.103521640490842e-06 
-3.573213043101905e-06 
0 
0 
0 
0 
0 
0 
0 
0 
0 
0 
0 
0 
0 
0 
0 
0 
0 
0 
0 
0 
0 
0 
0 
0 
0 
0 
0 
0 
0 
0 
0 
0 
-5.875377617109028e-06 
-3.457628061732582e-07 
7.304453197938436e-06 
7.408629317432323e-07 
7.615824651547336e-06 
-3.010490032973958e-06 
1.103295166183955e-07 
6.490136180700613e-06 
5.34738284327792e-06 
6.923712146728323e-06 
5.655357249771827e-06 
-8.779940099106394e-06 
-9.737960511724547e-07 
2.254338659765591e-06 
8.684788578453678e-06 
2.291235713171312e-06 
-6.349326515296855e-06 
-4.214281523300996e-06 
1.639572971492731e-06 
-3.498308182286653e-06 
-2.10557470382159e-06 
6.034056239960137e-06 
-3.428505702523118e-06 
-3.933280811354671e-06 
-4.748564695818275e-06 
-1.228892919115006e-06 
2.65565962400674e-06 
8.71735015571983e-06 
1.022301888334857e-05 
5.009631064600447e-06 
3.107596872706757e-06 
3.451182835933067e-06 
4.973771302686964e-06 
3.317402926236997e-07 
-5.672876577186028e-06 
-4.348095497838884e-06 
2.529343690564114e-06 
3.890086254448721e-06 
1.481086771464495e-06 
4.83120319899216e-06 
-1.458290869022733e-05 
6.100865869039431e-06 
1.009148855632426e-06 
-2.267218955195649e-07 
7.745736128169974e-06 
-2.829785417739004e-06 
-6.263684045309188e-06 
1.263430518340665e-05 
5.065002779288885e-06 
-1.710995790005931e-05 
2.963153249061921e-06 
8.859216399822809e-06 
-4.488237841745287e-06 
-3.220897488209521e-06 
1.449320403903535e-05 
3.441462946247979e-06 
-4.924057557354732e-06 
-3.375172764388088e-06 
-5.129410011263306e-06 
9.962081630772444e-06 
7.973786367089485e-06 
-2.812384563940033e-07 
-2.973874215870312e-06 
1.76769329943419e-06 
3.748593960756849e-06 
-1.153272446276436e-06 
-4.530702214994771e-06 
6.31629805425538e-07 
-2.22126470059508e-06 
2.058216189788172e-06 
3.222861758425372e-06 
-2.887890805031421e-06 
-5.173833955944451e-06 
-3.521694686544753e-07 
4.313249811302667e-06 
-3.223048273482316e-06 
-1.12457766546729e-06 
-5.845536864082927e-06 
7.476678440144634e-06 
-5.056594660412384e-06 
-7.24636854432973e-06 
2.976622883422317e-06 
-3.910935897349058e-06 
-4.213594396848625e-06 
-2.586520396923444e-06 
9.542231801827137e-06 
-3.720569770068065e-06 
-9.90856903426408e-07 
3.524022049097064e-06 
1.166849438237221e-05 
1.047320603256707e-05 
3.051572604010529e-06 
-3.816514263043385e-06 
-4.288728945111029e-06 
7.874065002539482e-06 
2.55659600415965e-06 
0 
0 
0 
0 
0 
0 
0 
0 
0 
0 
0 
0 
0 
0 
0 
0 
0 
0 
0 
0 
0 
0 
0 
0 
0 
0 
0 
0 
0 
0 
0 
0 
-1.120651508147791e-06 
7.141832322183665e-06 
6.08982733331327e-06 
-2.428103276379897e-06 
2.490950685598965e-06 
4.598952749892236e-07 
-4.396689422670137e-07 
9.32026345019016e-07 
-7.696210639539326e-06 
-4.478214624341829e-06 
3.394592011497475e-06 
-8.820482243087115e-06 
-5.709708137763032e-06 
-2.230448884148732e-06 
6.184549685287434e-06 
-2.016442422700823e-06 
-8.585732963725196e-06 
-1.582205266811694e-06 
-2.006255320118253e-06 
-1.192390646175066e-06 
6.519810763057714e-06 
7.225128167869427e-06 
-4.223054361976758e-06 
-4.655505435103542e-06 
-1.210527209454798e-05 
-3.160254391750058e-06 
3.117090289964316e-06 
8.714916115315307e-06 
-4.224832370926827e-07 
6.490302126379476e-06 
1.327501742731106e-05 
4.403314912414049e-06 
7.701590161393879e-07 
-1.267366713292818e-06 
-8.952243519934401e-06 
-6.328322939473632e-06 
-1.893703615042086e-06 
3.028311776338129e-06 
-5.528899216991248e-06 
4.613893368384345e-06 
7.016644449380493e-06 
-8.9431108677202e-06 
6.395061823614428e-06 
8.187495516652971e-06 
-4.144693090867581e-06 
-2.048406296339027e-06 
7.442750968323214e-06 
1.182140839256354e-05 
-1.364211969266203e-05 
-4.526570448887041e-06 
-4.409088872790491e-07 
5.486168900967553e-06 
3.253561368321225e-06 
4.46418728638361e-06 
3.880669093888507e-06 
2.64564370898782e-06 
3.419620917889278e-06 
-5.723914740590738e-06 
-6.699897886474614e-06 
6.512326195597915e-06 
8.08053335320878e-06 
5.530893689172741e-06 
-4.449858268509025e-06 
3.600943093942627e-06 
1.268854505873832e-06 
1.996446795566414e-06 
1.703171841722557e-06 
-1.443915887141707e-06 
-6.173882802903667e-06 
4.947484995727843e-06 
4.456483594942412e-06 
-1.037621120978541e-05 
3.395975574011058e-06 
-1.381250174688277e-07 
-3.029962678585086e-06 
-3.163161032616996e-06 
-8.174749342616024e-06 
-7.213874567883318e-07 
-2.80533385988006e-07 
7.607144936390222e-06 
2.845943826486555e-06 
7.939154453108755e-06 
7.518831499346826e-07 
-5.653391614621388e-06 
-2.612266346609647e-06 
2.41804241360833e-06 
-4.144922448419509e-06 
2.633797098169994e-06 
1.274686501291025e-06 
2.234250994502045e-06 
-2.451910103621079e-07 
6.077913725854722e-06 
-2.777074161861421e-06 
3.359010549700526e-06 
3.501275866697846e-07 
-2.082338014729051e-06 
0 
0 
0 
0 
0 
0 
0 
0 
0 
0 
0 
0 
0 
0 
0 
0 
0 
0 
0 
0 
0 
0 
0 
0 
0 
0 
0 
0 
0 
0 
0 
0 
2.721885970754812e-07 
1.204400741942391e-05 
5.145560077884863e-06 
-4.924582411897722e-06 
-3.239011110930382e-06 
-2.618179828157157e-06 
3.664019162447971e-06 
-1.291798879469528e-06 
-9.364693409104363e-06 
-4.396619329120766e-06 
-1.265371343058351e-06 
-8.614308678676935e-06 
-4.305773137680808e-06 
9.354826817287051e-06 
1.223037402608393e-08 
-4.773506535182301e-06 
-6.955325643546022e-06 
-1.936879152643328e-06 
-2.371187741526947e-06 
1.414400330304253e-06 
2.800692973592814e-06 
8.413454057464979e-06 
5.909868162427704e-06 
7.640494788917458e-07 
-6.309956843740245e-07 
-1.122234199507059e-06 
3.782924335053629e-07 
1.198681640575714e-06 
-3.208217255037717e-06 
7.787981162118302e-06 
8.941313662040029e-06 
6.101117995338143e-06 
-2.701301851190204e-06 
-3.709371629183413e-06 
-2.77851009942025e-06 
-3.244678886468435e-07 
6.098459176511673e-06 
1.829454490346662e-06 
-9.692987880437672e-06 
7.686940202056018e-06 
6.147349260073713e-06 
-1.494792433084204e-05 
4.729502496984516e-07 
7.863987038310266e-06 
-5.711585368928637e-06 
2.103740796029777e-06 
1.56033508567566e-05 
1.561867862548049e-06 
-1.269543143501204e-05 
8.708860289773498e-06 
-7.368644664529703e-06 
2.936099779680193e-06 
3.343962855054984e-06 
-1.163988245827884e-06 
-1.066301797538871e-06 
3.860901448141248e-06 
6.707267771946381e-06 
-5.733375502767779e-06 
3.768949915403528e-06 
3.260130865181348e-06 
3.009021640018768e-06 
2.572577151541313e-07 
4.778367848448818e-06 
-4.292683613193108e-06 
-3.377530203666126e-06 
3.626109538394721e-06 
6.315921273288561e-06 
-8.266563093827923e-07 
-1.50888710647253e-06 
2.955883684260592e-06 
7.532113573238022e-06 
-8.233627385626593e-06 
-1.470793649076006e-05 
-8.605570504564637e-07 
2.638527433562786e-06 
1.49486286917891e-06 
-7.210522581394691e-09 
1.010097194486846e-05 
3.102276937255743e-06 
-9.554055057887443e-07 
5.159535583597984e-06 
1.240469181155857e-05 
1.06564606883991e-05 
1.296041842170466e-06 
-5.012046336796033e-06 
-1.224717994457031e-05 
3.96677637946738e-06 
2.332368984138667e-06 
5.805854330824903e-06 
3.073237703930496e-07 
-2.414142829589629e-06 
1.218811053462971e-06 
-5.992783639899573e-06 
3.263878608405863e-06 
-7.537179416382291e-07 
-4.278431989315018e-06 
0 
0 
0 
0 
0 
0 
0 
0 
0 
0 
0 
0 
0 
0 
0 
0 
0 
0 
0 
0 
0 
0 
0 
0 
0 
0 
0 
0 
0 
0 
0 
0 
-7.052056621771965e-06 
3.200492866368288e-06 
2.522612634249605e-06 
-8.963499739437642e-06 
-3.306452555356871e-06 
-1.04930494625519e-06 
4.154485527632898e-06 
-5.323219489425666e-06 
-8.581496167310681e-06 
3.763504349845149e-07 
-4.463740526034747e-06 
-6.472567257940653e-06 
3.087427754124635e-06 
1.227810048166594e-05 
-1.322284247952126e-06 
-5.757807499994324e-06 
-5.005699671621783e-06 
-2.632393035013712e-06 
-2.106224826581754e-06 
7.393261967833057e-07 
-7.565907919781544e-06 
8.131244510591608e-06 
1.382109262567008e-05 
-4.087598455725437e-08 
3.198707509764153e-06 
-5.567737260086158e-06 
1.142256652553519e-06 
-5.217240515741498e-06 
1.8521563140612e-06 
5.732376457473802e-06 
1.701121693104041e-06 
5.622309909229468e-06 
-4.889949383395188e-07 
-3.927683845601131e-06 
-1.190940402419581e-07 
2.876416412991031e-06 
-2.206847361714296e-06 
4.332846417666481e-06 
8.163664976839387e-06 
-7.237813745783278e-07 
-1.204623839249138e-05 
-9.770078376492777e-07 
-3.87350749183e-06 
3.936088805238459e-06 
1.68650946781302e-06 
4.676804219632668e-06 
1.580219208973553e-06 
6.231498948529114e-06 
1.806502376214029e-06 
9.660286367186561e-06 
-8.548961338859165e-06 
-2.259788762618121e-06 
-7.168629757826039e-07 
-3.716481538623421e-06 
-4.97330990490845e-06 
1.105885544139124e-05 
4.431530233273788e-07 
-3.456447089247678e-06 
6.340147328431429e-06 
4.670516796922606e-06 
4.607226112061865e-06 
-3.944608161208594e-06 
7.551603281979778e-06 
-6.944139744855055e-06 
4.770495298906487e-06 
8.967564719302104e-07 
4.210354055107994e-06 
2.135421090403034e-06 
-5.531479773982958e-06 
5.692026231501046e-06 
-3.136267101244543e-06 
7.714165636421084e-06 
1.511565267491354e-06 
5.222375194712116e-06 
4.989883465533916e-06 
-3.90887959898943e-06 
-7.003440931467636e-07 
-2.252746414332436e-07 
-1.436848094289899e-06 
-3.243321383879911e-06 
8.037245400953338e-06 
-5.171236932595071e-08 
3.293056661401686e-06 
2.625469896017063e-06 
-6.863902597648052e-06 
-9.377283450748433e-06 
3.527650923444868e-06 
2.140194047695613e-06 
3.74312357987682e-06 
2.882198173577096e-06 
7.961922668831692e-06 
-2.243656097131756e-06 
-9.278831246586305e-06 
-3.928269128447252e-06 
-9.421200894178844e-06 
-4.071568060456213e-06 
0 
0 
0 
0 
0 
0 
0 
0 
0 
0 
0 
0 
0 
0 
0 
0 
0 
0 
0 
0 
0 
0 
0 
0 
0 
0 
0 
0 
0 
0 
0 
0 
-2.399078895457314e-06 
-5.420902840653196e-07 
5.858340061619287e-07 
-1.100753898209373e-05 
-3.881384982227473e-06 
9.779224087080242e-06 
-1.698444893654575e-06 
-5.408839303410398e-06 
-3.185736434389918e-06 
-1.97139897849935e-06 
-4.422027101938407e-06 
-3.599751850139416e-06 
-2.328512917364555e-06 
9.962710518331484e-06 
5.230200426602927e-06 
-1.125865694142371e-06 
1.109942746366785e-06 
-3.145805546401051e-06 
-4.078641061282365e-06 
-2.731561616341226e-06 
-6.764793807270121e-06 
7.464502555249808e-06 
4.331039915492881e-06 
3.644581147282754e-06 
-1.20724129090843e-06 
-4.530202298273234e-06 
3.405889688872198e-07 
-7.083537224512899e-06 
-6.04411389761811e-06 
4.244530559453498e-06 
2.039497757352249e-06 
9.306451671613012e-06 
8.999963547757576e-06 
-5.912314413338857e-06 
1.60612319236004e-07 
7.784840575601954e-06 
-4.143998377766961e-06 
3.22404007073512e-06 
7.943378672083478e-06 
-2.141425139721234e-06 
-1.235741424728857e-05 
1.365152756866813e-05 
-9.119384242043372e-06 
-1.618367326745057e-06 
1.817232777130028e-06 
5.113100908512206e-07 
-1.215001755298632e-05 
1.146884649335715e-05 
-6.61750277367458e-07 
5.152778962561133e-06 
-5.050480275644692e-07 
-1.684906657420201e-06 
-8.157290781096503e-06 
-6.973178466934492e-06 
-2.304931723993801e-06 
3.663131204069786e-06 
5.81224855313888e-06 
4.864778973224835e-07 
2.70447519218802e-06 
4.634660403799903e-06 
-1.967200334168634e-06 
-9.473648418107123e-06 
7.646780686099441e-06 
-3.608235288156258e-06 
-3.929196810046991e-06 
1.321990822726417e-07 
4.267869890208174e-06 
8.079735708167788e-06 
2.066619117120723e-06 
9.399111813420076e-06 
-2.682425138647571e-09 
-8.879701269164366e-07 
7.559202436966589e-06 
1.090307920545347e-05 
1.206014266664604e-05 
-1.836191013353212e-06 
-4.21737320777601e-06 
-1.66095597910084e-05 
-2.651857780720113e-06 
-2.193018252671741e-06 
8.149113510771447e-06 
-6.172650673753012e-07 
1.244950658445712e-07 
8.329162957820975e-07 
-8.786993181665192e-06 
-8.851322193143862e-06 
4.535933371030163e-06 
-1.995774308203251e-06 
2.592589137536816e-06 
-2.53492151002126e-06 
5.990792416399395e-06 
5.749397902383383e-06 
-1.013702151205736e-05 
-7.399057176136404e-06 
-4.316203962859524e-06 
-5.898819463546265e-06 
0 
0 
0 
0 
0 
0 
0 
0 
0 
0 
0 
0 
0 
0 
0 
0 
0 
0 
0 
0 
0 
0 
0 
0 
0 
0 
0 
0 
0 
0 
0 
0 
7.048067065701677e-06 
-1.668841320867511e-07 
-3.112267045811788e-06 
-7.374181383114175e-06 
3.858945063666711e-06 
1.118330286084415e-05 
-4.408466337483451e-06 
-3.576276147117482e-06 
-2.578101425912395e-06 
-1.190583839370238e-06 
-6.442551323876732e-06 
-1.528893437897298e-06 
-1.251517151650414e-05 
5.920933699512857e-06 
9.709444855893968e-06 
-1.917194611496446e-06 
1.283932114906868e-06 
-5.650025755325551e-06 
-1.724894883812472e-06 
-7.985102916010504e-06 
3.261003197564411e-06 
6.426000477442456e-06 
-1.830247782565045e-06 
4.044046999869016e-06 
3.397007482919821e-06 
-6.397858015071272e-06 
-1.167586412949399e-06 
3.122037436848966e-06 
-1.113571112150994e-05 
-1.128388210637662e-06 
4.385226197978062e-06 
7.748431959024042e-06 
-5.53468881252293e-06 
-5.489075951239791e-07 
-1.253891466872953e-06 
7.441075019270823e-06 
1.73648540867796e-06 
2.625061036503438e-06 
-1.107155670526139e-05 
4.167458238521554e-06 
2.001556284547903e-06 
1.268993045059452e-05 
-1.026002308422307e-05 
-4.098003581615727e-06 
-2.69486994398332e-06 
-4.631096975193658e-06 
-9.38576119213596e-06 
8.077231365618935e-06 
2.436760328921532e-06 
-5.568761893877097e-06 
-1.470472974307129e-06 
-9.482416291763532e-07 
-6.915520922504423e-07 
-1.088758234654718e-05 
-1.010997725482846e-06 
1.062228717500565e-07 
7.098232131753239e-06 
1.375837689738854e-06 
-3.100052330587965e-06 
5.934603593030906e-06 
-4.812190853535769e-06 
-2.659650523850959e-06 
-1.116692754937302e-05 
5.328815385010488e-06 
7.470378873428151e-06 
2.711965327261213e-06 
2.696935753992913e-06 
-1.366061704198592e-06 
3.154041800207714e-06 
3.080105031939377e-07 
1.297993056350074e-06 
-1.722072138321766e-05 
8.641664576618789e-06 
-3.288290077806347e-06 
4.150112776501813e-07 
2.63316888883086e-07 
-7.118507140249767e-06 
-1.018880091502425e-05 
-6.592739017691935e-07 
9.614249841449952e-06 
3.834422727211818e-06 
-8.725061244241995e-07 
1.150672119811411e-05 
-2.769983677203222e-06 
-9.689472904778459e-06 
-1.200033041314827e-05 
-1.01174500465705e-05 
-4.231063013066304e-06 
5.273825838606739e-06 
2.322115378343231e-06 
4.615168493184397e-06 
8.295459538680317e-06 
-7.218427759418475e-06 
-6.474593553335188e-06 
4.141223184141728e-06 
7.363465186148315e-06 
0 
0 
0 
0 
0 
0 
0 
0 
0 
0 
0 
0 
0 
0 
0 
0 
0 
0 
0 
0 
0 
0 
0 
0 
0 
0 
0 
0 
0 
0 
0 
0 
4.053172765300555e-06 
1.060464942601948e-06 
-2.410180421761369e-06 
-4.305589243978774e-06 
-1.672746434821885e-06 
6.478183387464065e-06 
2.825736746379322e-06 
-1.103063157832344e-06 
4.224276621562654e-06 
-4.284387834726635e-06 
-5.023712803092525e-06 
-5.754723469870587e-06 
-7.414948585874576e-06 
1.086762783378718e-05 
1.867307992275705e-06 
7.320563878082561e-07 
2.325137633258805e-06 
2.398370563324566e-06 
-3.798786507896809e-06 
-7.393056763236205e-06 
1.626123348650636e-06 
6.393120070775543e-06 
-3.705050321033104e-08 
1.093034823310101e-05 
4.153834493360535e-06 
-6.272376191196985e-06 
-1.747837484888186e-07 
5.813577584186759e-06 
-5.127036842438755e-06 
-5.33573354022889e-06 
6.156056965624356e-06 
1.761901160169512e-06 
-6.542082051291451e-06 
1.135425296748838e-05 
-7.020336411039702e-06 
-8.06254724011788e-07 
1.124068270971036e-06 
6.361281175230428e-07 
-2.405552975097431e-05 
8.500937337604175e-06 
-9.95772989696121e-06 
3.336061945601917e-06 
-8.852263568262252e-07 
-1.924225987914255e-06 
-7.361208443637924e-06 
-5.816662411116116e-06 
-2.082696073822685e-06 
6.774600291135847e-06 
2.216005640292576e-06 
6.045666211653023e-06 
-7.081499215662399e-06 
1.292860764485886e-06 
2.350668138638704e-06 
-1.672737526651308e-05 
6.942372871328186e-06 
2.061698324850703e-06 
1.256875386251075e-05 
-2.470064731174921e-06 
-2.994637041231603e-06 
1.845517438535025e-06 
3.930109049461059e-06 
2.733711316610506e-07 
-1.160544051800325e-05 
4.227222501966137e-06 
9.225229921449764e-06 
1.220677551822618e-05 
4.347852771948866e-06 
-1.665898003400108e-06 
-4.650859789320111e-07 
-1.282810487049673e-05 
-2.604226650413374e-06 
-1.008790103021966e-05 
3.152708200718288e-06 
1.648403957736386e-06 
-2.149409035613237e-06 
-9.008003285316187e-07 
-9.388564185481538e-06 
-8.383320316312035e-06 
1.720425892235061e-06 
1.277493056351521e-05 
-3.361901019820071e-06 
1.18005575337357e-06 
8.065676384327284e-06 
1.172754869872392e-06 
1.319551383863544e-06 
-1.157695947433412e-05 
-1.058847132300287e-05 
5.230209648785662e-06 
6.160911666080358e-06 
5.198601859006126e-06 
3.041264833977064e-06 
-7.889552671708949e-09 
7.004649324367575e-07 
1.781162728360347e-06 
2.00016648143318e-06 
6.699802141725507e-06 
0 
0 
0 
0 
0 
0 
0 
0 
0 
0 
0 
0 
0 
0 
0 
0 
0 
0 
0 
0 
0 
0 
0 
0 
0 
0 
0 
0 
0 
0 
0 
0 
5.350202342363504e-06 
1.000673896159418e-06 
-5.805066437678446e-06 
-1.881254619585656e-06 
-1.118345356923821e-05 
3.890606288299079e-06 
6.720597034930309e-06 
-6.028612818186388e-07 
7.004825578462331e-06 
-2.424153692096519e-06 
-7.844278826456566e-07 
-8.128443416747485e-06 
4.68995989003166e-06 
8.330578214635885e-06 
-3.708500326121403e-06 
4.30523628367172e-06 
3.336612853676744e-06 
5.635690869067909e-07 
-5.91822687323863e-06 
3.367477236658888e-06 
-2.783065539638033e-07 
-2.269998205733866e-06 
4.287156450277377e-06 
7.45561764433971e-06 
2.618940362585606e-06 
-5.027007072660682e-06 
5.455299602000597e-06 
4.191387501067539e-06 
-9.312842295144204e-07 
-5.657667519164767e-06 
5.21286843116406e-06 
-2.249752318763395e-06 
3.013284224082885e-06 
1.923120837193377e-05 
-7.278247756769885e-06 
-1.540218924471473e-06 
1.692158692621964e-06 
-1.904345009699215e-06 
-1.562374717806832e-05 
4.138588528308448e-06 
-3.968367914851399e-06 
-8.821779874617548e-06 
-3.357280005164315e-06 
-2.629182889771955e-06 
3.25092143984375e-06 
-7.174742431525561e-06 
-3.157805489592123e-06 
6.051976978742379e-06 
-1.462314271543542e-06 
8.196917640721181e-07 
-1.820668582962821e-05 
-6.30886661734052e-07 
1.79856517273361e-07 
-8.9220494582491e-06 
-5.257914773921027e-06 
1.812973305218237e-06 
7.416201925808707e-06 
1.497839646905447e-06 
3.001912671129525e-06 
1.067715963299395e-07 
6.984682645686556e-06 
4.12002023972617e-06 
-6.716049146307715e-06 
-8.611786098679993e-06 
5.39956208765391e-06 
5.46299934075196e-06 
-5.240363041416633e-06 
5.829958708977783e-07 
-4.51547288932836e-06 
-2.683905156912209e-06 
1.487725395778526e-06 
1.38384365726843e-05 
3.161314091073106e-06 
5.69645826205879e-06 
1.161875496013596e-05 
-8.142746198379489e-07 
-4.557313206548524e-06 
-8.438355211305448e-06 
-5.336062161146137e-07 
7.459260242134945e-06 
-3.365034598003385e-06 
7.11787902989673e-06 
4.012001124880607e-06 
7.382413631760099e-06 
-2.261404055974301e-06 
-1.638619299897173e-06 
1.919023969811456e-06 
8.90072350751774e-06 
4.888773909203208e-06 
2.288116481714334e-06 
4.110523441152132e-06 
1.99095914928515e-07 
7.698339664042279e-06 
-4.365659718551338e-06 
-1.764684401190927e-05 
6.212991003405089e-06 
0 
0 
0 
0 
0 
0 
0 
0 
0 
0 
0 
0 
0 
0 
0 
0 
0 
0 
0 
0 
0 
0 
0 
0 
0 
0 
0 
0 
0 
0 
0 
0 
9.168428982483519e-06 
-2.709964453708435e-06 
-2.134030189500541e-06 
-4.880017981489326e-06 
-5.127473575013126e-06 
9.198519222616968e-06 
1.40244159771747e-07 
-1.788511692906549e-06 
1.95806579969282e-06 
1.125933900491247e-05 
-3.85368528276868e-06 
-6.277256558345807e-06 
5.862056543638498e-06 
3.853090247044667e-06 
-2.861208583698533e-06 
1.064497049631212e-05 
-2.072595144784285e-06 
-1.853516326909324e-06 
-1.666866079593536e-06 
8.971911554608061e-06 
1.295542787202703e-06 
-6.089139798530036e-06 
5.497965028714175e-06 
-3.19911202057087e-06 
-2.147395568829258e-06 
-5.855756868670285e-06 
6.043367341907792e-06 
6.55034420509094e-06 
3.115441880884786e-06 
-1.170788833439614e-05 
-1.261388693811674e-06 
3.232702120488749e-06 
-9.786314857148516e-06 
-5.212764087322419e-06 
-7.840229986737215e-07 
2.162875471807918e-06 
-2.800931923260293e-06 
-2.355731242097916e-07 
-1.916680713418599e-05 
5.235461148397706e-07 
-3.067046940530442e-06 
9.826526702338282e-06 
-1.264212356775785e-05 
-5.750921863651496e-07 
1.040603609481592e-05 
-1.357427331268216e-05 
2.557746605350291e-06 
1.286626368650051e-06 
5.553215608249875e-06 
-1.923687421203638e-06 
-1.905825864304549e-05 
7.716533725858433e-07 
6.413547110366857e-06 
-1.590306200529877e-06 
-7.907320093052081e-06 
-5.476129852110685e-06 
-3.762887174505596e-06 
1.437947231396981e-06 
6.076002177098597e-07 
3.568464643078672e-06 
-7.647392904053476e-06 
-6.283813047301453e-06 
-5.338213176905623e-06 
-7.036791334148693e-06 
2.047856675020669e-06 
8.702533816537459e-06 
-4.442013936248917e-06 
1.069732802400875e-06 
-5.734361962224566e-06 
2.233247600326978e-06 
-5.460653395333151e-07 
4.556540197854424e-06 
-4.704634632986428e-06 
5.732801836314562e-06 
5.877443875620379e-06 
-2.413268766485576e-06 
9.44317878483619e-06 
-8.132398286453674e-06 
9.039431992098418e-07 
-2.417977506585399e-07 
9.391666620507933e-06 
9.577980600069213e-06 
-1.400790224126863e-06 
-2.882515042977589e-06 
4.001493848032599e-07 
4.988107448554608e-06 
-5.223089812085717e-06 
4.595742819695518e-06 
9.04211901742032e-06 
4.612549586727935e-06 
4.55653318330376e-06 
1.036390393228211e-05 
1.069195886898699e-05 
-1.138401438402964e-05 
-8.337783491601975e-06 
4.160047354908374e-06 
0 
0 
0 
0 
0 
0 
0 
0 
0 
0 
0 
0 
0 
0 
0 
0 
0 
0 
0 
0 
0 
0 
0 
0 
0 
0 
0 
0 
0 
0 
0 
0 
7.287062673982226e-06 
-6.539082084082306e-07 
3.687912366531473e-06 
-8.875975610610491e-06 
5.409496652185528e-06 
6.316300540564137e-06 
-4.994054977717869e-06 
2.41961662205273e-06 
1.937718685768176e-06 
6.802597729222975e-06 
-5.345262869694761e-06 
2.360797684221334e-06 
8.510559520662845e-07 
-4.345271243574058e-06 
2.800813640435513e-06 
6.963681841621415e-06 
-5.92245790018348e-06 
-3.70164062127939e-06 
4.883577649944631e-06 
5.684434308199961e-06 
3.563265208549432e-06 
-4.903645557422275e-06 
5.306536135984231e-06 
-6.375242404573908e-06 
-8.344697673968107e-06 
-6.241581149113848e-06 
5.408748952124262e-06 
2.669417492593561e-06 
-1.275058944542895e-06 
-9.184616633131545e-06 
-4.449140410346536e-06 
-2.731883354821329e-06 
-3.442628361419725e-06 
-9.74842070275961e-06 
-3.772374182050251e-06 
2.150506634944577e-06 
7.263267891261415e-06 
-3.935145650564288e-06 
-4.366642511771936e-06 
-3.295112550421485e-06 
-6.564208160511592e-06 
2.19337227980501e-06 
-1.905841733958516e-05 
-1.469400565607349e-06 
-2.631141022886103e-06 
-6.859299518856809e-06 
-4.026834184160299e-06 
2.916554803319482e-06 
9.724816178374194e-06 
1.233192347270731e-06 
-5.681215643263314e-06 
7.365535304026526e-06 
6.572157821645955e-06 
1.104924489968501e-06 
-2.986152279280448e-06 
-1.301415098785278e-05 
-1.130271832741883e-05 
1.904166897838003e-06 
-1.623083341137209e-07 
4.772020469004506e-06 
-5.092950857609161e-06 
-6.387759623217601e-06 
-4.496167240604111e-06 
-5.493596394450539e-06 
-2.410182011532655e-07 
8.100205533962693e-06 
5.091987318021845e-06 
2.493004205859717e-07 
6.098235102709669e-06 
3.26143899995819e-06 
-1.228043309657401e-06 
8.528380798118912e-06 
-1.16944026675331e-06 
1.115555796291769e-05 
2.655747316973779e-06 
3.94933012039871e-07 
4.924857538818225e-06 
-2.023423654671309e-06 
1.284591428253445e-05 
3.337319787943907e-06 
6.370949982843903e-06 
1.100800223347223e-06 
-1.890995920550977e-06 
-5.20398701221019e-06 
7.254720804631267e-06 
-5.084970124118676e-06 
-1.144367025232167e-05 
6.636027237808736e-06 
7.484934305948131e-06 
-1.290337779288444e-06 
4.208104931970097e-06 
1.071368418220556e-05 
1.248910707028929e-05 
1.495212094514866e-05 
-1.233668026459569e-05 
-1.019689232356266e-05 
0 
0 
0 
0 
0 
0 
0 
0 
0 
0 
0 
0 
0 
0 
0 
0 
0 
0 
0 
0 
0 
0 
0 
0 
0 
0 
0 
0 
0 
0 
0 
0 
1.984650492947127e-07 
3.319977223941356e-06 
5.150515795626995e-06 
-6.18553430685032e-06 
9.242366365285202e-06 
1.821362385837388e-06 
-4.050156838101581e-06 
1.077811333875695e-05 
-2.325859835879632e-06 
5.794727849861162e-07 
2.906832586264638e-06 
8.262135570519278e-06 
1.492359671392966e-06 
-6.106538190963119e-06 
8.581900956870254e-06 
-4.51878290587843e-06 
-2.095584300703103e-06 
-3.065544338181277e-06 
3.017796205121893e-06 
4.672712983012698e-06 
6.982920347645571e-07 
-1.197318848364117e-05 
4.787670232893883e-07 
2.483495931273782e-06 
-4.927198848252946e-06 
-1.181139999275667e-06 
2.369967432647657e-06 
7.349354602908064e-06 
1.03182720375802e-05 
4.742211805872936e-06 
-7.984136226648941e-06 
-9.465352588098199e-06 
-1.309351907262243e-06 
-1.590400911390953e-06 
-9.237806641197903e-06 
-3.214335798793568e-06 
8.563008216179282e-06 
-3.081739489092735e-06 
6.069891110883113e-06 
3.677911059533258e-06 
5.649587607902964e-06 
-4.632972221326775e-06 
-9.579293695876285e-06 
3.377586332709119e-06 
3.194309197601166e-06 
-1.345341141133124e-06 
-1.187382847384983e-06 
-4.162555601719825e-06 
9.929980710394564e-07 
4.598763464899945e-06 
-2.963839444279308e-08 
-2.321214456133893e-07 
-1.04369749930832e-05 
3.543936338673612e-06 
-2.545639912427104e-07 
-9.66625529446614e-06 
-1.130530713791651e-05 
-4.743402851557271e-06 
-6.98329623834931e-06 
8.906509372663236e-06 
1.417301435633783e-05 
3.780011760239797e-06 
6.984988329038336e-07 
-6.259547242981182e-07 
3.873564198027002e-06 
5.804597668294703e-06 
2.91459312511535e-06 
-1.268050025397547e-06 
1.176965946709728e-05 
-5.643835418532789e-07 
1.316568024324296e-05 
9.687565131098096e-06 
1.340993795174098e-05 
8.75802307058995e-06 
-2.601906190227678e-06 
-7.927954491373437e-06 
-1.434863666045321e-06 
3.959202697626957e-06 
1.82326478188282e-06 
-2.800537476401794e-06 
1.027991138024173e-05 
2.754888773543842e-06 
3.354504721055301e-06 
4.369448793061729e-06 
1.15723427041478e-06 
-1.252683135744678e-05 
3.453010102849545e-06 
7.744892349349424e-06 
-1.531510589575213e-06 
-5.822615268099114e-06 
5.913044789788576e-06 
1.078366586685433e-05 
1.494137488735142e-05 
9.927294320083154e-06 
-8.420159433799107e-06 
-1.674774599494801e-05 
0 
0 
0 
0 
0 
0 
0 
0 
0 
0 
0 
0 
0 
0 
0 
0 
0 
0 
0 
0 
0 
0 
0 
0 
0 
0 
0 
0 
0 
0 
0 
0 
-2.796280420221231e-06 
-4.695447185250284e-07 
7.289845074675975e-06 
-2.599902277904521e-07 
4.203070886639047e-06 
-1.423810941701514e-06 
4.067236761095586e-06 
5.891584927899499e-06 
-4.05903794334989e-06 
-2.966549794709761e-06 
3.820729344063469e-06 
3.460220487795723e-06 
5.835920777261698e-07 
-4.907696597411237e-06 
9.30505156004701e-06 
-4.847083800378796e-06 
-5.649999199010483e-06 
-3.825758015669275e-06 
9.174673502961384e-07 
2.06997712639026e-06 
-6.901641195534875e-06 
-7.451168052824218e-06 
-2.298969344614255e-06 
6.379740675428182e-07 
-1.08316835363536e-06 
3.210542222568963e-06 
-1.526338001613401e-06 
1.56107327619227e-05 
1.20228095039438e-05 
4.911019223610738e-06 
-4.723355014002333e-06 
-6.741989650402584e-06 
-6.564190247817798e-06 
1.872259590403199e-06 
-1.012546579736378e-05 
2.358492172586837e-06 
-6.593043673570465e-06 
-1.467344081344704e-06 
8.350926070030222e-06 
7.261820593914662e-06 
1.227996801529451e-05 
1.822193577425061e-06 
1.312420473502783e-07 
2.224659565156549e-06 
2.560008367168792e-06 
4.983743503677347e-06 
6.970506670282825e-06 
-9.931923140793464e-06 
-9.201357982921759e-06 
6.08414615880357e-06 
-2.23264103789277e-06 
-6.724752222007814e-06 
-5.064055206701153e-06 
-7.58370671765466e-06 
4.101566250503436e-06 
-1.611469857231868e-06 
-6.191492458926754e-06 
1.345131994315828e-06 
-7.444941396801448e-06 
9.949458946832675e-06 
1.377101859731316e-05 
-2.295895856593629e-07 
9.043890929155234e-06 
-2.598987288359931e-06 
4.371292006893903e-06 
6.078512072650779e-06 
7.284552590898744e-07 
4.261137218915427e-07 
3.107525781051515e-06 
-4.115343389542867e-06 
1.03157621633376e-05 
9.590657665489475e-06 
4.570288539588603e-06 
2.918411727886098e-06 
-4.027563616896406e-06 
-9.844807473123384e-06 
4.350465464638923e-06 
1.637424878325519e-06 
-4.018997611743312e-06 
-1.200205230390854e-06 
7.430308253433558e-06 
-3.897438862604195e-06 
6.101726115322639e-06 
2.912533590694968e-06 
1.089386181624091e-05 
2.496006888092484e-05 
-1.770902321186895e-06 
-8.117386464044345e-06 
-9.543228448023521e-07 
7.361868808401996e-07 
-6.594917758557431e-06 
5.138579945916467e-06 
2.588454369678989e-06 
-1.227208493946799e-05 
-1.64680095497539e-05 
-8.296268466088524e-06 
0 
0 
0 
0 
0 
0 
0 
0 
0 
0 
0 
0 
0 
0 
0 
0 
0 
0 
0 
0 
0 
0 
0 
0 
0 
0 
0 
0 
0 
0 
0 
0 
-8.412993756506181e-06 
-8.141741484885686e-09 
1.077756962530577e-05 
3.368398488653725e-06 
1.672160916177738e-06 
-5.793941429586846e-07 
8.71914706414191e-06 
-2.389669437650191e-06 
1.090181847485313e-06 
4.197198275777281e-07 
2.311818630951324e-06 
-2.078032902671762e-07 
-3.275409333312945e-06 
-1.032950881306394e-05 
3.167247421412339e-06 
3.515036069783456e-06 
-2.205800950756898e-06 
-1.659752055671024e-07 
5.690381561931233e-08 
5.37827531919572e-07 
5.757145137913537e-06 
6.361754003902754e-06 
-8.188577630754497e-06 
-3.882568570985673e-06 
5.600351969668037e-07 
4.486311191687103e-06 
-3.609586608110198e-06 
1.547148047299237e-05 
8.053614843097499e-06 
2.51876272641803e-07 
-4.355393595049637e-07 
-1.125973244893647e-06 
-7.481376039281226e-07 
-4.485657824900197e-06 
3.505049447189753e-06 
1.748315226110722e-06 
-2.937663670292602e-06 
6.521016500168246e-06 
3.53802587876712e-06 
9.288721993468189e-07 
7.659646508072279e-06 
7.560350732859196e-06 
3.552561921199479e-06 
-7.664966872820353e-06 
-9.327934006345594e-06 
5.84036761682016e-06 
4.722670781740021e-06 
-9.540249924071207e-06 
-1.077971272785486e-05 
-3.784973039475736e-06 
-8.79663351980012e-06 
-1.526732090655269e-06 
1.118075862760771e-05 
-2.929333609994501e-07 
1.195693419104017e-05 
3.615872054804182e-06 
-5.704537984815215e-06 
4.628898752145854e-06 
3.887464844474634e-06 
6.5902202483638e-06 
-1.557570471144384e-06 
3.027929557055368e-08 
5.071873779187633e-06 
-1.339939833248402e-06 
1.091760769034614e-05 
2.890573041121352e-06 
-2.158498265967352e-06 
-8.489734051566411e-06 
-3.321079767143378e-06 
-5.074979312472681e-06 
6.710308767318667e-06 
-7.585791562940986e-06 
9.185216637833833e-06 
3.937877031404608e-06 
5.362546350492152e-07 
-6.478175570521204e-06 
-1.367335608115417e-06 
-7.261061082894412e-06 
3.428681457134935e-06 
-7.474420312606371e-07 
-3.478843976124724e-06 
-4.399271996709538e-06 
7.195090871220199e-06 
2.265800684150081e-06 
1.667118323387239e-05 
2.17686824953554e-06 
-3.551403043395605e-06 
-8.716086378537158e-06 
1.604616282881667e-06 
-1.382542619926551e-06 
-6.047669135119466e-06 
3.312904619648978e-06 
-1.987190762109094e-06 
-8.077604421579483e-06 
1.227862354559996e-05 
-5.627381888372732e-06 
0 
0 
0 
0 
0 
0 
0 
0 
0 
0 
0 
0 
0 
0 
0 
0 
0 
0 
0 
0 
0 
0 
0 
0 
0 
0 
0 
0 
0 
0 
0 
0 
-4.282833931295862e-06 
2.110226158025317e-06 
1.037715806435053e-05 
1.96634745250393e-06 
-2.316539624768084e-06 
-2.132685029695228e-06 
9.149155175613251e-06 
-8.395828652216217e-07 
-4.915903309085069e-07 
1.250595345743435e-06 
2.483298133072347e-06 
-9.826499376820387e-07 
-8.616513238209612e-06 
-4.101632745855858e-06 
-1.969396317864798e-06 
4.299704997849649e-06 
2.003536461300117e-06 
2.975822665760388e-06 
1.777115534087523e-07 
8.883192808909388e-06 
3.97798009043038e-06 
4.778610428560346e-06 
-3.323685877003444e-06 
-4.353325534179249e-06 
-4.650820039229241e-06 
-8.568682863033192e-07 
-7.791129234109673e-06 
1.172997335651514e-05 
2.44868279870029e-06 
-4.070286332410446e-06 
2.183334520106462e-06 
-1.43470398379702e-06 
6.334987935740369e-06 
4.513633792185386e-06 
1.125085577692219e-05 
9.971359534963903e-07 
-1.487924193988272e-06 
1.05475733243591e-05 
1.06767864351645e-05 
-9.404639207635831e-06 
-2.799969032261484e-06 
5.99280487639328e-06 
1.515622325949541e-06 
-6.880730763108343e-06 
-2.399783726208117e-06 
-2.374256638394976e-06 
3.829591861858271e-06 
4.147806021399655e-06 
-5.577763431052199e-06 
4.846076126713314e-07 
-6.217340782832436e-06 
-5.389693619301083e-06 
5.75745718291487e-06 
3.541252749206071e-07 
2.028406482280845e-05 
-1.881592746064316e-06 
-8.097362460522444e-06 
-5.758237165557223e-06 
4.825435828748578e-06 
-3.145270044492624e-06 
4.101175623272638e-06 
-1.095189893406534e-05 
2.752231690647983e-06 
3.395500076422507e-06 
1.624471642867838e-06 
3.065535256380748e-06 
-1.691888835914001e-06 
-7.135073570973747e-06 
-4.619496258132655e-06 
6.340859866203636e-06 
2.342728608234059e-06 
-7.810974869127355e-06 
6.946344836610253e-06 
5.225149378021998e-07 
7.660881474277863e-06 
-3.672419580819507e-06 
6.699285851479537e-06 
1.933465996958988e-05 
6.14763972587548e-07 
-4.244239204695452e-06 
-2.108746785588844e-06 
6.06939615775002e-06 
-8.358783068220815e-06 
-2.520037754625867e-06 
-5.837826336117892e-06 
-6.653112236699859e-06 
1.068355768994657e-06 
2.514137117856791e-07 
1.622300438126709e-06 
1.573227416040663e-06 
6.883984100155126e-07 
1.077231509159643e-06 
9.571709951584489e-06 
-1.409238520187826e-05 
1.427170115230969e-05 
-3.239012306595816e-06 
0 
0 
0 
0 
0 
0 
0 
0 
0 
0 
0 
0 
0 
0 
0 
0 
0 
0 
0 
0 
0 
0 
0 
0 
0 
0 
0 
0 
0 
0 
0 
0 
-2.589433155285241e-06 
1.293683693260057e-06 
5.133851755995772e-06 
1.573182592618116e-06 
2.911863219385767e-07 
-6.698622904263227e-06 
3.362603301158847e-06 
5.282464575373118e-06 
4.555573575285318e-06 
1.922550406467083e-06 
-4.608078681547897e-07 
-1.032378204987062e-06 
5.553975238118417e-06 
6.137370215803078e-06 
-7.110942826573307e-06 
8.330909108041205e-07 
3.924633070716355e-06 
2.456475687598068e-06 
-2.069620259545435e-06 
6.330076281782765e-06 
3.277428495918499e-06 
-2.442729614461462e-06 
4.227275722637102e-07 
7.228163766312374e-09 
2.824667836930192e-06 
-1.055822601062044e-05 
-1.436728473389138e-05 
5.879309320454417e-06 
7.131527902556845e-06 
-3.807207394872978e-06 
-9.279984569677894e-07 
-2.156048945194506e-06 
5.338571234014997e-06 
8.921153020453738e-06 
1.179249752695747e-05 
-7.350587679437456e-06 
-8.452182051905796e-07 
6.403268315790437e-06 
2.056908406955442e-06 
-1.639751018923641e-07 
-1.018657550765453e-05 
6.49836564884161e-06 
-5.601966073474949e-06 
-5.834205809148655e-06 
8.30929401483654e-06 
-2.208113296935284e-06 
8.960755742370986e-06 
3.50553871140016e-06 
-9.066546893434172e-06 
7.360758416233578e-08 
9.988622128105285e-06 
-6.476988579859177e-06 
-9.462162419055349e-06 
-5.78635244979592e-06 
8.90037258901917e-06 
-1.727216286487517e-06 
4.307487245976304e-06 
-1.319988108850599e-05 
1.026609449710732e-05 
-1.431648362142895e-05 
7.572455955963147e-06 
-5.931086322598314e-07 
1.826033391438176e-06 
-1.741782691415412e-06 
7.820136867477422e-06 
6.607532701835329e-06 
1.384123100829485e-06 
-7.667143033311103e-06 
2.701390902820521e-06 
1.043186470386055e-05 
4.896639603926915e-06 
-1.398791383522155e-06 
-2.061639149861386e-06 
1.450455498590019e-06 
9.067682858533885e-06 
-8.420488847894407e-07 
7.217396130513228e-06 
3.733617922106227e-06 
-9.173698571511643e-06 
-2.391670115206197e-06 
2.090008757626683e-06 
6.802010212905817e-06 
-1.173451978596795e-06 
-2.15491344049631e-06 
-1.16521006407023e-05 
-1.097713263914792e-05 
1.097235795535627e-05 
4.503842753421697e-06 
3.913220826700752e-06 
1.772219520104356e-06 
8.90495586906617e-06 
-4.407326897937081e-06 
3.168457330408363e-06 
-2.346615913601561e-06 
8.818031288737766e-06 
1.725528706288713e-05 
0 
0 
0 
0 
0 
0 
0 
0 
0 
0 
0 
0 
0 
0 
0 
0 
0 
0 
0 
0 
0 
0 
0 
0 
0 
0 
0 
0 
0 
0 
0 
0 
5.722912235766403e-07 
2.176954643758447e-06 
1.100913880691701e-06 
-2.337431000189609e-07 
-1.190921275008639e-06 
-4.204253552252372e-06 
-2.531880880229107e-06 
3.792745632466453e-06 
5.654285041301506e-06 
3.251771075721266e-06 
4.147016595494002e-06 
1.778811684146599e-06 
6.728034018670223e-06 
3.377200478405392e-06 
-1.344481856741824e-06 
-3.273945180123772e-06 
-1.343646098337524e-06 
-2.656607282850713e-06 
-8.722357743593164e-06 
8.389176572047501e-06 
-3.888170024999263e-06 
-7.206662260691728e-06 
2.145055722716629e-06 
-1.428323806002436e-06 
4.076773714319229e-06 
-1.437238905886448e-05 
-1.574987733080756e-05 
3.997399835198132e-06 
1.450688274555392e-05 
-2.534919943368605e-06 
-4.328781547435339e-07 
9.737574811826724e-06 
-2.748370768724414e-06 
2.984813828134531e-06 
5.83611031147939e-06 
-7.845317430470977e-07 
2.964240722450848e-06 
9.347824000347442e-06 
-6.300891507908833e-06 
3.411528769422642e-06 
-4.559418636666336e-06 
6.014734546445657e-06 
-3.645449555904386e-06 
-8.415222906188987e-06 
-5.851955361337417e-06 
3.343403432487254e-06 
1.319791773148832e-05 
-2.268597685771416e-06 
-3.244233437468901e-06 
-7.501857350368259e-06 
1.016873709811957e-05 
-3.077575395387063e-06 
6.826140852944e-07 
-1.133654012036741e-05 
-2.799812392485853e-06 
3.22515110013363e-06 
2.720927047606733e-06 
-1.721251633007204e-05 
1.243785783016171e-05 
-7.006704150177173e-06 
2.564158007672142e-06 
1.003222081769045e-05 
1.470879693984214e-06 
-1.476562155522105e-05 
6.915924407534716e-06 
3.595369110991958e-06 
9.329447812303418e-06 
-9.506175037815249e-06 
9.673698696814283e-06 
7.323308071105528e-06 
-5.89313529954934e-07 
3.241522806861793e-06 
-2.99028017067006e-06 
9.693758198595699e-06 
-2.275420690849178e-06 
-4.383132334428789e-06 
-8.752852673243363e-06 
8.620126523420459e-07 
-1.91306835988012e-06 
4.665012795048629e-07 
4.228379721748025e-06 
8.016862756077925e-06 
1.569152710588973e-06 
-3.325796221668195e-07 
1.119709194746626e-06 
-1.395746534485208e-05 
1.416312663322014e-05 
2.91710364023745e-06 
8.607537845332403e-06 
-4.970454752350931e-06 
1.691909585045107e-05 
-4.337315078570392e-06 
-1.326392686419497e-05 
1.075507760066028e-05 
5.780992230235653e-06 
1.620085245269142e-05 
0 
0 
0 
0 
0 
0 
0 
0 
-2.475519906234118e-07 
-1.587681234168811e-06 
2.869408237703465e-06 
-2.138158531161063e-07 
2.427702523567102e-06 
-3.123106294740853e-07 
-1.030077856797381e-06 
2.635018397328313e-06 
-4.957051956946644e-07 
1.156595970873192e-06 
4.974455933832369e-06 
-2.064001718494548e-06 
1.468606519154658e-06 
1.795638981000647e-06 
-3.075601595588468e-07 
5.859853765346457e-07 
-1.874615570336757e-06 
-2.379347954377273e-06 
2.296709277352197e-06 
-2.021251137851621e-06 
-1.041904522167023e-06 
2.132581451771056e-06 
2.205764341874193e-06 
2.031620302696914e-06 
0 
0 
0 
0 
0 
0 
0 
0 
2.579799014416754e-06 
-3.367397999378614e-06 
5.198616305583925e-07 
8.136510588038805e-06 
-2.117073800264286e-06 
-3.026616377886314e-06 
9.640926756433677e-06 
9.588112259944291e-06 
1.65877725751928e-05 
1.127513350509656e-05 
-5.033974919444171e-06 
-5.866680642004524e-06 
2.447989707278406e-07 
2.691695168959348e-06 
1.500841073156422e-05 
1.834925796777833e-06 
-6.548213983018193e-06 
1.295172798567196e-06 
9.100259943047209e-06 
-9.522462898116014e-07 
3.244198902140953e-07 
1.763902054507648e-06 
-9.99570180160095e-06 
2.975904989992919e-06 
0 
0 
0 
0 
0 
0 
0 
0 
6.203791875751533e-06 
-7.051106642633277e-06 
-3.144123857804834e-06 
8.560519512729542e-06 
-3.945356135893312e-06 
-2.328486926246858e-06 
-5.539319638484676e-06 
6.429158040547339e-07 
-1.773829699221649e-05 
-4.91470622386031e-06 
3.005676596120323e-06 
5.872549725224319e-07 
-3.254641501580433e-06 
-3.821940867231352e-06 
4.426487196442431e-06 
3.421183273541903e-06 
8.415758363864012e-06 
-6.492098337450296e-06 
-1.05069233855724e-06 
-5.726315461359601e-07 
5.203155942433575e-06 
1.181467038940915e-05 
3.064842060849607e-06 
-3.665373593334133e-06 
0 
0 
0 
0 
0 
0 
0 
0 
4.451914037414484e-06 
1.377239702669961e-06 
7.672405461794773e-06 
-1.319362012319113e-07 
3.216846506759467e-06 
1.104369907693698e-06 
-2.306952589430177e-07 
1.273637442847603e-05 
-3.286579923135205e-06 
-1.000316430577759e-05 
-8.504841089259919e-06 
1.003001615067832e-05 
4.181084068429415e-08 
1.17832729001871e-05 
2.007620848609241e-05 
-9.424181981752179e-07 
3.71552391247853e-06 
5.787794103188032e-08 
-5.543549027944547e-06 
-5.881620891752352e-06 
-3.488822520161721e-06 
1.442417533853537e-05 
-4.713119246434368e-06 
-7.188867799474033e-06 
7.132934900123788e-07 
-4.603201205173066e-07 
6.680133312511053e-07 
9.558988789440281e-08 
4.861020408178727e-07 
-1.755246157451253e-07 
-2.032446475646803e-07 
5.723726069784014e-07 
-7.560986396741999e-07 
4.367877722589318e-07 
4.431630744173349e-06 
-1.018390656604397e-06 
3.948913171140518e-06 
-1.856708275778826e-07 
-1.048100567904749e-06 
2.575745392382665e-06 
6.045572815003798e-07 
6.482083761003026e-07 
3.610602453782404e-06 
-1.396196701860863e-06 
-3.327918911321141e-07 
2.963498245010185e-06 
2.12116485087777e-06 
2.669319853581426e-07 
2.071481239206326e-07 
-1.923064661889661e-06 
1.561430853464777e-06 
-1.589459900294903e-06 
2.002306545060343e-07 
1.258955230457707e-06 
-6.371416176680531e-07 
1.300175090591691e-06 
2.602404348407104e-06 
1.598928780825543e-06 
1.633464529507732e-06 
2.742401492625914e-06 
1.238594851336924e-06 
-5.662707442236961e-07 
-5.707162371098721e-07 
3.001945907117077e-06 
3.763836128852443e-06 
3.865108890462202e-06 
-1.520900941326494e-06 
8.151075057491127e-06 
4.779226317403402e-06 
5.646008478977844e-06 
1.786920608329418e-05 
3.294858643458435e-06 
2.647067795894202e-07 
5.579623687427965e-07 
5.83714039604112e-06 
-2.69292169350779e-06 
1.175206087376738e-05 
-5.345488251995219e-06 
6.975830619192323e-06 
8.179320092422122e-06 
2.228321132976321e-06 
1.445040844781431e-06 
7.97745148077037e-06 
8.825703787439432e-06 
-2.13264853596764e-06 
6.043647775127212e-07 
-7.873735434945814e-06 
-7.119131067193777e-06 
1.156530153723477e-06 
-1.978785119640657e-06 
-6.477864370756511e-07 
1.898356385929014e-06 
-2.598527421139646e-07 
1.216672523622075e-06 
-1.143342208528803e-07 
4.390212428519674e-06 
-2.344270674242536e-06 
-4.250285580323301e-06 
2.699793971007956e-06 
6.458622148711623e-08 
6.899512406101841e-06 
-6.533591861642555e-07 
-1.035853480678122e-05 
-4.462015135330545e-06 
-7.14304852034862e-06 
9.906662812240234e-06 
3.615188368086856e-06 
7.080097820199792e-06 
6.97102140563148e-06 
4.318863527197399e-06 
-9.654797619820848e-07 
7.244383601408887e-06 
3.029187584983883e-06 
-1.136455300051167e-05 
-1.057995942968172e-06 
-3.86052367467905e-06 
5.246443880666314e-07 
1.77312539173462e-05 
1.155611336433023e-05 
-3.076845036716364e-06 
1.53262878005235e-06 
7.360720098811174e-07 
2.445255949826786e-06 
2.287551619632975e-06 
2.806069150683919e-06 
6.520419773771579e-07 
1.502810167321392e-06 
3.940617634031664e-06 
4.229727006990344e-06 
-5.253406974429598e-06 
1.830698512876916e-06 
-2.2277257995585e-06 
-3.957136383343293e-06 
1.283462710396935e-05 
8.173988664286208e-06 
3.712547032660228e-06 
3.481032483292331e-06 
3.422825087383001e-06 
-4.956449407906389e-06 
7.414026754379271e-07 
3.656094634142481e-06 
-1.10034453630825e-05 
1.371859674825233e-05 
-5.614667674572239e-07 
-4.168954503857164e-07 
-6.515689313445111e-06 
-7.730639894973405e-06 
6.146153727954066e-07 
-3.627232752852824e-06 
-2.584441378965683e-06 
-1.302161403497794e-05 
-4.313001078031211e-06 
3.361007851978924e-07 
-3.066098838849248e-07 
1.860397981603736e-06 
-2.517049328288018e-07 
2.194067126069454e-06 
-8.919586204713678e-07 
-6.440527394603426e-07 
1.643377810742237e-06 
6.628044888781309e-07 
1.690492025760786e-06 
3.610940777692308e-06 
-1.401872788319095e-06 
1.665776515442696e-06 
1.177204238838876e-06 
-2.231184868053795e-08 
-1.947715420331686e-08 
-2.290579977610452e-06 
-8.187678098326151e-07 
2.200009839895163e-06 
-1.07599244669484e-06 
-7.953022781032326e-07 
1.586417569203973e-06 
1.937552546017624e-06 
5.376993535606725e-07 
3.606977047604718e-06 
-2.159027250746371e-06 
1.733869434071067e-07 
-4.806172762354835e-07 
2.235773249800162e-06 
1.461653081149255e-06 
-2.267988856295661e-06 
1.340997638301057e-06 
-5.06160923210892e-06 
-9.048049589459797e-07 
3.864719749200134e-06 
4.847025745579951e-06 
1.289888639985099e-06 
-1.207268838560807e-06 
6.724307991664758e-07 
9.285717391421026e-06 
1.154663806301415e-05 
8.899608019065679e-06 
-2.514782779779042e-06 
-6.755136022128123e-06 
1.13661772933506e-06 
1.463752456800816e-06 
1.467229136688427e-05 
6.68182581673617e-06 
-1.12073982759329e-06 
-8.275686757871536e-07 
1.117771239252092e-05 
-9.855929769986314e-07 
3.262059248944504e-06 
-1.113520330954188e-06 
-6.232835278710919e-06 
1.011876632349365e-06 
-1.343085527854838e-05 
3.569638187909269e-06 
8.292350010202783e-06 
1.247663648411907e-05 
4.111441510117013e-06 
-4.106614829722961e-06 
2.696530078526734e-06 
-6.229522873882468e-06 
-2.701154752530259e-06 
-4.530423426658649e-06 
-3.756030386748786e-06 
2.867928700135186e-06 
-9.000232597625926e-07 
3.732811991149796e-06 
-1.769308005170559e-06 
4.40667235305307e-06 
-1.315113696141439e-05 
-5.786916467666829e-06 
4.426458343330208e-06 
-2.551456800484983e-06 
-4.646144221127217e-06 
2.012546779862358e-06 
-2.750059173461904e-06 
2.193269627871641e-06 
4.510598362681121e-06 
-6.948620318750873e-06 
-7.596996815584449e-07 
3.362783421231847e-06 
1.407233947385623e-06 
-6.263756628932177e-07 
-9.595363369474628e-09 
3.777893267745398e-06 
-7.464474544670087e-07 
-2.831607431634914e-06 
4.456733720112595e-07 
-3.660866051990444e-06 
2.051447240196594e-06 
1.761043727717056e-05 
1.740459338444663e-06 
3.919503514286166e-06 
3.478080404508947e-06 
6.876486318480412e-06 
3.287064370736817e-06 
2.083106086967366e-06 
5.817059024157318e-06 
4.027484380194857e-07 
3.744653270770467e-06 
6.501209261842986e-06 
-5.060546355141161e-07 
-5.505936203847889e-06 
-1.953283006311071e-06 
4.859311604760434e-06 
9.198963339309891e-07 
4.884782563358192e-06 
9.434380795813489e-06 
-1.456355202096756e-06 
1.700214906528837e-06 
-2.754625390234437e-06 
8.009703814741679e-07 
-5.993892936278628e-06 
-7.889879052538045e-06 
1.856524244081345e-06 
-4.507157298459651e-06 
-3.713374522880415e-06 
4.342166573400354e-06 
2.60149245539195e-06 
-2.677834530723474e-06 
3.230447808929522e-06 
-4.538254459309136e-06 
-6.983504329287298e-08 
2.04148257747519e-06 
-1.664832636574303e-06 
4.982758133592063e-07 
9.541950557550613e-07 
2.989437034044814e-06 
-5.650555903506072e-07 
3.489702645260629e-06 
-9.593329919929702e-07 
-6.99007407925969e-07 
1.439882276548402e-06 
1.585337974451116e-06 
1.602829957427673e-06 
2.407685885905229e-06 
-1.028234812937977e-06 
-7.816890529877014e-08 
1.913784710124948e-06 
1.542683112977774e-06 
-1.777108079460612e-07 
-1.211195034372552e-07 
-9.533271279608905e-07 
6.42288732513024e-07 
-1.394658100327529e-06 
1.785491039459714e-07 
9.541211679747396e-07 
-3.261092502905686e-07 
7.297711841785766e-07 
1.93159509165372e-06 
-2.517227533218536e-06 
-1.197641477427879e-07 
3.018431262972836e-07 
2.529234905056053e-06 
9.823838727484761e-07 
-8.823444343695044e-08 
2.327166917310722e-06 
-8.449612058153768e-06 
2.114451166013502e-06 
5.200922234124201e-07 
3.504693610946727e-06 
5.199570350430585e-06 
3.572461157716616e-06 
7.309238097171073e-06 
4.018840521637233e-06 
1.260692567555217e-07 
2.156385169386827e-06 
7.133961069453434e-06 
-2.368166325348674e-06 
8.082713511241911e-06 
-3.37502552335888e-06 
5.716516831898758e-06 
5.03534359645996e-06 
2.724301552010546e-06 
1.997129392263953e-06 
5.603178337148391e-06 
6.926901611230859e-06 
-5.843715543035391e-06 
5.935764345087845e-07 
-4.782918014226724e-06 
-5.722298510992538e-06 
-1.079364845331111e-05 
1.713843174992495e-06 
8.198113262557912e-06 
1.393970448763588e-05 
-2.337968330521885e-07 
-3.527723838325945e-06 
1.970259335042994e-06 
6.55647706245535e-06 
-3.815709919926998e-07 
-3.676567173908957e-06 
-2.859513809120985e-06 
-3.86099272282208e-06 
1.01684709806107e-06 
7.042813811673876e-06 
-8.145850357678225e-06 
-2.297958257803855e-06 
-1.124174373318512e-05 
3.866959363001064e-06 
6.383899674030433e-06 
6.427037450796719e-06 
1.714274472795377e-06 
4.409509112416775e-06 
-5.41354068733106e-06 
6.874073511445024e-06 
-1.827491131629242e-06 
-1.030024386309381e-05 
-1.484758921591745e-06 
-2.482414195951773e-06 
-3.472323289953061e-06 
1.288586331987235e-05 
1.134908394285972e-05 
3.74054876662444e-06 
3.802731990474066e-06 
-5.62166443277409e-06 
7.166889699048021e-06 
-2.892160333129902e-06 
2.460451929327871e-06 
3.390556274050712e-06 
-2.344696427283097e-06 
2.480758803319661e-06 
1.179393910080707e-07 
3.920855627638861e-06 
-1.423183685855314e-06 
-5.674443209515445e-07 
-5.486909588660438e-06 
-7.030417291434257e-08 
9.540025056719234e-06 
2.123258944843197e-07 
1.891425348083321e-07 
3.117632100159632e-06 
2.448117590542098e-06 
-3.097393120476786e-06 
6.847576336742693e-10 
-5.698129443576269e-06 
6.975842962871192e-06 
4.837661095999574e-07 
-7.617155088495446e-07 
-5.743867606098168e-06 
-5.427090333153451e-06 
1.215735919828848e-06 
-1.59918109391987e-06 
-5.347657579462359e-06 
-2.40583302088582e-06 
1.065933947147554e-06 
4.048412068982872e-06 
3.703543247353405e-06 
1.402101988968275e-06 
9.093374584103806e-06 
-1.852344089981973e-06 
-5.544063088956656e-07 
4.476325321102218e-06 
-6.605871478106612e-06 
2.688461848362769e-06 
2.333823269615546e-06 
2.543830953765711e-06 
-7.877435166068421e-07 
2.355222478337147e-06 
-2.502630049360904e-08 
6.151217066918828e-08 
-5.479846863514384e-07 
-1.899095307745091e-06 
2.843525061415274e-07 
1.752300206391071e-06 
-1.189281705919178e-06 
-1.034620312733786e-06 
1.014091937055207e-06 
1.82001581250197e-06 
1.407234019129578e-07 
3.25872172602601e-06 
-1.589137649929559e-06 
-1.610141425765363e-07 
-1.301088195620254e-06 
1.650462574767572e-06 
2.429767183749116e-06 
-1.705940326897699e-06 
1.480561767674234e-06 
-1.834301809065663e-06 
-1.200184202007147e-06 
2.512951778337319e-07 
1.016232937884182e-06 
2.599575770889522e-08 
1.611900839110091e-06 
2.240703448183675e-06 
2.984711224887178e-06 
1.989131071524819e-06 
6.595720521374446e-06 
-1.407419365157719e-07 
-1.530367333304615e-06 
2.264329640728585e-06 
4.265838242241961e-06 
7.173734590468509e-06 
3.221815713454715e-06 
7.208274379790936e-06 
-1.441539224771133e-06 
7.850963036142246e-06 
-2.610185100428602e-06 
1.418730755836133e-06 
1.21945883228022e-06 
-3.294129586105306e-06 
-1.475362901711535e-06 
-1.358306077944829e-05 
2.506193082756019e-06 
8.667708597838631e-06 
7.821759978199592e-06 
1.45976391014418e-06 
-2.5519230459463e-06 
1.463035586003983e-06 
-3.965459386054049e-06 
-5.868322167853761e-06 
-5.183628075737625e-06 
7.473427515578536e-06 
9.37552121562505e-06 
3.828739299482513e-07 
1.89594572970947e-07 
3.24109527124157e-06 
1.972045299901017e-06 
-7.68242972905064e-06 
-2.256813843304634e-06 
-9.80912705855093e-08 
-3.318887739461105e-06 
-1.120782690961627e-06 
1.118596758240029e-05 
-8.935656630425321e-06 
4.176718880403464e-07 
4.888738710673304e-06 
-2.999837427920435e-06 
2.823677817159535e-07 
6.076690770936659e-06 
-3.062330838367256e-06 
7.753472898328232e-07 
1.505328781827405e-06 
1.022954090042185e-05 
-3.714809992571834e-06 
9.014464704616842e-07 
1.115041022163031e-06 
-3.842700335095879e-06 
-2.649967274823673e-07 
1.656359745098817e-05 
3.308680781975619e-06 
9.214958229003315e-06 
6.211089142978009e-06 
-7.145502089314631e-06 
-6.859387696919817e-08 
8.534177920030444e-07 
4.073886298824282e-07 
2.24430040950894e-06 
3.071996027595398e-06 
-2.612303622532308e-06 
1.379769425248513e-06 
6.51281200330696e-06 
-1.748894854256088e-06 
-2.705958505694997e-06 
-2.669478564722045e-06 
7.279491869952394e-08 
1.818488600159715e-06 
-5.065533713463295e-06 
2.093102137499676e-06 
-1.568940796915284e-06 
4.606706146203451e-06 
-4.698337965129967e-06 
-7.360341564315743e-06 
-1.668536613089401e-06 
-7.726385545864162e-06 
2.441878373715408e-06 
5.463129208646224e-06 
4.360190999615345e-06 
-2.739624190607454e-06 
6.224883732364529e-07 
-5.865918972771918e-06 
-7.573295866730062e-06 
4.708246243571788e-06 
1.8193076951074e-06 
3.272497867887349e-06 
-2.742539808969948e-06 
-6.344842455015244e-07 
1.291724701794538e-05 
4.620909899441486e-06 
6.71122260942547e-06 
-4.780936137631657e-06 
-5.943126089020358e-06 
2.715166066637365e-06 
2.100696218352313e-06 
1.674490799222771e-06 
-7.224644291109411e-07 
7.53713145673243e-07 
6.529685224554886e-07 
1.12868431885792e-06 
-3.681914963879853e-07 
-1.739165674777626e-06 
2.138778261819274e-08 
4.09865149819884e-07 
-1.801317675868909e-06 
-1.483862184245e-07 
1.491436315291649e-06 
-1.523008319223192e-07 
3.322957435950207e-07 
2.563524843616742e-07 
-2.522793544953831e-06 
-4.88791156099319e-07 
-6.124523898891339e-07 
1.534348890207496e-06 
2.261197079563918e-06 
7.86190686094109e-07 
2.118616905503794e-06 
-1.574094137548239e-06 
-9.601122872105164e-07 
3.936942188601291e-07 
3.680009580590586e-07 
-1.244574722834004e-06 
2.175790819432507e-06 
2.498915046725881e-06 
2.19430754555669e-06 
1.576448612345753e-06 
2.169581026315135e-06 
5.919315079202096e-06 
-8.48740743513084e-09 
4.97210756378628e-06 
4.048578796271842e-07 
5.01225681148457e-06 
-1.275692200713451e-06 
2.289812713073003e-06 
9.66941708273096e-07 
2.520064155974088e-06 
3.156730671066543e-06 
-6.660937144175101e-06 
7.291318979820829e-06 
-1.760802584432009e-06 
-8.378361996010434e-06 
-1.141269055989589e-05 
5.73527582760601e-06 
9.027846616657105e-06 
8.546331209038246e-06 
-5.619248572658734e-06 
1.437674631818708e-08 
2.383484899086592e-06 
6.657718265129083e-06 
2.533290081604872e-06 
2.71494104922917e-06 
4.083446150583757e-06 
3.489725155720378e-06 
-2.512810667382537e-07 
2.197868756842262e-06 
7.061939853563259e-06 
-3.16924726413676e-06 
-1.154451021450031e-05 
-2.234036409185644e-06 
4.545092700368011e-06 
4.495577270950088e-06 
2.170503681505145e-06 
7.048321919540755e-06 
-5.187653611766498e-06 
6.661943616060992e-06 
-2.402645659773225e-06 
-5.105175788828092e-06 
-4.436994169986176e-06 
4.516762424028442e-07 
-4.992476126126673e-06 
1.27123379878354e-05 
1.393852009426835e-05 
8.542668845390853e-06 
3.383093288620995e-06 
-6.997475907592846e-06 
4.416565892094213e-06 
-7.38416455178833e-06 
1.265063703597482e-06 
2.053769331601185e-06 
-1.740083607300953e-06 
-1.134026357714505e-06 
1.014554860549129e-05 
-1.6910979984403e-06 
-1.111954565626949e-06 
-2.265596607491429e-06 
-1.748751142609194e-06 
3.138917143558133e-06 
-2.928590098026385e-06 
-4.269052950716104e-06 
-2.208480180088727e-07 
3.081650872585907e-06 
3.233760367815534e-06 
-4.610307846287837e-06 
-2.229567462719871e-06 
-1.639642640768195e-06 
6.477138706164619e-06 
-1.717717940636885e-06 
-2.846457448797916e-06 
-4.247764841346508e-06 
6.303332301610501e-07 
5.754923746608315e-06 
1.758155006890227e-06 
-3.104004065150996e-06 
-1.477553271346163e-06 
4.514036317586064e-06 
5.132814092148543e-06 
1.134968045101083e-05 
5.040054055638585e-06 
6.314573736099659e-06 
-2.988314738533032e-06 
-8.317781685395342e-06 
4.60215858094205e-06 
-8.886185896474091e-06 
9.923033181065294e-07 
5.026502123578785e-06 
5.517265514070814e-07 
5.99685597246077e-06 
2.345203217922079e-07 
2.408377431068044e-06 
2.012709603852993e-06 
-3.73440042313173e-06 
-6.042806797441051e-08 
1.401079424363965e-06 
1.291332567973577e-06 
-8.938449811597299e-07 
-8.607769476932335e-07 
6.754581874522374e-07 
1.440824003778046e-06 
-9.269805326023761e-08 
1.875677004355406e-06 
-1.219435566469051e-06 
-7.601945916800858e-07 
-1.753825488809167e-06 
1.317900979859291e-06 
3.605243065822907e-06 
-1.42727617658016e-06 
1.095189991615101e-06 
-1.619539814272524e-06 
-2.319071306438718e-06 
-1.550242545401358e-07 
1.334105064221076e-07 
-1.352373892063375e-06 
2.714526779258816e-06 
3.18038195935465e-06 
2.001049378264384e-06 
1.075646251056207e-06 
-1.829982138109778e-06 
1.060806415684111e-06 
-7.372452797785899e-07 
3.456685803531314e-07 
1.991301198137981e-06 
2.415241309948298e-06 
2.493675730880084e-06 
7.901823955995679e-07 
-9.662310105319721e-07 
2.846958336891842e-06 
-1.341566905057328e-06 
3.187543909096412e-06 
5.694544272266218e-06 
6.755349753444128e-07 
-4.784835952615317e-06 
-1.237477918300276e-05 
1.149155948584474e-06 
7.787913327508339e-06 
2.648461525865248e-06 
-1.092904392213533e-06 
2.856132569363165e-06 
7.006357096628022e-08 
-6.905031625950295e-06 
-2.715201399107364e-06 
3.243379397715238e-06 
6.479191017229027e-06 
3.644357446269939e-06 
-6.928657607505432e-06 
1.27947510366592e-06 
2.103593888821098e-06 
8.827097748376046e-07 
3.507717499233368e-06 
-1.989093229865207e-07 
-1.481349906605618e-08 
-2.311618083125472e-06 
2.532975695692753e-06 
3.654520932207546e-06 
6.673950917258418e-06 
2.91695217909214e-06 
5.788325365023867e-06 
-2.939120202407733e-06 
1.221424451746021e-06 
7.228738269036513e-06 
-4.575745341257856e-06 
5.658143527102281e-06 
7.029084895438561e-06 
7.654095839937926e-06 
-6.478131598805141e-06 
-4.201759424143369e-07 
-1.81896654051129e-07 
-3.067748184906051e-06 
3.294096106178175e-07 
1.557510015988463e-05 
3.65732153415653e-06 
7.005238090821058e-06 
7.736060183569186e-06 
-8.335163006344443e-06 
-5.218030607227871e-06 
-4.013791360920966e-06 
-2.290610673743268e-06 
-2.696331176077596e-06 
1.160921236126158e-06 
-2.149451372475874e-06 
2.772439444758081e-06 
9.486987231178685e-06 
2.939289083520521e-06 
4.328060957785223e-06 
-2.147817993889811e-06 
-1.015940888038123e-06 
-2.816013972103466e-06 
1.164748335278192e-06 
3.60723190460732e-06 
-3.607981242580695e-06 
7.554740426910608e-06 
1.707992071062685e-07 
-2.566205932744641e-06 
-3.94658459209275e-07 
-7.978409181902956e-06 
-2.14962549658634e-06 
2.939469607404939e-06 
4.854376605551524e-06 
4.819643012736145e-06 
7.617361066588231e-07 
-3.908337819082634e-06 
-8.973038757687513e-06 
3.133886376572381e-06 
1.873869080732433e-06 
4.770176204018699e-06 
3.256718954631947e-06 
1.196495129870133e-06 
1.014942384826235e-05 
4.20922049379886e-06 
-3.752667865798165e-06 
-4.31871879634432e-06 
4.717019830372436e-06 
6.995460277528275e-06 
3.795333618324347e-07 
7.122565889195871e-06 
2.518345486126873e-06 
-4.683623040233608e-06 
-3.975504639515031e-06 
7.011233263372046e-07 
-1.496449048545851e-06 
1.329097207116055e-08 
6.915843091440606e-07 
1.305874512711291e-07 
-1.547170203435963e-06 
-2.3794923860664e-07 
2.765869267348618e-06 
-4.955202147400552e-07 
9.987077876992548e-08 
4.14984940317602e-07 
-2.664960668660854e-06 
-9.941243563307291e-07 
-9.188779741388024e-07 
5.321389207016045e-07 
3.439429389414568e-06 
9.8935124007971e-07 
1.824403173095934e-06 
2.016386520660385e-07 
-2.233897228692673e-06 
-4.92905967896732e-08 
-4.83917873751869e-07 
-1.701985185040208e-06 
3.51360905660569e-06 
2.641166078963795e-06 
2.509358652662551e-06 
4.122958524807431e-07 
-2.892709575636518e-06 
2.373448065488956e-06 
-1.37419321114404e-06 
-5.530219689847455e-07 
8.620937136883575e-07 
3.738242256920167e-06 
3.84826205492447e-06 
3.563504318799449e-06 
-7.857598935675543e-07 
7.396596502015991e-07 
-2.354494322956943e-07 
-4.296421980528271e-06 
1.073963044724039e-05 
-1.545833645335464e-06 
-8.433546545135926e-06 
-9.168833501099216e-06 
9.974875704068739e-06 
7.132606330007639e-06 
3.454683992774213e-06 
-7.564656350548816e-06 
1.04561623548072e-07 
5.047953988155343e-07 
6.330915078069482e-06 
3.147693306621944e-06 
3.956817326085047e-06 
5.02552248449562e-08 
4.019649438188093e-08 
-2.381279258446371e-06 
8.930260759927168e-07 
-1.566992081931288e-06 
-5.361694860109911e-06 
1.300692682731543e-06 
1.777386101448686e-07 
1.741944832227358e-06 
-1.074618576345976e-06 
-8.174511782235226e-07 
5.00928692828865e-06 
7.183016367858317e-08 
7.401558536080139e-06 
1.887968898373986e-06 
-1.829145465740755e-06 
-3.95552054452845e-06 
2.577288719299144e-06 
-3.357142918160671e-06 
1.499405429091338e-05 
1.6187959912265e-05 
7.865324893598726e-06 
4.700246257665603e-06 
-2.32813912048936e-07 
1.55568887699523e-06 
-8.326847632418983e-06 
5.718454442279221e-07 
1.102348154324168e-06 
-4.425018084458264e-06 
-5.855382473704387e-07 
8.272895069114885e-06 
-1.978604081187949e-06 
-6.562617026304348e-06 
-5.982731663894045e-06 
-4.109613458148791e-06 
-5.494516887346418e-06 
-2.47510537438208e-06 
1.25292012633623e-07 
3.281394410928259e-06 
2.309039287032502e-07 
3.892016693976397e-06 
5.60399084371062e-06 
-4.644358665559629e-06 
-1.068563337192042e-06 
-4.588768592635827e-07 
2.150813320926149e-06 
1.951881205156788e-06 
-5.424329574410295e-06 
5.129870715871718e-06 
9.954759530332861e-06 
5.368058429074889e-06 
-3.850947347125425e-06 
-4.074441134526499e-06 
7.17500517216372e-06 
3.466544554249446e-06 
5.534974577485981e-06 
8.616003874844695e-06 
3.116469714774627e-06 
-2.233023625907738e-06 
-1.310140054819746e-05 
1.195929425991543e-05 
-5.774271965620872e-06 
3.231024378016618e-06 
-1.789922966332729e-06 
1.279638903399925e-06 
5.117144436737327e-06 
1.837741212674609e-06 
-4.604399132440455e-06 
-2.269453065711519e-06 
7.546674202748474e-06 
1.557090250309759e-06 
3.593655020605518e-06 
3.352309370198203e-06 
1.763861724474439e-06 
-8.142849382599034e-06 
-7.864708549197008e-06 
-6.074341778566937e-06 
-4.13222403225775e-07 
2.250368250925904e-06 
-2.665632575538199e-07 
-6.400391938212849e-07 
-1.728597444334555e-06 
1.755627311681917e-06 
4.588379388066408e-06 
-1.776577002794691e-06 
6.691455005608069e-07 
-1.533698639344599e-06 
-2.564675511585162e-06 
-1.234028276583204e-06 
-1.05733042394003e-07 
-1.697757367464564e-06 
3.800137400641775e-06 
2.688433956886032e-06 
1.696189266245978e-06 
7.791851379954421e-07 
-3.251450193758593e-06 
4.453282461419495e-07 
-1.885104235123363e-06 
-9.733257814568933e-08 
3.139747855675368e-06 
2.405767843648866e-06 
1.873517930565442e-06 
4.21829488448486e-08 
-2.577958204318882e-06 
2.836200039415574e-06 
-1.625465940234091e-07 
-1.423839700091306e-06 
-3.148068720605209e-07 
4.722958591673737e-06 
4.453455704451165e-06 
-8.032865499709659e-06 
1.04630061172512e-06 
5.153166260655582e-06 
1.777690205887172e-06 
-9.194947408358303e-07 
-1.15096026323263e-06 
-5.115990594721122e-06 
-7.364766014461176e-06 
-3.078730433625763e-06 
8.247197226675197e-06 
3.196660776719412e-06 
3.512834497851935e-08 
-8.443213597567502e-06 
9.908927691566241e-07 
-1.719230646047016e-06 
-5.555021303745331e-07 
3.213716603012003e-06 
-7.658877306371438e-06 
-3.425320472468049e-06 
-9.05732814595774e-07 
5.192092594168558e-06 
1.723720058728044e-06 
6.175855887065308e-07 
1.681194237632967e-07 
4.975802442111276e-06 
1.414394828327645e-06 
-5.055007782275552e-06 
3.443567418441576e-07 
-7.271178178455125e-06 
3.425849781549496e-06 
-9.091879224430212e-06 
6.506598987165742e-06 
-3.672824967896284e-06 
-2.818188400419813e-06 
6.816310756787882e-07 
7.583057317700539e-07 
1.637936424393599e-06 
1.140082470567121e-05 
1.178078039587804e-06 
3.613454164515716e-06 
2.195918735469495e-06 
-5.75497903377701e-06 
-1.063364833023666e-05 
-6.414711794299114e-06 
-1.659356901671213e-06 
-1.277177331207084e-06 
-1.891757999904076e-06 
-2.491892069016057e-06 
2.445999861758954e-06 
5.757079974644777e-06 
2.017850734162535e-06 
4.0913100432187e-06 
-2.513907368055127e-07 
-6.159271819783338e-06 
-9.0835172492047e-06 
3.291618917228201e-06 
6.841952010677676e-06 
7.221225773657464e-07 
-2.847685871507257e-06 
4.802597159264688e-06 
-1.288072098092772e-05 
-2.679765358644955e-06 
-2.919553799391647e-06 
8.306812694725418e-06 
4.614921267399648e-06 
4.952960983797168e-06 
5.769449340506011e-06 
9.180025551293116e-07 
-6.856194621357204e-08 
-8.02744974047391e-06 
1.105790676523585e-05 
-2.121114030534233e-06 
3.694554823131754e-06 
-6.221055898618427e-07 
-6.184345348189834e-07 
6.153323271111376e-06 
4.555925730341521e-06 
-7.518715004829754e-06 
2.961990795836876e-07 
5.742378834689061e-06 
9.915533757537561e-06 
-6.406626364177477e-06 
5.550477020313504e-06 
-2.673908686929999e-06 
-4.19347992003811e-06 
-3.753121658401812e-06 
6.524612739093124e-06 
2.196619157481089e-06 
-3.003295359780614e-06 
6.191303659797395e-06 
-7.617140450519404e-08 
6.073589398716009e-06 
-6.368067816062195e-06 
-2.186345865955571e-06 
-8.237374587925884e-06 
5.248676374361134e-06 
1.667386275571904e-06 
-1.316208303265955e-06 
-1.34994017458509e-06 
-8.321166738475234e-07 
-1.334633655150916e-07 
4.073501563247145e-06 
2.503469966841728e-07 
9.758853723310503e-07 
7.191803912431405e-07 
-2.144800573843763e-06 
-1.14129411484509e-06 
-8.114966617160219e-07 
-1.14670363085825e-06 
4.51253375227444e-06 
1.718383052660262e-06 
1.472524864414239e-06 
5.39211524517589e-10 
-3.577624132361851e-06 
2.076762327609869e-06 
-2.0108685255647e-06 
2.600617642726629e-07 
1.466887234531306e-06 
3.176126917810609e-06 
3.650533875890138e-06 
-5.719902974348962e-08 
-1.919973113388617e-06 
3.20490833894305e-06 
1.613669409966414e-06 
-6.554549339517751e-09 
-8.24420265605116e-07 
4.59571842178562e-06 
2.537136273448912e-06 
-5.311753767678064e-06 
9.557123738192082e-06 
5.795354376376965e-06 
2.452605095919939e-06 
-5.886836639508358e-06 
-3.633031596580762e-06 
-3.765640613131604e-06 
4.390130787528619e-06 
1.48791350339291e-06 
2.100856449256239e-06 
2.881594715356709e-06 
-3.382938847754054e-06 
-2.97264165202944e-06 
2.425061316023477e-06 
-3.818389653579563e-06 
-4.990923137382437e-06 
3.893955922325329e-06 
2.670241794547466e-06 
-9.755002393315622e-06 
-3.862576741406632e-06 
1.032587604713638e-05 
2.280843612843844e-06 
-4.47189211395708e-06 
5.796580190425648e-06 
8.086063234966232e-06 
2.190035755342518e-07 
-7.207165662324831e-06 
1.748804896832199e-06 
-2.528287427951577e-06 
-1.450076780511144e-07 
-8.413483430452423e-06 
-1.35099093785265e-06 
2.567853024854563e-06 
2.62172722398075e-07 
-1.746418083188393e-06 
-4.326601492623515e-06 
1.052489605952111e-06 
2.164746156198089e-07 
1.113752269672753e-06 
-4.680727036613669e-06 
-7.95675451434335e-07 
-4.622290031976989e-06 
-6.910114208923501e-06 
-5.63363707284234e-06 
-4.995769182925418e-06 
-6.023587023368361e-06 
1.11384434901291e-06 
7.003027990578557e-07 
-3.508965392483196e-06 
-3.37137820129808e-06 
1.35066283773001e-06 
4.870766168437069e-06 
6.663040358479929e-06 
-8.998516568690354e-06 
-3.714815259138184e-06 
4.142723281296933e-06 
6.19413200170655e-06 
7.694785163545891e-08 
-4.235880946379278e-06 
-6.474164745475825e-07 
3.005300302294683e-06 
2.81758463121748e-06 
-6.040683114947758e-07 
4.622376278379976e-06 
4.499296571749481e-06 
5.762876780211781e-06 
3.788035477645871e-06 
-8.383861847767219e-07 
1.230123843785067e-06 
-1.079423032705704e-05 
7.519534209840743e-06 
-1.587368335582779e-05 
2.735677124124953e-07 
-4.924075810764765e-06 
-3.051245516629977e-06 
-2.21226524694882e-07 
1.37261156507202e-06 
-2.986271615400174e-06 
1.984515365116959e-06 
5.760178875298846e-06 
2.843169891909692e-06 
7.107669312112484e-07 
7.994080734144664e-07 
-1.41395084907746e-06 
-4.574745943712563e-06 
3.702507055244436e-06 
4.693753773646305e-06 
1.205126452449643e-06 
-4.846406781906743e-07 
-1.123154062337427e-06 
6.224215972123319e-07 
6.635909955993562e-06 
-4.273261390111756e-06 
-9.617170150594698e-07 
2.772408957895903e-06 
7.339767924661305e-06 
8.855341999374025e-07 
-2.123956128019229e-07 
-1.711612203212493e-06 
-1.986000500342996e-07 
-2.858529230621404e-06 
4.205604822032296e-06 
1.495509672303368e-06 
8.983772365269987e-07 
1.16575739749019e-06 
-2.220134103346255e-06 
3.814515231011253e-07 
-2.300166032634861e-06 
1.137382257630129e-06 
3.637765484862547e-06 
9.164108744794795e-07 
1.273866928059205e-06 
-9.664278605954344e-08 
-2.987119575591962e-06 
3.645416569259877e-06 
-7.558121140628971e-08 
3.911919269489427e-07 
-6.751925110576992e-07 
4.24895557081606e-06 
3.992458499524123e-06 
9.321710362104376e-08 
-1.909905479389028e-06 
3.697854494478748e-06 
2.350523900006672e-06 
1.73649532684829e-06 
-1.122785651856267e-06 
3.319549425786792e-06 
1.94329173506062e-06 
3.82377216866894e-06 
1.07713086461327e-05 
4.257590629093392e-06 
-5.412251609044262e-07 
-7.511141771635579e-06 
-1.591705412846664e-06 
-5.670230584218564e-06 
6.860143172072548e-07 
5.980935937534329e-06 
-5.634092208422329e-06 
-5.18253604899309e-06 
-4.407661853402981e-06 
7.370365362437397e-06 
4.66426666462817e-06 
-1.287581640489819e-06 
-1.46180482308819e-06 
2.424375566472701e-06 
7.045956482228667e-06 
-2.017471188771859e-05 
-2.523510201527278e-06 
2.817013632367829e-06 
1.640764755031149e-06 
-1.22680128315492e-05 
7.611806281859265e-06 
2.557111762751093e-06 
-4.757098767105161e-06 
-2.673417804773948e-06 
6.632525350422358e-06 
6.960001601188865e-06 
-1.389855303610184e-06 
-2.688284741848515e-06 
-1.013164176144383e-05 
5.655680360218288e-07 
-1.873830809305402e-06 
-1.032754009866559e-05 
-3.346079941826948e-06 
-2.405129453264984e-06 
3.768296679249932e-06 
1.155058669592916e-06 
-8.377936737146833e-06 
-1.94667699851228e-06 
8.909323461431653e-06 
1.173560520317573e-06 
2.51374717247265e-06 
3.944240268292272e-06 
-5.420499404915494e-06 
-6.640374371928828e-06 
7.859164232479095e-07 
7.236519500712812e-07 
-7.549820538263916e-06 
-8.001153897063421e-06 
2.5886177580585e-06 
-5.408349022455121e-07 
-2.623928300846671e-06 
-4.130213825784752e-07 
8.026559966359623e-06 
-5.300521144587481e-06 
5.488091170759997e-06 
9.288963394823949e-07 
2.188376354379298e-06 
3.419875606435748e-06 
-2.866585301562923e-06 
6.609695301554474e-07 
-6.606261293334693e-07 
3.296650513681826e-06 
-8.914029024140607e-07 
-7.732412857881061e-06 
1.130898697083418e-06 
3.72928952995974e-06 
-3.737776242799221e-06 
-3.660600610729292e-06 
3.143808839495781e-06 
5.606865825223543e-06 
-1.173767547066128e-05 
3.905593140538125e-06 
-5.430242800964668e-06 
-2.44930733520666e-06 
1.196601265404819e-06 
9.726328106266767e-06 
4.548384163912482e-06 
-3.449093356409426e-06 
7.136535835149991e-07 
-1.623127371702814e-06 
5.79921619254195e-06 
2.354468744097912e-06 
-2.625734995229864e-06 
-2.594900833664439e-06 
2.693766901276095e-06 
1.581896436939943e-07 
-5.398052609262991e-06 
-7.459407385399917e-06 
5.543442509207305e-07 
-3.684929616543164e-06 
4.631008952475499e-06 
9.088207465093749e-07 
-3.344514204959523e-06 
2.856671049650476e-06 
3.540043666879443e-07 
-1.306393689117514e-06 
-1.274420297354625e-06 
-1.874171819470452e-06 
3.997381771100334e-06 
6.241513296170211e-07 
4.999924648096461e-07 
2.338341661697618e-07 
-3.012983452372508e-06 
2.50552647316024e-06 
-2.217689345005785e-06 
1.161502832131845e-06 
1.21465888804055e-06 
1.801200172714896e-06 
2.96561427207473e-06 
-4.750574754664856e-07 
-1.754862382071378e-06 
4.810237312084397e-06 
9.661104972610187e-07 
1.464928641053603e-06 
-1.624930193481568e-06 
4.386763319672086e-06 
1.565403344654814e-06 
-7.552538904927218e-07 
-2.475222951338022e-06 
4.550047191111062e-06 
1.113901819108095e-06 
2.896543256892293e-06 
-2.261532513703933e-06 
2.884918416466334e-06 
3.518496156429226e-06 
5.588669333102718e-06 
5.034760922101339e-07 
1.911676131781191e-06 
-2.675427602178691e-06 
-3.414660764739601e-06 
4.85375991281046e-06 
-7.421714690435475e-06 
-7.746925590479855e-06 
1.956903506701314e-06 
4.828650354375344e-06 
-1.638381166210421e-05 
-2.645669536062662e-06 
1.333176863382972e-05 
4.593412354871782e-06 
-3.349647976664729e-06 
2.653531394094364e-06 
9.804091022181133e-07 
-1.674994692915647e-06 
-1.760459248870227e-05 
5.339911404300683e-06 
6.360601006763515e-06 
-2.856365747382629e-07 
-8.872709722092276e-06 
-3.451841360378126e-06 
-5.787431242141263e-06 
-9.190466642498024e-06 
-1.627228715132626e-08 
-9.887745189551125e-07 
1.491435477393096e-06 
-8.144344803262574e-06 
-4.665874241578739e-06 
-6.084813129196387e-06 
-9.259739808600642e-06 
-1.408543499617662e-06 
-3.761014655615483e-06 
-5.82730465180588e-06 
-1.822450342638684e-06 
1.242091119659515e-06 
-1.896124119299203e-06 
-3.417613777942949e-06 
-3.088512513206638e-06 
-1.027175480386442e-06 
5.910580770618931e-07 
-1.334078532306198e-07 
1.323147649083356e-05 
-8.195913466112996e-06 
-8.153958849186412e-06 
1.930779984570011e-07 
6.502098336552926e-06 
-1.202705624276838e-06 
-1.203240424916836e-05 
-6.29942724500078e-06 
1.771761680127095e-06 
-3.101248531239018e-06 
5.429174695033911e-06 
-1.461612042735147e-06 
-2.016312582748429e-06 
6.205229210540687e-06 
-1.1163437315415e-06 
6.427414803574243e-06 
-1.706786235456398e-06 
-1.058914276481259e-05 
-5.33488732639358e-06 
-4.618078333302623e-06 
-4.691722068884086e-06 
-9.003343552650668e-06 
-3.655999138778993e-06 
-9.54873638823787e-07 
1.61433197884718e-06 
1.054388491210493e-06 
-8.503332910682826e-06 
1.146860091756456e-06 
2.640877327467026e-08 
-1.782923228456375e-06 
1.122270843697281e-06 
-3.893176139311049e-07 
-9.397936117922318e-07 
1.7897633396097e-06 
1.047597554217321e-05 
3.151693224420605e-06 
8.143813762583696e-07 
-6.144471133630289e-06 
-9.023122436248277e-06 
3.110703735559941e-06 
-6.7231482858724e-06 
9.885359501650738e-06 
3.131885016660303e-06 
2.750871550658552e-06 
4.316226878541817e-06 
-6.953707313918167e-06 
-1.203271703215786e-05 
5.208438710680405e-06 
-2.682441637699355e-06 
4.901637277105728e-07 
-5.265905445417632e-06 
-8.692018158756948e-06 
2.345568105569277e-06 
-3.31892649759905e-07 
1.015172022042251e-06 
-2.322734362708126e-06 
1.371139702409801e-06 
3.258618906561916e-06 
1.474814162760301e-07 
6.635436953248639e-07 
3.825353635451682e-08 
-2.516461353599072e-06 
5.131374230379852e-06 
-3.951059018418621e-07 
1.803869963636951e-06 
-1.148654372006847e-06 
3.182100089193529e-06 
3.242389596461445e-06 
-1.494684342895673e-06 
-1.406713199861858e-06 
6.397350118462289e-06 
1.603071585424923e-06 
1.615530671756594e-06 
-8.935432377187772e-07 
3.346095236934429e-06 
1.408321526059976e-06 
-4.55711436181445e-07 
-8.549242369384608e-07 
4.655066651206019e-06 
3.79300576442832e-07 
3.27127341619321e-06 
-2.091691846353198e-06 
3.033456473337445e-06 
2.680807189348766e-06 
7.807389715188836e-06 
-3.174640758235237e-06 
-4.413653151632293e-06 
-5.12796423862332e-06 
7.375018232547272e-06 
8.7670443017838e-06 
2.255652374958777e-07 
-2.787964272050752e-06 
8.627389474691023e-07 
9.049544599367778e-06 
-2.152743736602549e-05 
4.3391471195098e-06 
2.034544475368176e-06 
2.37588095866839e-06 
-9.184524098554037e-06 
4.191777140723459e-06 
-2.605875276412878e-06 
-1.67995624992689e-06 
-1.701181778181462e-06 
8.204791349703011e-06 
1.144712449651947e-05 
3.049144828897944e-08 
9.361546848741823e-07 
-1.804868766360859e-05 
-1.182491456073158e-05 
-9.005129372092237e-06 
8.883916264500967e-07 
3.548773111360147e-07 
-1.128653246646047e-07 
-8.68731158984106e-06 
-7.333157034962973e-06 
-6.600883655843347e-06 
-6.392548781113838e-06 
5.118705534657614e-06 
1.691014541668603e-06 
2.592078819544787e-06 
1.044563659790746e-05 
1.966484405736208e-09 
-1.157959607186239e-05 
-1.012258495251679e-05 
6.051724716622088e-07 
-6.247269194800606e-06 
-6.798430103881115e-06 
-5.478594330784449e-06 
-1.370361503423626e-06 
-2.33064792285065e-06 
-5.692898902825528e-06 
7.037830727622196e-06 
-5.435851413521437e-06 
8.687645643028378e-06 
-7.026015654018641e-06 
1.213973728948037e-06 
-1.20284658449522e-06 
-4.951145255964372e-07 
3.54776785299333e-06 
-3.605626651465486e-06 
-3.720772051490029e-06 
-1.806711602778304e-06 
3.015473851607926e-06 
4.74267520293548e-06 
3.087389747005142e-06 
-6.469871117796738e-06 
-8.908941795051902e-06 
-3.47694090386673e-06 
-8.664088980354733e-07 
-7.971339333027649e-06 
4.33596636033019e-06 
-2.01181764201439e-06 
1.460049323340061e-06 
5.464514562242476e-06 
2.2724979032198e-06 
1.245620936203762e-05 
-2.185790014673956e-06 
-8.438556331030061e-07 
-4.355298712406098e-06 
8.012145261806082e-06 
6.535747754223656e-07 
-5.608759487734025e-06 
1.034339795543145e-06 
1.637271403101765e-07 
1.726633709879707e-06 
-7.832311646911626e-06 
-1.022816187852908e-05 
3.647195359891499e-06 
-1.748006179721218e-07 
6.079102559834242e-06 
7.859117442857618e-06 
-3.148551329466305e-06 
7.914671343108169e-06 
-2.379470182097627e-06 
-7.589059802656083e-06 
-5.299911953295612e-07 
1.590488873091613e-06 
7.59899555725579e-06 
-6.391036369373473e-06 
-4.299373078995786e-06 
7.467188815874433e-07 
-2.739491739137676e-06 
3.381334582056113e-06 
-1.255130348245277e-06 
2.232363107881974e-06 
1.164956264226358e-06 
9.360661989717557e-07 
2.155433366934711e-06 
-7.252898285936451e-07 
-7.435719989280215e-07 
6.496427927601772e-06 
8.109048499589411e-07 
2.206668709391e-06 
-1.358468722621554e-06 
3.955566575480927e-06 
1.429349180293001e-06 
-6.687925294264194e-07 
-2.080974977178529e-06 
6.585669987982952e-06 
4.842718865844863e-07 
1.322327445598878e-06 
-2.513503309724781e-06 
3.63112623027472e-06 
2.84886383342767e-06 
-2.101245715781351e-07 
5.47587833935695e-07 
2.535587213519523e-06 
2.382610271086295e-06 
3.606590493416088e-06 
-4.652266509477436e-07 
3.251496345002705e-06 
3.091923477576312e-07 
-1.518892943024848e-06 
-4.444898869400678e-06 
-5.955786554415487e-06 
-3.895655637887365e-06 
1.170835852543946e-05 
7.348714637438957e-06 
-7.832933244741309e-07 
6.51945658210139e-06 
5.890105141620751e-07 
-4.694074679576219e-06 
-1.336581134229354e-05 
9.837457472835154e-06 
4.256022073952778e-06 
-1.581735447010802e-06 
-7.998946676665243e-06 
-7.255563681232831e-06 
-5.639067936554579e-06 
-6.668061926388879e-06 
3.106963497620539e-06 
-3.95023440439083e-06 
-1.976853360771733e-07 
-2.071224785471825e-06 
-4.378564113910067e-06 
-7.088761703945197e-06 
-8.051235665016781e-06 
-4.630423985894562e-06 
-1.860707983866602e-06 
5.792616434445956e-06 
9.585713679121097e-06 
8.166337372775188e-06 
-1.500719800648325e-06 
-2.231604067246681e-06 
-4.889359393651027e-08 
-5.377255493276382e-06 
-2.680911981629541e-07 
3.325531695468805e-06 
1.334181509676741e-05 
-8.99843494454412e-07 
-2.548905790308621e-06 
-1.182576639165916e-06 
3.233905533590865e-06 
-6.564676182772877e-07 
-7.548225826678476e-06 
-7.424864768180476e-06 
6.745469352011144e-07 
3.64825831538705e-06 
1.513879346496336e-06 
5.775481867173186e-07 
8.283883129789625e-07 
8.338642375879031e-06 
-4.887890380305868e-06 
4.940433488932801e-06 
-6.914827983963564e-06 
-1.145976962008782e-05 
2.166801841507277e-06 
-5.677936700845974e-06 
-1.051967168945486e-05 
-4.724669477099272e-06 
-2.564375021783147e-06 
1.470762514845544e-05 
8.180959204049295e-06 
2.943916330378704e-06 
-1.082363220564479e-05 
5.432587796519489e-06 
1.894259147879098e-07 
6.288484365288586e-06 
4.162625838529541e-06 
3.491888975579627e-07 
5.266904783019661e-06 
4.64687897504054e-07 
1.127922529607814e-05 
1.573605235724372e-05 
5.782717685113036e-06 
-2.534245372530064e-06 
-9.050140105238068e-06 
4.285744524605745e-06 
-2.193387723870959e-06 
2.501149320110378e-06 
3.954699780268341e-06 
-7.562679139979033e-06 
3.839956026684221e-06 
-9.489339233754994e-06 
-1.059510882711544e-05 
1.818312781774317e-06 
-8.835709890751671e-06 
7.773423861630425e-06 
2.525141010625063e-07 
-1.022632593071381e-05 
2.902328134194147e-06 
-1.399705551228613e-06 
1.208013453818991e-06 
-7.528204533947796e-06 
-2.281321071782485e-06 
-2.560752063588581e-05 
-3.061108746809528e-06 
-5.80674151290328e-06 
-3.794420620673304e-07 
-3.316622235664428e-06 
4.85493570559673e-06 
-4.440014081640229e-07 
2.000331526787639e-06 
-7.369682031161184e-07 
2.282794906761187e-06 
2.341830512188319e-06 
-1.218127745762707e-06 
-5.018346487141827e-07 
6.267597541793411e-06 
7.860993021647199e-07 
8.84859519257889e-07 
-6.293222686902841e-07 
3.261202823066399e-06 
1.215731480157449e-06 
2.560029992521012e-07 
-6.296208137154868e-07 
4.871319653006317e-06 
-3.998611122459171e-07 
5.084351752448242e-07 
-2.743531497267696e-06 
3.457118466659231e-06 
1.745930088890791e-06 
6.370743000595415e-07 
6.291302068277921e-07 
1.597713124738706e-06 
4.327956780198386e-06 
3.98097550783323e-06 
-5.848057921270069e-07 
4.024449477850402e-06 
-1.881148064746164e-07 
-2.498616665573844e-06 
1.402797125042355e-06 
-6.673784777948897e-06 
1.946124222562599e-06 
9.799979287778791e-07 
4.089454279637909e-06 
-2.685178309072152e-06 
5.70818578466433e-06 
2.418902063778053e-06 
-4.414378050184417e-06 
-7.0724996479874e-07 
2.886924858019573e-06 
5.414217272583352e-06 
3.630998143153158e-06 
5.709263782772253e-06 
-1.715527324647657e-05 
-8.48036696085077e-06 
-6.575888905690867e-06 
-1.944128272902554e-06 
-5.18483804670786e-06 
-2.091644167233642e-07 
-3.443415348755841e-06 
-4.883986098330104e-06 
-1.342685908180901e-06 
1.517225125185949e-06 
2.992347776186278e-06 
-1.5220458248963e-06 
8.784828644042803e-06 
7.024586136536628e-06 
1.065818473656117e-05 
1.333057754576424e-06 
-2.931714318531475e-06 
1.06094862868555e-06 
-6.994676919218229e-06 
-5.899289867381135e-06 
-1.807551306520232e-06 
-1.64337222097568e-06 
-2.277880964683938e-06 
-5.978802153364496e-07 
7.908889776302425e-06 
-5.712220880091142e-06 
9.443323778491476e-06 
-6.499459194774289e-06 
-4.199037376113004e-06 
-5.561198351713066e-06 
9.008753029856279e-06 
2.761012039344671e-06 
-1.594730294892374e-07 
-2.799330994577284e-06 
2.525878313498796e-06 
1.166921862605468e-06 
-5.386703644296428e-07 
-9.382181667205517e-07 
-8.471406251825433e-06 
-3.523865664898159e-06 
5.444491399724337e-07 
-4.596698649778992e-06 
4.234100649771112e-06 
-8.666769568410565e-06 
1.021571286671349e-05 
-1.319322453321189e-06 
-7.203839174332929e-06 
-5.938638543153443e-06 
4.18289795084648e-06 
5.275825710639377e-06 
5.217232903086479e-06 
-6.397133223640975e-06 
5.713764712588443e-06 
2.697880591767899e-06 
-7.247565031480282e-06 
-6.613491484631429e-06 
-7.054639718690351e-06 
-2.459784492313602e-06 
-6.804020508154365e-06 
-8.254903855299351e-06 
4.540605667266331e-06 
3.477351650801664e-06 
7.435200117788973e-07 
8.5755189923521e-06 
-1.0678488928779e-05 
5.903526466733014e-06 
-2.113918179481756e-06 
-5.145818655196117e-06 
-1.457410335117983e-06 
-4.058437283961635e-06 
-2.46013687727305e-06 
9.919728382303532e-06 
-6.023662864237433e-06 
-2.944170422002804e-06 
-4.752922107066683e-06 
-2.146484936755957e-06 
-1.440057968744507e-06 
6.861022789447774e-06 
-1.155733973604051e-05 
-9.410464143165872e-06 
-7.735778724784417e-06 
-3.157372085134621e-07 
-6.898447647897626e-07 
4.849247470320791e-06 
1.881374674896648e-07 
1.637250124288256e-06 
-5.404446571439412e-07 
2.652974179737654e-06 
7.833485552820461e-07 
1.542198429847725e-07 
-1.300430696404761e-06 
5.413795897764855e-06 
-6.736022405073365e-08 
6.010658597092805e-07 
-2.91912685055944e-06 
2.795179788030991e-06 
2.562426161681613e-06 
9.45280970594939e-07 
4.700979248714387e-07 
1.840737886486343e-06 
2.125706536498187e-06 
8.124508110184467e-07 
-1.492848732677801e-06 
3.145024971832085e-06 
1.166768333080584e-07 
8.14034357283873e-08 
1.118346179100106e-06 
1.927384039402371e-06 
3.324444480642435e-06 
4.443463906812847e-06 
-1.561129169753537e-06 
5.475507639399656e-06 
-1.006435817920841e-06 
-1.928039605904095e-08 
-2.940665827443043e-06 
1.274038966272467e-06 
1.088480089903544e-06 
-1.020965801171741e-06 
3.883847310304351e-06 
-1.549031967847008e-06 
-4.171262907120909e-06 
3.926347989562143e-07 
-2.021326973134185e-06 
8.830331665135128e-07 
-1.298739460549489e-05 
-2.099849882347002e-06 
6.091789531818205e-07 
-2.600223421674676e-06 
-6.562648065015855e-06 
-2.430389734218264e-06 
-2.068300865102023e-06 
-6.371584480996894e-06 
-8.844753640086144e-06 
9.033003045362851e-06 
1.039488317791028e-05 
-2.236309028051706e-06 
1.195099812162764e-06 
9.9667632219167e-07 
2.330527348429845e-06 
4.168934848172664e-06 
9.594936373386306e-06 
1.889768121384584e-06 
2.395971234741048e-06 
-3.172732780706321e-06 
3.712164676154977e-06 
2.602027198671617e-06 
-2.761911338842181e-06 
-6.721357692011379e-06 
-5.455634874703159e-06 
-1.621016786187003e-06 
4.969221038509169e-06 
-8.592402153509199e-07 
4.740969378338658e-06 
1.508376733882588e-06 
1.505657902539433e-05 
-1.252974622714745e-06 
-2.077518823653682e-06 
-9.140064395390066e-06 
8.531271016853242e-06 
-2.623407512742343e-06 
5.127540031352251e-07 
-1.145705370225541e-05 
-2.280801494251327e-06 
-2.975368611207876e-07 
9.583156839832886e-06 
8.219370072203087e-06 
1.642160220717508e-06 
-6.326562238578461e-06 
9.624473750327592e-06 
-2.865750512718757e-06 
5.003433399825301e-06 
-1.232967504759794e-07 
1.211701763387057e-06 
-3.006004191580644e-07 
-5.810556986591688e-06 
1.451466742214696e-05 
-7.354782796176989e-07 
3.606621651229148e-06 
-6.114236356794053e-07 
-8.317544587759137e-06 
-1.586276288592948e-06 
2.259590528397312e-06 
-5.201181445305451e-06 
-7.875307901248756e-06 
-5.930083517636944e-06 
1.604037317414976e-06 
-9.108478038628274e-06 
-7.708770520292564e-06 
-1.367734275950427e-06 
-1.253858721550532e-06 
9.848455906895191e-06 
4.918334104431701e-06 
-1.266615674274723e-05 
1.891668921456695e-06 
1.600243832621595e-06 
2.274538029166501e-06 
-7.518249651332681e-06 
-5.321350583814598e-06 
-1.624826456888423e-05 
6.744300569591301e-06 
-2.199748837021918e-06 
-3.650230218514912e-06 
-8.314258511838137e-06 
-2.355710560499813e-06 
4.443792043225532e-06 
7.416971448542471e-06 
-4.275115053991916e-06 
-5.216046177651338e-06 
-9.843521619222699e-07 
-1.99194479812593e-07 
2.968520126931277e-07 
4.124168737302608e-06 
4.864358064367955e-07 
7.960372486622718e-07 
-1.900554128839299e-07 
2.294770140146376e-06 
1.19917028046543e-06 
1.548660712601365e-06 
-6.301377793755456e-07 
2.99820213044508e-06 
-2.815446464253384e-07 
3.711002432598381e-07 
-3.606092397607688e-06 
2.333489272453651e-06 
1.791545003112592e-06 
1.856296627240791e-06 
1.556365065290053e-07 
1.274898244985488e-06 
3.281058677484998e-06 
2.120621769746632e-06 
-1.805710356626531e-06 
4.744798491597233e-06 
7.363530543589977e-07 
-1.004418244597712e-06 
2.760366514529916e-07 
9.913515012154042e-07 
1.639933457720134e-06 
1.893176306065851e-06 
-1.127462176637513e-06 
5.415312072830371e-06 
-1.50019428635049e-06 
1.165604711074809e-07 
2.828857550856709e-06 
5.434449793120515e-06 
-1.827707743438013e-06 
2.373530058674617e-06 
5.139430746806138e-06 
4.387622837185862e-06 
-8.527119711320958e-06 
-2.142508415223601e-06 
-2.461285306681145e-06 
-1.946032855659882e-06 
-7.350200444034978e-06 
-2.301940146519017e-06 
4.637550824209379e-07 
-8.463159460003873e-06 
1.093166691932689e-06 
4.802253005132215e-06 
3.146050795657081e-06 
3.637863402874958e-07 
-1.738462792388378e-06 
3.330403263078353e-06 
6.951005847151864e-06 
4.337284068350833e-07 
-3.785713513280436e-07 
-4.033559095914985e-06 
-4.424602644079112e-06 
-6.793472564941068e-06 
3.034060141739372e-07 
2.196807620177988e-06 
-8.546666685635374e-06 
-3.162901270245371e-06 
9.165454769604742e-06 
-8.089402004139734e-06 
5.580641389760274e-06 
-4.709500860159562e-06 
5.364063208362416e-07 
-4.400898756673011e-06 
1.215056444047953e-05 
4.693361302321145e-06 
-1.539606284234848e-06 
-1.313355918761771e-06 
8.599486147015451e-06 
6.481250765426761e-06 
-1.096054887007779e-06 
-2.796474684331139e-06 
5.408434809485855e-06 
-3.088653224813773e-06 
3.698475983379081e-06 
-3.753404191521273e-06 
5.262376707764024e-06 
-7.78625738656803e-06 
-6.508204591819728e-07 
-3.832303218139148e-06 
-6.530003044116147e-06 
3.07139226792755e-07 
8.06593054815885e-06 
-8.370073811272008e-07 
-1.33244856430621e-06 
7.315857040992027e-07 
-4.266174368609904e-06 
6.276447838861836e-06 
-8.930497670162743e-06 
1.836058456410578e-05 
-6.507481843312179e-06 
-5.523382412729564e-07 
-5.490294593353638e-06 
-7.870424640470838e-06 
1.989479622232382e-07 
4.205146947714262e-06 
6.740259744479354e-06 
2.350965431656426e-06 
-1.100401750067726e-05 
3.846381595168936e-06 
6.208423244353793e-07 
-1.713266142766929e-06 
-4.07559933190006e-06 
-7.56552431999215e-07 
5.516771853041426e-06 
8.403634289649581e-06 
-2.503340839669991e-06 
-5.556598072240953e-06 
-2.722215673272527e-07 
2.953888650632944e-06 
-2.785783816811092e-06 
3.563198746570273e-06 
-6.545870289367714e-06 
4.410100745123468e-07 
-1.237616159947577e-06 
-2.117973987025421e-07 
6.372690759595479e-06 
2.512285377096073e-06 
1.498113371809602e-06 
1.005383221566892e-05 
-4.651106750231095e-06 
3.829050796081752e-06 
-1.722161761904706e-06 
6.875519098875083e-07 
-5.972307070258732e-07 
3.07448777608687e-06 
1.510470574334764e-07 
9.729472113317357e-07 
-2.4995231102827e-06 
1.476808745134182e-06 
2.229109592646939e-06 
2.145566389639057e-06 
-2.559183644784502e-07 
9.200779280875657e-07 
1.752907431456674e-06 
1.395761543881059e-06 
-2.381778524875844e-06 
2.517301620053124e-06 
3.678481320092304e-07 
1.078309492319389e-06 
7.013590579572144e-07 
1.997646664099296e-06 
1.641957668200845e-06 
1.997767294166774e-06 
-2.387453452128764e-06 
6.442845086653131e-06 
-1.180736336557799e-07 
-1.800274686023581e-07 
-1.032727895476971e-06 
-6.984066284526454e-07 
-1.608322811922464e-06 
1.445624666422507e-07 
-3.1433262547482e-07 
4.210869628841511e-06 
7.537689662646204e-07 
2.422498935946903e-06 
1.848765522990872e-06 
1.96387207532042e-06 
-6.861856603920376e-06 
2.597343232502938e-06 
1.650476051912721e-06 
-2.040069845335677e-06 
-1.454326952505649e-06 
1.712735646399311e-06 
1.435224203585236e-06 
-1.069488519340095e-05 
-6.722910930613668e-06 
6.985561550000373e-06 
9.790683793573572e-06 
-3.944091511395647e-06 
2.37021215537569e-06 
1.340266424025154e-06 
-2.599783023922132e-06 
7.701912675650851e-06 
2.271773165927551e-06 
-3.06767615737983e-06 
-2.042788674763933e-06 
-3.471514884004307e-06 
6.486621244295436e-06 
6.289543287053075e-06 
-1.619729017952243e-05 
-1.394086826408672e-05 
-5.004176169233304e-06 
5.386263768038144e-06 
-1.791181572806394e-06 
-1.472627786053084e-06 
3.353969665334453e-06 
1.868453072201874e-06 
1.290113423570001e-05 
4.69286391651655e-07 
-4.377142346980071e-06 
-1.631409128950863e-06 
1.860166511294358e-05 
-3.136133557479371e-06 
1.623803473450197e-06 
-8.91713318301221e-06 
4.039544887295534e-06 
1.316404372504674e-06 
7.869783329719713e-06 
4.78583254786128e-06 
3.922706878636599e-06 
1.720671033759644e-06 
1.045906539702506e-05 
-2.762465760937333e-06 
7.74542184792525e-06 
-1.212667408204737e-06 
-5.896305259526044e-06 
-6.093128832433883e-06 
-1.114957937302347e-05 
1.299635753523753e-05 
-1.562020124257549e-06 
4.36160802213644e-06 
-4.176327427654838e-06 
3.057458670570441e-06 
-9.704496399796679e-06 
4.462300305491023e-06 
7.978810327837759e-06 
7.82831109144042e-06 
-1.883929031070978e-06 
2.075769890177909e-06 
-4.181604173301554e-06 
-5.573809725180082e-06 
-4.700809180973533e-06 
3.367039531469069e-06 
5.474729497386382e-06 
-8.402907022276386e-07 
-3.402690924945611e-06 
3.410350401092648e-07 
5.777298509339997e-06 
4.973119370490201e-06 
-8.521745055259318e-06 
-3.20651857830259e-06 
-1.078400736362705e-05 
9.073544339231555e-06 
1.911775033292142e-06 
-4.507269769371527e-06 
-5.912316738325925e-07 
6.415715625765345e-06 
-1.582638713721122e-06 
8.645782889067361e-07 
-5.241939884468476e-06 
-1.074474771414151e-06 
-6.851606007298683e-07 
5.301515354706269e-07 
7.499143757953606e-06 
1.29139849424913e-05 
-6.141932602539878e-06 
1.024818107451521e-05 
-3.828912698278338e-07 
1.693943432911524e-05 
1.02900037223635e-05 
3.249632175292444e-06 
-2.368744541327493e-07 
1.672384041073607e-06 
9.215933508280447e-08 
1.441225886430673e-06 
-3.681587958577099e-06 
1.180877838007295e-06 
1.123000881491173e-06 
2.089994880284706e-06 
1.565864347308985e-07 
1.728889486865218e-06 
2.225675693755791e-06 
2.766167296764421e-06 
-2.401279404016597e-06 
4.082153541481005e-06 
5.152442858842374e-07 
-3.126023802139443e-07 
2.994138130583088e-07 
9.546590434585632e-07 
6.225490718425528e-07 
-4.337776923621511e-07 
-1.628750906485356e-06 
6.540246273428837e-06 
-5.855157059427084e-07 
2.097600113067874e-06 
-2.588303567165593e-06 
-6.748624119625299e-07 
-2.396146371342222e-06 
2.75534128907938e-06 
-6.645242023546665e-07 
3.424024932528533e-06 
3.247061583162541e-06 
-7.82708738355046e-07 
3.600987029619368e-07 
-1.427792952606767e-06 
-4.075885509471081e-06 
1.231206714370372e-06 
4.573935763174984e-06 
-1.179835711769277e-05 
6.330249396818921e-07 
4.284183610261127e-06 
4.796696470005077e-06 
-4.735490121717055e-07 
-5.385498082913108e-06 
1.316611466318589e-06 
7.419717491284081e-06 
6.351825230210457e-07 
7.735257042752638e-07 
6.088470017815293e-07 
-7.72566856726535e-06 
-4.496519219665829e-06 
-2.148439881174893e-06 
-2.516707364406929e-06 
-8.753132153329342e-06 
-8.108502106918623e-07 
9.944545163582282e-06 
6.97735633926962e-06 
-1.294241168295299e-05 
-9.540853346955609e-06 
5.866954098963834e-07 
1.116248264036829e-05 
1.604780006212844e-06 
-3.110181869118948e-06 
-1.751752127037109e-06 
2.649799716041163e-06 
8.165642832849243e-06 
6.269544184788589e-06 
7.611341181672768e-07 
2.478488892666387e-06 
1.586914120423026e-05 
-8.882581610976619e-07 
4.212282936862634e-06 
-2.083483864905571e-06 
8.441710067572568e-06 
-8.261576041550098e-07 
-1.067425092751592e-06 
-9.860271991345661e-06 
-2.576554329728976e-06 
1.759750841636656e-06 
4.589654675394746e-06 
2.674249006654404e-06 
2.347879680491962e-06 
-2.514135923647142e-06 
-5.167835808540516e-06 
4.038989786105173e-06 
-7.200762093871429e-06 
1.568114001887838e-05 
-3.490182295408147e-06 
6.693543821356559e-06 
-9.635740832649528e-06 
5.480163333280651e-06 
-5.288769341235418e-06 
-1.149288970485263e-05 
2.31069242555443e-05 
-2.019901241205374e-06 
-2.09380304006075e-06 
5.49203537042908e-06 
3.609932057560676e-06 
3.068321985359408e-06 
-4.244203121160504e-06 
2.717192059428908e-06 
1.732786763120381e-06 
2.110531768532702e-06 
1.330299685559637e-06 
-8.601526084600296e-06 
4.306904731253157e-06 
7.925702735653386e-06 
-1.172316720435459e-06 
2.80539010801209e-06 
1.951619669080694e-07 
4.435769250409167e-06 
-3.642376074583696e-07 
6.781613668464518e-07 
1.501589620744681e-05 
8.840569052373934e-06 
-1.188706927981664e-06 
6.81375850074535e-06 
-5.706229164712181e-06 
1.058005122765416e-05 
1.275621042671425e-06 
1.550148532851795e-06 
-1.094544567767832e-06 
