solver_type L2R_L2LOSS_SVR
nr_class 2
nr_feature 46208
bias -1
w
0 
0 
0 
0 
0 
0 
0 
0 
0 
0 
0 
0 
0 
0 
0 
0 
0 
0 
0 
0 
0 
0 
0 
0 
0 
0 
0 
0 
0 
0 
0 
0 
0 
0 
0 
0 
0 
0 
0 
0 
-2.283680667856941e-05 
3.320144413792186e-06 
-4.868994364459726e-06 
-7.598874927276332e-06 
-2.165081619872687e-05 
-8.674340606743192e-06 
-8.139052664667552e-06 
-7.43511815188192e-06 
-2.45095430498079e-05 
9.17973546178745e-06 
9.47481070089107e-06 
9.678138782494522e-06 
-1.924367183936759e-05 
1.838341561258771e-05 
-1.230256508946315e-06 
7.8152752712366e-06 
-3.449232489590545e-06 
3.043271686978837e-06 
-6.657558962424917e-06 
-8.494902651441565e-06 
-9.460997974625825e-06 
3.481464342841617e-06 
6.942961415455698e-06 
-2.197917704230442e-05 
0 
0 
0 
0 
0 
0 
0 
0 
-7.888457894202672e-06 
-4.616926116672593e-06 
7.86625506172603e-06 
-6.890155368272022e-07 
-7.351925783891901e-06 
-2.166362388502854e-06 
1.020474209936501e-05 
-2.230894784218697e-05 
-1.994327878766212e-05 
1.788301375189555e-05 
-1.490843379443751e-05 
1.471354940738166e-05 
-1.399678436429946e-05 
-1.261327113790661e-05 
-1.349479924879628e-05 
8.07715703140109e-06 
-3.716825697822174e-06 
-7.912730700097891e-06 
8.874808925232944e-06 
-4.587919134105815e-07 
-9.777815691025078e-06 
-1.495003310351003e-05 
1.403284240608687e-05 
-3.412546009501282e-06 
0 
0 
0 
0 
0 
0 
0 
0 
1.026751528188076e-05 
-5.951130928142292e-06 
-2.989610519555313e-06 
-1.642095065989052e-05 
-2.963192808492932e-06 
1.447915200936823e-05 
1.904228662871559e-05 
1.550189086059575e-05 
-5.893118322791796e-06 
1.112440147893864e-05 
1.616894294893748e-06 
6.798353771494842e-06 
9.437591618061755e-06 
-6.403119747999874e-06 
-2.032832493464696e-05 
5.748437907379227e-06 
-7.865946595897205e-06 
1.652472199113353e-06 
-1.608324251820035e-05 
2.500426917800141e-06 
-1.767730661076252e-06 
2.969316416876566e-06 
1.744772668964505e-05 
-3.135081203150429e-06 
0 
0 
0 
0 
0 
0 
0 
0 
0 
0 
0 
0 
0 
0 
0 
0 
0 
0 
0 
0 
0 
0 
0 
0 
0 
0 
0 
0 
0 
0 
0 
0 
-4.944767222580058e-06 
1.844065412328512e-06 
-2.094527874258935e-06 
-2.315877705435629e-06 
-2.558045111236315e-06 
6.703852226257974e-06 
-3.131750253940072e-06 
-3.765696901518363e-06 
7.220362905848253e-06 
7.823986034857112e-06 
1.228174020062192e-06 
2.644471040694019e-06 
-1.439496109873748e-05 
5.929288140384355e-06 
-5.229592188539145e-06 
3.681304502223907e-06 
-1.673565856638097e-05 
8.789433850584303e-07 
7.650067363965375e-07 
-1.168207679809173e-06 
1.285763238447373e-06 
9.782169294628752e-06 
-2.186955587744591e-06 
-2.922076283822999e-06 
-8.187685719551517e-06 
-5.567202041754414e-07 
-8.865668508323674e-07 
-7.895271924644375e-06 
-3.377704044171388e-07 
3.646767913820272e-06 
9.401332691749736e-06 
-1.562128201456733e-05 
-9.741646077009028e-06 
3.40283007306377e-06 
1.482037612365525e-07 
-1.632414717388643e-06 
3.646729935210643e-07 
3.576374756905062e-06 
1.504698086959163e-06 
-6.444885173921882e-06 
-2.699008190133538e-05 
-9.998937947929433e-06 
-1.056361436182172e-05 
3.651110390528801e-06 
-9.5136938172652e-06 
-1.183583184372788e-05 
1.031727058280642e-08 
-7.03820763413996e-06 
8.358304524408347e-06 
-3.497320570708191e-06 
6.037019235245355e-06 
1.109663408964813e-05 
-2.176739170522755e-05 
-2.329650941858089e-05 
4.438569876096377e-06 
5.14009193651164e-06 
5.405203658827104e-06 
2.399832490148396e-05 
2.433495249495656e-06 
7.368895693481962e-06 
-7.322213753845387e-06 
1.04343759578052e-05 
-8.514841307250462e-06 
-3.879761108901573e-06 
-5.338151001937888e-06 
4.542448181518184e-06 
-1.444661618756383e-06 
-5.317737157485866e-06 
-7.942357558499904e-07 
5.090658029001991e-06 
3.928431452991369e-06 
5.536245595352034e-07 
2.049929664377557e-05 
4.867313196056625e-06 
-1.022731107228046e-06 
-7.21732053316847e-06 
-7.0321047466104e-06 
6.655049987233689e-06 
5.217068943702566e-07 
4.771321912788738e-06 
-2.869334179922747e-05 
3.515528997228333e-06 
3.861187343630989e-06 
3.838505561220161e-06 
3.634385873407958e-06 
-2.346712422224906e-06 
-7.580370293777008e-06 
-1.970770309721833e-05 
-1.871137156301075e-05 
6.350857517313094e-06 
-8.112681600584529e-06 
-7.348240651318789e-06 
-6.006586947743533e-06 
1.490047189421488e-05 
5.051977960612784e-06 
-8.751941684045054e-06 
0 
0 
0 
0 
0 
0 
0 
0 
0 
0 
0 
0 
0 
0 
0 
0 
0 
0 
0 
0 
0 
0 
0 
0 
0 
0 
0 
0 
0 
0 
0 
0 
-9.307575316180262e-06 
4.834206987671669e-06 
-4.259278301687399e-06 
3.095921963197662e-07 
-1.455268659877448e-05 
5.262852812843303e-06 
-7.92959135531158e-06 
-7.798415952576704e-06 
-6.263386896704882e-06 
8.253577972073168e-06 
8.224019550430127e-06 
5.992566543651933e-06 
-3.088477737874403e-06 
1.302554817535673e-05 
-7.135945786808411e-06 
1.013492200465912e-05 
-4.746666240141249e-06 
-1.703965448805085e-06 
-1.016043308973476e-05 
-7.939917542482224e-06 
-2.299404335849362e-06 
7.419846494972752e-06 
5.548996665056495e-06 
-1.956252642428655e-05 
1.262594455414984e-05 
3.733978590038651e-06 
1.70993137244153e-05 
-3.646066460337497e-06 
-2.256603385466276e-06 
6.115037097192985e-06 
5.020015019615085e-06 
4.837301113770521e-06 
-6.094210926837169e-06 
-2.738650326955514e-06 
5.169302472549943e-06 
5.105371150637531e-06 
7.102833939111504e-07 
3.825076167537751e-06 
4.293409439736341e-06 
-2.066743054659414e-05 
-5.097145049021161e-06 
-8.157240428359995e-07 
-1.092722426978533e-05 
8.258624195831192e-06 
-2.785384201440741e-06 
-1.363854925981373e-05 
-1.602140554261475e-05 
2.110577928017116e-06 
-3.199617322816567e-06 
-6.574548595421303e-06 
3.589418137154224e-06 
1.446208461360147e-07 
-1.533881856612463e-06 
-1.071327848036963e-05 
1.737281422513423e-06 
-4.534448433662618e-06 
-1.063465898417208e-05 
1.998737528019832e-05 
7.47561241251835e-06 
4.335936647334695e-06 
-1.324902935384559e-05 
-2.946802914071841e-06 
-2.043656027128495e-06 
-5.820186832647495e-06 
-8.866279275980583e-07 
2.750777682003561e-06 
-6.54189252007773e-07 
-1.146089629046368e-05 
-3.628645667471409e-06 
8.954438721921032e-06 
7.033883248262672e-06 
1.527654333340918e-05 
2.459317179824335e-06 
4.253069594686139e-06 
9.728883902381402e-06 
9.956034999569564e-07 
1.12128940855994e-05 
8.485100919145995e-06 
-1.9349094987373e-05 
6.166179126319278e-06 
-7.041329728518777e-06 
9.802682082129871e-06 
-5.713211708322278e-06 
6.344081019411055e-06 
6.327827119763404e-07 
-1.33613319008238e-06 
-4.890208816630349e-07 
-6.826510113146577e-06 
-1.075506197828636e-05 
9.994968204787919e-06 
-6.703624753944525e-06 
-1.022605133621167e-05 
6.273283969234027e-06 
-3.738138022126032e-06 
-1.570991510540423e-06 
1.310965899008252e-05 
0 
0 
0 
0 
0 
0 
0 
0 
0 
0 
0 
0 
0 
0 
0 
0 
0 
0 
0 
0 
0 
0 
0 
0 
0 
0 
0 
0 
0 
0 
0 
0 
1.827525180545113e-05 
5.98763134211762e-06 
1.43258819589718e-07 
5.223696775551476e-06 
-7.552627224226681e-06 
6.808535289931745e-06 
-8.851605116857186e-06 
1.487308888613897e-06 
-1.099244523440372e-05 
1.653200271970515e-06 
-2.36627645058979e-07 
-2.140996104453423e-06 
5.393761691940621e-06 
1.37500940972206e-05 
-5.562408999893873e-06 
-1.624383594443916e-06 
-8.074004612829483e-06 
-2.487281616421156e-06 
-1.141655540261152e-06 
-7.821531897102411e-06 
2.277119582441473e-06 
5.216153476372968e-06 
8.21995977471081e-06 
-1.156073502335268e-05 
-5.08635753498772e-06 
-9.366984550493982e-07 
1.718156109034457e-05 
-4.424215196673895e-07 
2.763496326437965e-06 
7.84746701734764e-06 
-2.704019604510235e-07 
1.08723072850949e-05 
-3.878200335102308e-06 
-7.684641809648508e-06 
3.020162998832029e-06 
4.690553495202573e-06 
-9.401518647989072e-06 
-4.087387042926992e-06 
1.690627664691288e-06 
-9.08218378874749e-06 
2.717802042195915e-06 
6.559993183719845e-07 
1.443559980942223e-06 
3.220586881627605e-06 
-8.972411170660038e-06 
-1.135535995214495e-05 
5.773886575801824e-07 
-3.496614531999517e-06 
9.177085443789011e-06 
2.391743056064986e-05 
2.261915083798384e-06 
6.897094802181769e-06 
1.103306814939517e-06 
8.510699778304245e-06 
-9.261134704276545e-06 
4.913444115504999e-06 
-1.366645501405105e-05 
2.59174614542322e-06 
8.579075885097936e-06 
1.309132681088252e-07 
-9.866869787459101e-06 
-6.011888669599758e-06 
5.471236963740927e-06 
-1.571590407777163e-05 
1.388121523041205e-05 
-3.067518981931386e-06 
-2.759911926172644e-07 
-9.74634247818872e-06 
5.758737074983653e-06 
2.415348929020992e-06 
2.60776138067749e-06 
9.943765771704436e-06 
-7.796775619214957e-06 
1.567219536195131e-07 
4.265905409257028e-06 
2.32876613940995e-06 
3.751377096188054e-06 
7.393161047712564e-06 
-6.753027767091728e-06 
-9.638265271857384e-06 
-9.641572276235999e-06 
6.155847708310295e-06 
-4.587504576788029e-06 
-4.768418172374859e-06 
-4.756874119548137e-06 
2.291963522818211e-06 
-1.341215316323649e-05 
-7.551570523077995e-07 
-4.921336484296662e-06 
-1.268781446670385e-05 
-3.934212151325503e-06 
-3.087422356530746e-06 
4.486773511540592e-06 
-4.455567770767568e-06 
-7.822271235167988e-06 
8.713556634478405e-06 
0 
0 
0 
0 
0 
0 
0 
0 
0 
0 
0 
0 
0 
0 
0 
0 
0 
0 
0 
0 
0 
0 
0 
0 
0 
0 
0 
0 
0 
0 
0 
0 
8.305011230348419e-06 
4.671644385191178e-06 
4.952954972030195e-06 
2.127955549383232e-06 
6.018015367949849e-07 
1.256198051683707e-05 
-1.084288604238375e-05 
4.801700003685339e-06 
-3.7304496827008e-06 
-6.225803836948395e-06 
-1.172138358789893e-05 
-6.735621340764712e-06 
6.673207501267606e-06 
1.381750766970149e-05 
2.637417483271574e-07 
-1.744445741992591e-05 
1.431903184900857e-05 
-1.952616151967504e-06 
1.495226770969038e-05 
-4.24888317323905e-06 
1.60531943264259e-06 
7.265055246149298e-06 
3.564634779189734e-06 
1.171967245989337e-05 
5.135715979692634e-06 
2.066957618908078e-06 
3.639767584813302e-06 
-2.447383699668199e-06 
4.705755415915036e-06 
2.214892658991109e-06 
1.543546388960971e-06 
1.675298430727984e-06 
6.04406751300338e-06 
-6.943474608901651e-07 
2.422751429989237e-06 
1.277075014568633e-06 
7.223386999599216e-06 
-6.551350437764052e-06 
-1.030125893444634e-05 
-3.84263166614068e-06 
-3.497811004167014e-06 
-1.53018500512656e-06 
-5.248918623266047e-07 
-7.27450499705556e-07 
3.587336668926316e-06 
-1.178689375423202e-05 
-5.650539754228526e-06 
-3.28542108496355e-06 
-1.822376227839032e-05 
2.002966972646703e-05 
7.592420260251109e-06 
9.640633937242052e-06 
-2.668414096879612e-06 
-8.083769427435719e-06 
-1.813422426914123e-06 
7.290655493792718e-06 
-3.767887036414747e-06 
1.34565732903161e-05 
-6.185311141826316e-06 
-5.039438841002972e-06 
2.791015422596e-06 
5.642593009440799e-06 
1.69823111156988e-05 
-9.263095904997307e-06 
6.399534512765427e-06 
-6.177351430566608e-06 
4.660656131644521e-06 
-5.46219736223136e-06 
1.76046668213902e-05 
1.497828564371693e-05 
-1.05169448175833e-06 
3.187655455206495e-06 
-1.269017675978426e-05 
-1.069569927787839e-06 
1.929355358786876e-07 
-7.394624523691546e-07 
9.023608905332137e-07 
-1.485748392725022e-06 
-1.085927812914511e-06 
-1.228626935525585e-05 
8.917439323681757e-06 
1.53945274617583e-05 
-7.25159506613721e-06 
-4.133576895335139e-06 
8.576473802956518e-06 
-8.711205350981775e-06 
-1.155783096398873e-05 
1.147487687228327e-05 
1.315539245810266e-05 
-9.033572026146926e-06 
7.089563560261808e-06 
-1.848511138070899e-06 
-3.881089233018696e-06 
-1.229609768336941e-05 
-8.401481112408491e-06 
2.487322419195514e-05 
0 
0 
0 
0 
0 
0 
0 
0 
0 
0 
0 
0 
0 
0 
0 
0 
0 
0 
0 
0 
0 
0 
0 
0 
0 
0 
0 
0 
0 
0 
0 
0 
-1.233312145529777e-05 
1.312949403274063e-06 
8.413510878626381e-07 
-2.602116678338334e-06 
1.350617587636832e-05 
1.372847756278154e-05 
-1.385527408598157e-05 
-5.725319725097961e-06 
-7.981863185033557e-06 
-7.499164515987516e-06 
-3.996639074627961e-06 
-6.330758088555704e-06 
1.05325940757779e-05 
3.179486168988455e-06 
-2.018169968116001e-06 
-1.152750705650136e-05 
5.815771182467435e-06 
-6.70861375096833e-06 
1.330720130639859e-05 
-1.087924696992278e-07 
5.532840539545693e-06 
6.981054009106549e-06 
-1.790896098294823e-06 
1.526041783361228e-05 
8.934010050919108e-06 
-5.611485691418161e-06 
3.223011081428504e-06 
-9.576444128678141e-06 
8.046714338887144e-06 
-7.948888052671177e-06 
1.279022455660293e-05 
-5.487950350346812e-06 
-4.178626662726232e-06 
1.245940867519788e-05 
2.872276763842846e-06 
-5.528092681322451e-07 
1.399685658552671e-06 
-2.767481615797078e-06 
-3.892385816090295e-07 
-4.446958784846695e-06 
2.614141430109633e-06 
8.724271760881969e-07 
-1.831127896607877e-06 
5.505396477573616e-06 
1.206300042407727e-05 
8.546019385173919e-06 
-5.256943186907687e-06 
1.058766604336961e-05 
-2.346440937208408e-05 
5.685536214770976e-06 
5.112655848701716e-06 
6.237488297133997e-06 
-2.193257568792378e-06 
-6.545513676002571e-06 
4.536594791717784e-06 
-4.794347755151165e-06 
2.316626362524704e-06 
5.240530097215261e-06 
-1.213013792950019e-05 
-1.909923898758597e-06 
1.263425795515409e-05 
2.744556904801163e-06 
1.106412499756281e-05 
3.043119084190022e-06 
3.002266124518529e-06 
-1.818647637620551e-06 
3.857935860969311e-06 
-3.505512584353616e-06 
9.621604119737813e-06 
-2.625558345904488e-06 
-3.34191998004664e-06 
-1.096784170792789e-05 
-4.583222479096708e-06 
-2.943812591251308e-06 
-3.51724413448129e-06 
-4.736961085551586e-06 
5.978120261353353e-07 
-8.369127184425009e-06 
-1.514445799965042e-05 
1.299956298329665e-05 
3.148529234316607e-06 
-9.654901678365934e-06 
-5.164235753000982e-06 
3.346043152131816e-06 
1.292769148926368e-05 
3.500337864113676e-06 
-3.726296971381316e-06 
-5.332950288571851e-06 
5.334428111745193e-07 
4.321922560363161e-06 
7.612830213888806e-06 
-1.145962540001289e-05 
-3.258717013193671e-06 
-2.761465959018002e-06 
2.006401747119152e-06 
1.028545750815752e-05 
0 
0 
0 
0 
0 
0 
0 
0 
0 
0 
0 
0 
0 
0 
0 
0 
0 
0 
0 
0 
0 
0 
0 
0 
0 
0 
0 
0 
0 
0 
0 
0 
-7.943360898096786e-06 
-1.225469443761181e-06 
-7.885304505079754e-06 
-6.660714612236473e-06 
1.228878499915108e-05 
1.203725647933031e-05 
-1.051421564345455e-05 
-2.063199942244705e-05 
5.017717153462757e-06 
-1.342012096205442e-06 
7.238144393848697e-06 
-2.450470226052006e-06 
4.8522479133043e-06 
2.819564585014646e-06 
-6.906889650520162e-06 
6.415835580106037e-06 
2.215650603278334e-07 
-1.411226680559522e-06 
1.643530583490776e-06 
-2.896044665016905e-06 
3.946517152963086e-06 
1.017104087337232e-06 
-1.199446765962263e-06 
3.783219005874504e-06 
6.664958796662025e-06 
-3.460131542079948e-06 
6.361955892092258e-06 
-7.510372492410502e-07 
9.252766474936714e-06 
-6.782851796824268e-06 
1.929700588365907e-05 
-1.256296343634565e-05 
-1.223570552787901e-05 
4.060945084601784e-06 
-3.892482030538625e-06 
9.29010966151029e-07 
4.627019862546327e-06 
-9.336266723772012e-06 
-9.086381778420695e-06 
2.238488823488276e-07 
-2.226220170617339e-05 
1.140849459795761e-05 
3.209493630536883e-06 
1.215764154198618e-05 
9.211086632868846e-06 
-1.129399446936654e-05 
3.433948624836615e-06 
1.166580222563654e-05 
-1.579041062154845e-05 
6.621601263110055e-07 
-1.087386907765487e-05 
-2.84854708480619e-06 
1.170934346949759e-05 
1.079036992345018e-05 
2.131597513608997e-05 
-6.013917783177373e-06 
4.285099008705422e-06 
1.777871312994928e-06 
-1.125488882922302e-05 
-3.484962979063323e-06 
7.586485849250059e-06 
1.438226565253727e-05 
3.262797933790873e-06 
1.094716058963637e-05 
-1.491717740786297e-05 
-1.371105920368024e-05 
5.973631824881933e-07 
-1.220880448804306e-05 
-3.52640954185797e-06 
-8.282527286414324e-06 
1.194686899397091e-05 
-7.553176544401303e-06 
9.844766732354847e-06 
9.883817304209247e-06 
-1.159906546566774e-05 
-1.091734769092e-06 
1.709714079115733e-05 
-6.679962626574599e-06 
-9.69852844865805e-06 
1.24356027909746e-05 
5.594021924082005e-06 
-8.00429291921149e-06 
-3.082691407943477e-06 
2.452386862554602e-06 
1.095262809851194e-06 
4.474521243268223e-06 
-2.185326547924545e-05 
-1.638657176983682e-06 
6.529780951205636e-06 
7.734993033283428e-06 
1.246951215610759e-06 
-3.780413804225215e-06 
-4.227917338711219e-06 
6.964368168056427e-06 
1.103395608465387e-05 
4.261030587203393e-06 
0 
0 
0 
0 
0 
0 
0 
0 
0 
0 
0 
0 
0 
0 
0 
0 
0 
0 
0 
0 
0 
0 
0 
0 
0 
0 
0 
0 
0 
0 
0 
0 
-7.259825643384605e-06 
3.135073527952666e-06 
-7.10994101220902e-06 
-7.797753935017714e-06 
1.283268820011503e-05 
9.451836865296307e-08 
-1.289432862133833e-05 
-2.079451531213669e-05 
7.104695007327549e-06 
-4.667193514286157e-06 
1.155871247973716e-05 
2.701991458557733e-06 
3.01385526643517e-06 
1.658909493508196e-06 
-6.085440954111472e-06 
9.496860998140065e-06 
2.65693157071007e-06 
-1.289440665041754e-05 
1.742528549680215e-06 
-7.441659532491224e-06 
6.832334402886763e-06 
-6.141942709303463e-06 
1.219194251128867e-05 
-9.02757387745105e-06 
8.539674500769427e-06 
3.208157565398624e-06 
2.907550923042146e-06 
8.65315990262775e-06 
9.939171796641465e-06 
4.292078193532347e-06 
5.958788465861651e-06 
-1.424196921610247e-05 
-7.388118766179821e-06 
-8.2501511474934e-06 
3.029899781632524e-07 
-7.750511534253098e-07 
1.248559742001864e-05 
2.338010584243752e-06 
5.743004388225001e-07 
2.24785829046995e-07 
-2.528981233407813e-05 
7.11614782370719e-06 
-2.311581126706533e-06 
8.425600422515987e-06 
-4.28023795589759e-06 
-8.815606754745779e-06 
1.074733472112293e-05 
-1.627452773137082e-06 
7.689972224787342e-07 
-1.584819206801015e-05 
-7.577433369112686e-06 
5.212699171804324e-06 
1.589195139966533e-05 
8.703885725937118e-06 
1.849108031483976e-05 
-4.911398992400719e-07 
-1.276506838765899e-06 
4.251632969128261e-06 
-1.533825679384265e-05 
-1.148350413729039e-05 
9.720618846540654e-06 
2.528097526233954e-05 
-5.99397570859154e-06 
1.395647343518909e-06 
-4.975711592146262e-06 
-1.180425411791401e-05 
-2.703102245612176e-06 
-1.13443105271173e-05 
1.049817006891027e-07 
-1.33462491490855e-05 
-7.658147601860202e-06 
2.192117921930402e-05 
-1.856105317891571e-06 
-7.042289388429211e-06 
-1.99989717590201e-05 
2.342198101413087e-06 
1.580965595544934e-05 
7.434645883376573e-06 
-1.593379835733552e-05 
-4.939847989280622e-06 
-2.363118364610588e-06 
-2.37168168165742e-06 
-2.313922343909662e-06 
-1.391167210501888e-05 
-7.987221316768748e-06 
1.760055237199435e-05 
-1.915668352854225e-05 
-1.97941237444088e-05 
-4.341021920246469e-07 
5.773830601162992e-06 
1.356837797223201e-06 
-2.017844879793734e-06 
3.057244985930675e-06 
-3.48261363291291e-07 
-3.710478945875608e-06 
2.353530058277602e-06 
0 
0 
0 
0 
0 
0 
0 
0 
0 
0 
0 
0 
0 
0 
0 
0 
0 
0 
0 
0 
0 
0 
0 
0 
0 
0 
0 
0 
0 
0 
0 
0 
-5.932996547427024e-06 
7.923063150668922e-06 
2.32615059020006e-06 
-3.632849004064875e-06 
-1.416881627659211e-07 
-8.958798554419871e-07 
-1.4744519607798e-05 
-2.412425757044936e-06 
4.314773284059295e-06 
3.433227725574007e-06 
8.454626622778484e-06 
-2.679740945499085e-06 
-4.020140313026975e-06 
4.748009182970662e-07 
-2.517654835601827e-06 
4.746567882583252e-06 
-3.846535094262356e-06 
-1.08044187260504e-05 
-8.78950755739244e-07 
-1.71651071286622e-06 
5.970133545195356e-06 
-4.6267745745358e-06 
1.052423439116934e-05 
-1.618007641787429e-05 
1.027977088351101e-06 
3.957079091417758e-06 
3.575029336123818e-06 
4.613448275342815e-06 
-1.630774577852279e-06 
6.34539049248288e-06 
-1.282842964781725e-06 
3.441329920454826e-06 
-1.774710323561486e-05 
1.097101748958574e-06 
8.500073010461434e-06 
6.078397339733837e-06 
2.362038887195818e-06 
-1.232207661934627e-05 
-1.118256351020256e-06 
2.179403852647754e-06 
-9.521788845594883e-06 
-1.97439829364393e-06 
2.135958900488578e-06 
1.203484947429005e-06 
1.070697663307044e-05 
2.064652510553965e-06 
1.114061358256787e-05 
-2.750943488194111e-06 
-1.086731586001271e-05 
-9.181873305584404e-06 
-1.171619145177196e-05 
4.031977985819921e-06 
1.143811705229135e-05 
2.103239242280831e-05 
1.103052771411429e-05 
-4.430187926591407e-07 
-3.504126093028914e-06 
-2.188223347821088e-06 
-2.069087059183176e-05 
-1.787661300514041e-05 
2.931624902889639e-06 
2.181107892695766e-05 
2.345626991520551e-06 
-6.767975066259751e-06 
7.605089788565401e-06 
3.874440330250504e-06 
-1.492354270795173e-05 
-6.721213489010865e-06 
1.575299703451464e-05 
-4.50446562613029e-06 
-1.58470763366149e-05 
2.105391104662265e-05 
-2.022222998401947e-06 
-8.618352286917685e-06 
-5.474490214610392e-06 
-2.756338495183894e-06 
-8.600525660178962e-07 
1.212675571551945e-05 
-2.241299836588387e-05 
-1.058427412350426e-05 
-1.534223148500064e-06 
-3.940377735056286e-06 
-6.955914203933223e-06 
-4.046675706684241e-06 
-1.372373994169961e-05 
7.061825046275175e-06 
1.703477577289411e-05 
-2.103764052331013e-06 
-1.621906968742768e-06 
2.128238144823652e-06 
-1.621301573143067e-06 
-3.908363839219689e-06 
1.257582570172883e-05 
8.512857012161713e-06 
8.968655964826459e-06 
-6.58053444459813e-06 
0 
0 
0 
0 
0 
0 
0 
0 
0 
0 
0 
0 
0 
0 
0 
0 
0 
0 
0 
0 
0 
0 
0 
0 
0 
0 
0 
0 
0 
0 
0 
0 
6.36640509412921e-06 
1.322439083067478e-05 
1.10106332044557e-05 
2.588030090130472e-06 
-2.835171939642657e-06 
-2.237094692336507e-06 
-1.238960132506504e-05 
7.026439132569453e-06 
7.398124992599014e-06 
-1.281268511283848e-05 
1.402562225888093e-06 
-4.504861875011503e-06 
3.174341772526274e-06 
-5.724860967383328e-06 
1.180093398028532e-05 
-8.674214024802711e-06 
5.523487197518595e-06 
-6.661429838205948e-06 
-3.409010023007167e-06 
9.672240849515614e-06 
1.188746304639356e-06 
1.380715886320046e-06 
-5.816683774287383e-06 
-1.530962059630037e-05 
-1.079171076001615e-05 
6.227511484567411e-06 
1.124707440857823e-05 
9.751398360633099e-08 
-4.354820529006822e-06 
2.250201640071921e-07 
1.882864646066969e-06 
1.139415673559681e-05 
-1.556893670372541e-05 
-8.302246667324149e-06 
7.88342959038879e-06 
2.999782998439365e-06 
-2.590531695929366e-06 
-1.492994965168135e-05 
1.292062676677549e-05 
-4.450117255936348e-06 
3.51786895615143e-06 
-1.740102505277418e-05 
4.302757689757201e-06 
9.701540776918656e-06 
4.397645468067007e-06 
4.010601330116652e-07 
5.660142769017478e-06 
-1.114986408910978e-05 
-1.769013225910777e-05 
-1.064975493828027e-05 
-2.031948479311431e-05 
-7.024831024777868e-06 
-2.688527467522405e-07 
3.933669777657533e-05 
-3.666935553814986e-06 
-9.689772907679649e-06 
-1.333666886594798e-05 
-2.090322584349881e-06 
-3.847887803499649e-06 
2.6582544608475e-06 
4.970814754401443e-06 
8.702204975366908e-07 
-1.361436234540188e-06 
3.707906041925096e-08 
2.177111263261357e-06 
6.77726661073915e-07 
-1.356525601873919e-05 
-1.201955793075932e-06 
5.810828343396866e-06 
6.503332138166082e-06 
5.071145291691821e-06 
1.222571589473111e-06 
-8.074182355791541e-06 
-1.062384646200537e-05 
2.062039637637614e-06 
-1.64189748996267e-05 
-1.202803400737864e-05 
8.334835705637733e-06 
-7.866232750003682e-06 
-1.631652616869214e-05 
-5.245325914713419e-06 
-3.997681625557667e-06 
-1.258020330889121e-05 
6.530871134814657e-06 
-1.918540519660543e-07 
5.784985000794413e-06 
1.682993914905998e-05 
-2.042426166734948e-06 
-1.054032736911315e-05 
-7.218784540238683e-07 
6.237018073853129e-07 
3.956789202473654e-06 
3.940853151181987e-06 
1.918112598368529e-05 
4.200571999363746e-06 
-1.33718860666302e-05 
0 
0 
0 
0 
0 
0 
0 
0 
0 
0 
0 
0 
0 
0 
0 
0 
0 
0 
0 
0 
0 
0 
0 
0 
0 
0 
0 
0 
0 
0 
0 
0 
1.557599589287326e-05 
7.003984815764934e-06 
1.144750744184749e-05 
1.994824036317503e-06 
-4.403287153079475e-06 
-7.843713640738477e-07 
-3.434600476318307e-06 
2.317716130565616e-06 
-2.982905082751549e-06 
-1.404117803747837e-05 
-2.903686687855026e-06 
4.353646749482644e-06 
3.489948784791882e-06 
-4.813243919637184e-06 
8.308297638688888e-06 
-1.853400521555096e-05 
4.231335839624826e-06 
-4.443177805507437e-06 
1.119083273097824e-06 
9.187690656005441e-06 
-1.007575813556396e-05 
-7.865660060222982e-07 
-1.000372896406901e-05 
7.537639002830353e-06 
-1.298157360267179e-06 
2.244838244784604e-06 
1.376631931867576e-05 
-5.324279826783435e-06 
1.140610748218613e-05 
-1.417786842225592e-07 
-1.505580740427031e-07 
-8.445968252405529e-06 
8.74481539968797e-07 
-7.441525652148268e-06 
1.962234534259742e-05 
5.958318961102001e-06 
-1.595119543519053e-06 
-4.875491504554305e-06 
1.374688813754422e-05 
-6.037635104819436e-06 
-1.004613383816381e-05 
-1.060278065193421e-05 
1.468904449791292e-05 
8.903547531354334e-06 
9.682601948981026e-07 
1.539532224173396e-05 
1.000292463371256e-05 
-1.148063249322468e-05 
6.285959512800344e-08 
-6.430692809152444e-07 
-1.232912921304377e-05 
-4.10407956634206e-06 
-1.174828839487474e-05 
9.982190318327602e-06 
1.898441099154979e-06 
-5.234735582964075e-06 
-2.219835857373077e-06 
-7.59090701478758e-06 
8.57880955458905e-06 
2.096874565318689e-06 
-4.898841386784749e-06 
-2.522093349113827e-06 
-8.208845326087561e-06 
3.043082839038176e-06 
8.74676833521961e-07 
-6.912036885009613e-07 
3.462881904007046e-06 
-1.272028978881743e-06 
-6.090983198323865e-06 
4.711155397998564e-06 
-2.603025494142267e-06 
-4.57767304506466e-06 
-3.964067351101229e-07 
-5.989428103444937e-06 
-6.957512274145566e-06 
3.456709000829302e-06 
-1.117771657143681e-05 
-8.150253019857122e-06 
1.136034518288178e-05 
-4.86971106381338e-06 
5.18775276649821e-06 
-6.707178061264969e-06 
-6.185908694441137e-06 
6.787787422434053e-06 
6.442903729768933e-06 
1.388413945125627e-05 
-8.174890752503877e-07 
-5.099636392583957e-06 
3.821745372728303e-06 
9.51211408225642e-06 
2.744765781960866e-06 
-3.790158701024878e-07 
1.013640008498064e-06 
-1.400070756935403e-06 
-2.39008651795176e-06 
-1.319524550294073e-05 
0 
0 
0 
0 
0 
0 
0 
0 
0 
0 
0 
0 
0 
0 
0 
0 
0 
0 
0 
0 
0 
0 
0 
0 
0 
0 
0 
0 
0 
0 
0 
0 
2.005165199394679e-05 
-1.31681269935275e-05 
4.48316089767777e-06 
2.792701676626767e-06 
-5.335401231165525e-07 
-6.889299604802524e-06 
8.641557661769845e-06 
-8.593021586790815e-06 
9.713866278594615e-07 
-1.355051077006637e-05 
-4.591259676479693e-06 
1.259702690567223e-05 
-6.341256801466509e-06 
-3.045498563213603e-06 
-9.635421342055563e-06 
-1.660718209158508e-05 
-4.488933773346359e-06 
-5.007726461122872e-06 
1.157108232725906e-05 
-3.820896842460528e-06 
-1.445477225391118e-06 
-7.215803877079769e-06 
3.105151497820178e-06 
8.005763551133127e-06 
9.48174682333115e-06 
5.831612179673655e-06 
7.240869725388344e-06 
4.835542874848234e-06 
-3.141396198387871e-07 
-2.433956586897096e-06 
-1.019429655025155e-05 
-1.644038222962265e-05 
6.613469929131209e-06 
-2.884267225093131e-06 
1.553796932625756e-05 
1.035756721235349e-05 
4.994066227510057e-06 
-3.620634542515992e-06 
9.096403838038892e-06 
-2.035446686479591e-06 
-1.259461806410482e-05 
1.074951507227728e-06 
-4.029990985165028e-06 
-3.277508647774869e-06 
-1.552412514675529e-05 
2.363939708217352e-05 
-6.271524705589196e-06 
-1.071637381037688e-05 
-1.098407151836488e-05 
-5.340041774324149e-06 
2.817927056561275e-06 
4.004602511442906e-06 
2.336081234865906e-06 
5.137546274447152e-06 
-4.097848226209966e-06 
-4.461517186526677e-06 
9.83239481190922e-06 
-8.761652767148189e-06 
1.223419555927432e-05 
4.930498102212998e-06 
-1.299228645473952e-05 
8.65596651249842e-06 
-1.040055992770423e-05 
9.910465225094913e-07 
5.771813317216244e-06 
-3.180893273608684e-06 
1.459478521722783e-05 
-6.657289477010245e-06 
-1.182767027940404e-05 
-3.100185573974996e-06 
5.991662084330565e-06 
-2.709153485876609e-05 
-2.051107282914864e-06 
-6.393682720790068e-07 
-7.138422472117278e-06 
1.486203902582526e-05 
-5.546365978049579e-06 
-5.077459305552821e-06 
-1.988061328303534e-06 
1.454500824886987e-06 
-2.383751971273293e-06 
-6.338089870092433e-06 
-4.130278341310348e-06 
1.047426698656371e-05 
-7.408149744270195e-06 
1.643598878545681e-05 
1.693798691928069e-06 
1.735586563761209e-06 
2.663506261130323e-06 
6.644761987627339e-06 
-2.24569056514018e-06 
-4.850784548290888e-06 
8.265029946644526e-06 
-1.781520097793607e-06 
-7.763151959189279e-06 
-1.726287638587756e-06 
0 
0 
0 
0 
0 
0 
0 
0 
0 
0 
0 
0 
0 
0 
0 
0 
0 
0 
0 
0 
0 
0 
0 
0 
0 
0 
0 
0 
0 
0 
0 
0 
8.773210148366731e-06 
-1.066271799948446e-05 
-3.89696667822354e-06 
9.142834797470816e-06 
-9.778893878931332e-08 
-7.663539881782351e-06 
5.630644612591765e-06 
-1.890207678995752e-05 
-7.162861275491342e-07 
-4.428360852750401e-06 
-5.34382808885251e-06 
4.822019436189532e-06 
-1.464195908986671e-05 
-2.262892816317819e-06 
-5.980309476206426e-06 
4.554787024167992e-06 
2.119073253258384e-06 
5.166131753861579e-06 
1.384209519077502e-05 
-1.290699549277638e-05 
7.938329128605113e-06 
-1.12468341184059e-05 
1.383992056141171e-06 
-1.360646628947357e-05 
-1.105022711733454e-06 
1.33983574585862e-05 
3.256220838275006e-06 
1.06271324298389e-05 
3.774855100591093e-08 
-9.869198225355679e-06 
-5.868160577031283e-06 
-1.969352874340377e-06 
-7.881672898685265e-06 
8.368793419152065e-06 
2.358092932736917e-05 
2.949968258291835e-06 
-4.07696917245427e-06 
4.986914180744593e-06 
-4.998085647588903e-07 
-1.281343278559298e-05 
5.142644018513291e-06 
7.881299816065327e-07 
-9.87322360917801e-06 
1.953293164910283e-06 
-1.495971659318698e-05 
-4.340611702402345e-07 
5.985387660980067e-08 
9.157683389371686e-07 
-2.441399178239883e-06 
-4.164619278882324e-06 
5.849670594323677e-06 
-1.521200479989644e-05 
-1.025305096795506e-05 
1.150693070972478e-06 
-5.346086540063362e-06 
-1.891994971668312e-06 
1.134678184478966e-05 
-4.857082564699065e-06 
5.339912738609136e-06 
-2.282614894936325e-05 
-1.410718114644298e-05 
8.758084885441183e-07 
3.654004408819604e-08 
1.116861998740944e-05 
-6.069354439272337e-06 
-2.994256776306297e-06 
7.945971047394113e-06 
9.545830740655782e-06 
-1.385188834363915e-05 
-1.011808991429949e-05 
8.348349936704792e-06 
-8.803489906062094e-06 
1.044956917280605e-05 
-1.036348022215832e-05 
-4.939178562884959e-06 
1.123533971888764e-05 
-2.164467887112702e-06 
6.678816230317938e-06 
-1.146749630649819e-05 
-4.129677138837446e-06 
1.908075268047846e-06 
2.544515526444e-06 
-1.325418032179137e-06 
-7.919389607738528e-07 
-8.176568127570802e-07 
2.712744836771811e-06 
1.595159843938737e-05 
-6.705126148020611e-06 
-7.643103480222601e-07 
7.4040592873197e-06 
2.771822679069774e-07 
-3.509802896794425e-06 
4.50538746254597e-06 
-1.457067818951672e-05 
-4.515017739808718e-06 
6.166071204042061e-06 
0 
0 
0 
0 
0 
0 
0 
0 
0 
0 
0 
0 
0 
0 
0 
0 
0 
0 
0 
0 
0 
0 
0 
0 
0 
0 
0 
0 
0 
0 
0 
0 
9.74201907264352e-06 
-1.26969971118253e-07 
-9.601652120514257e-06 
7.454561093090897e-06 
-5.437396834464531e-06 
-2.065081944367285e-06 
-7.25192605417482e-06 
-1.587110359280029e-05 
-3.237694440439617e-07 
-3.231764891831249e-06 
4.330437096906578e-06 
-1.000107864930517e-05 
7.024752306464807e-07 
-4.34456052112808e-06 
8.674085995374242e-06 
5.735863624887444e-06 
7.153411047904259e-06 
7.914135131569677e-06 
3.587095258881172e-06 
-6.187125835546307e-06 
-9.733335146920956e-06 
-6.146957546081222e-06 
-9.335460750324857e-06 
-1.555104681035221e-05 
-8.997097951805648e-06 
2.551919650143086e-06 
3.235070682313748e-06 
7.374462411552311e-06 
2.647819820380028e-06 
-1.203297941170045e-05 
3.76059322456545e-06 
7.723592325970838e-06 
5.77913235132442e-06 
1.134516872816971e-05 
-1.990483140075557e-06 
-2.069704545448943e-06 
-2.094912184339359e-05 
5.00481779913772e-06 
-1.752333835112527e-05 
-5.024635328743643e-07 
-1.30314683882142e-05 
-4.427953175093771e-06 
-4.539510305983157e-06 
-7.104445831702806e-06 
1.600693144704994e-07 
-1.113013256397868e-06 
-6.754834120355455e-06 
-7.233642598060031e-06 
1.092012285585106e-05 
-1.248551485920262e-05 
-6.615721480489063e-06 
-1.376727956605012e-05 
-1.65100553869901e-05 
-8.548870481385565e-06 
3.894830288762968e-06 
7.838474694270698e-06 
5.806307091087486e-06 
4.715189340171486e-06 
3.131107765691212e-06 
-3.318406147856257e-05 
-1.930840243461302e-05 
-5.106494848538125e-06 
6.29516050754918e-06 
1.511430754544244e-05 
-6.251339132794513e-06 
4.83852478114487e-07 
6.091126387042549e-06 
1.45957953417281e-05 
-3.179714260674353e-06 
-8.601588745484576e-06 
-1.365368354152694e-05 
-9.611922185506675e-06 
-3.555537540157524e-06 
-1.389566072779546e-06 
-6.058278431067021e-08 
9.936922914027917e-06 
-4.315056721188685e-06 
1.544622500069063e-05 
3.698117562303273e-06 
1.327400645791473e-05 
3.154675108556964e-06 
4.957827754745961e-06 
-1.12100275540812e-05 
4.150937887420302e-06 
1.173373496814432e-06 
4.742927810517501e-06 
-7.229548860381417e-06 
-6.02858965028519e-06 
-2.705350308405798e-06 
7.579766897045899e-06 
5.231371037010418e-06 
2.198887317037045e-06 
-6.178990026860588e-08 
-1.347009274079626e-05 
3.492786641010285e-06 
1.534763837008789e-05 
0 
0 
0 
0 
0 
0 
0 
0 
0 
0 
0 
0 
0 
0 
0 
0 
0 
0 
0 
0 
0 
0 
0 
0 
0 
0 
0 
0 
0 
0 
0 
0 
5.426590631434032e-06 
6.067785483097243e-06 
-9.597044554578102e-06 
4.473985995984109e-06 
-2.921461920404887e-06 
-2.219442238850667e-06 
-1.515899734374756e-06 
-3.18756370147972e-07 
7.354843790360302e-06 
1.295899471703115e-05 
1.026475683678403e-05 
-1.014757400369153e-05 
4.941122485257518e-06 
-1.258338169658758e-05 
1.7983768856286e-06 
-1.303587715407964e-05 
-2.823877977387499e-06 
8.126923626881044e-06 
1.436400723562784e-06 
3.928911957065336e-06 
-2.75459232001757e-06 
-7.95139592122625e-06 
-8.105436233700741e-06 
-5.208543098379431e-06 
-4.249097068217809e-06 
-4.724823998616289e-06 
4.981721049383746e-06 
4.436418929582977e-06 
4.085668822131932e-06 
-6.31278286835563e-06 
4.238577814569294e-06 
7.593007730570452e-06 
6.520875586986383e-06 
5.921540345530938e-06 
-1.599320112734941e-05 
-4.195404787356602e-06 
-1.267333599551395e-05 
-2.890598154676626e-06 
-5.079326934042122e-06 
6.871535971692524e-07 
1.58915953620639e-07 
-3.238125534110591e-06 
2.669232341008863e-06 
-1.076242470802836e-05 
-3.521908185126008e-06 
-1.086391320970317e-05 
4.127840207709201e-06 
6.436585974454104e-06 
1.192317206973639e-05 
-1.610269095420631e-06 
-1.045641172321687e-05 
-2.56269338870483e-05 
-1.912759957243736e-05 
-7.176875300353854e-06 
-9.618862586507218e-07 
1.477836065000409e-05 
-3.138763087635974e-06 
-1.997275125511705e-06 
4.630598623978852e-06 
-2.900065884309299e-05 
6.541135625731287e-07 
-4.694948999496202e-06 
8.324150891120205e-06 
1.470561299076111e-05 
5.690763006552587e-06 
-6.89424448086436e-07 
2.103135979685311e-06 
1.059115840154643e-05 
5.556744345146052e-06 
-2.477403187340594e-06 
-6.1873824964568e-06 
-1.342960628806504e-05 
-1.856247286645893e-06 
-2.259426751468694e-06 
2.608568400457068e-06 
-1.004623982122168e-06 
-4.598233405230647e-06 
-3.776058383013053e-06 
7.483735506041251e-06 
5.969187534025306e-06 
-3.252541884249153e-06 
5.664708258158204e-06 
-9.385836430254639e-06 
4.889711067843995e-06 
-1.181626144508964e-05 
-2.605421025536395e-06 
-2.081068805813021e-05 
-7.88286874626755e-07 
3.631448501660288e-06 
1.067201415224499e-05 
-2.832042202696961e-06 
8.85821299516569e-06 
7.452478195918939e-06 
2.924277863637373e-05 
1.532642912815902e-05 
1.474744292600982e-05 
0 
0 
0 
0 
0 
0 
0 
0 
0 
0 
0 
0 
0 
0 
0 
0 
0 
0 
0 
0 
0 
0 
0 
0 
0 
0 
0 
0 
0 
0 
0 
0 
6.397614790039666e-06 
-4.405687957606501e-06 
1.343713467298599e-06 
4.01090045188006e-07 
8.023433389947176e-06 
-7.463925424989948e-06 
1.147055665118477e-05 
3.344802833259344e-06 
7.927208906209631e-06 
1.017552410517282e-05 
1.045172464178289e-06 
2.755430869155175e-08 
-7.116387466663465e-06 
-4.008651250282271e-06 
-8.296470419506417e-06 
-1.492789770343508e-05 
-8.96496160341648e-06 
-3.392560356207444e-06 
9.605266664947802e-07 
7.732161192575057e-06 
1.113878726531288e-05 
-2.902637773112907e-06 
3.316844901537792e-06 
9.562908029175795e-07 
-2.406546004327026e-06 
-5.595409518192105e-06 
3.920973639342149e-06 
-3.508110809885924e-06 
1.177396794775998e-05 
6.919340880523298e-06 
-2.506885489900582e-06 
5.590385933064538e-07 
-7.456110836623756e-06 
1.576681183589658e-06 
-3.616811089029038e-06 
2.274394511386056e-06 
6.924078766525461e-06 
-9.66295774985469e-06 
-6.107837933456487e-07 
-6.954311276874251e-06 
6.092575345248493e-06 
-1.203407283779431e-05 
-8.75845140530668e-06 
7.048486197371043e-06 
-1.612067241102586e-05 
-7.154536795760307e-06 
7.216023720858506e-06 
5.440957467608885e-06 
4.195173005776429e-06 
4.039540494596667e-06 
-9.55975633469722e-06 
-2.868761291007566e-05 
-1.282039128866965e-05 
-9.634297761534362e-07 
-1.268442039911179e-05 
4.974080027084377e-06 
-4.525027915668027e-06 
2.875856630238856e-06 
2.923679934815608e-06 
-1.31585428550167e-05 
-1.274602745499606e-06 
-3.66389739565166e-06 
-3.348963351205835e-07 
9.813071347551939e-07 
-1.0292246547369e-05 
3.595627292247354e-06 
1.016230089228813e-05 
7.518899299727161e-06 
5.855807425603102e-06 
-2.138903993362259e-07 
1.345794131499373e-05 
2.60157038007309e-05 
-5.034215744194604e-06 
3.939429575146251e-06 
-4.24116025516612e-06 
4.078654665807294e-06 
3.613191997742556e-06 
1.291911787745115e-05 
-1.302926567386678e-06 
-2.874599155228291e-06 
-2.591557947084412e-06 
3.129402465981654e-06 
3.361818580835008e-06 
7.878144329605955e-06 
-1.310615558567787e-06 
-3.169130261823578e-06 
-2.505737327768946e-05 
1.080583255111979e-05 
7.752719908237767e-06 
9.558579392279324e-06 
-1.112025595275016e-05 
3.343556758467221e-06 
7.728411250839828e-06 
-1.036480617989839e-05 
-9.622800554223297e-06 
8.579828771975152e-06 
0 
0 
0 
0 
0 
0 
0 
0 
0 
0 
0 
0 
0 
0 
0 
0 
0 
0 
0 
0 
0 
0 
0 
0 
0 
0 
0 
0 
0 
0 
0 
0 
8.910017768372556e-06 
3.353005463070905e-06 
7.680745951961858e-06 
4.020309275050449e-06 
3.466757478586782e-06 
-6.90037193558954e-06 
4.404883571920726e-06 
-9.169641576570875e-06 
-1.825208878891137e-06 
8.306633199836605e-06 
-1.208455360480544e-06 
5.384104410954258e-06 
1.243041096258837e-06 
-4.298023362541251e-06 
-1.00639807148457e-05 
-5.760468016530408e-06 
-8.349139196039715e-06 
-3.214915924925751e-06 
3.548747754784283e-06 
3.108803653709771e-06 
9.800016820708671e-06 
-1.021634097651993e-06 
2.52784489565203e-06 
2.177658988282654e-06 
3.473472442669923e-06 
-4.20551127217567e-06 
7.173636600107567e-06 
-8.859448491429868e-06 
7.096875648312102e-06 
-3.770896956138004e-06 
1.80297037159203e-06 
-2.903179540669546e-06 
-6.592377962489032e-06 
-7.147323262977767e-07 
4.567737558432297e-06 
8.296899896168199e-06 
5.238864573060198e-08 
-1.280968558551818e-05 
-2.769089818892495e-06 
4.474749832210581e-06 
7.350221628876026e-06 
2.160622170596645e-07 
-1.462427849242048e-05 
-3.477897200769091e-06 
-1.447647676508854e-05 
4.910550483009506e-06 
-4.472356380063774e-06 
5.376765600003361e-07 
-5.929170490666951e-06 
4.114109169396038e-08 
7.46816112312189e-06 
-1.467712542011036e-05 
-2.932312073142276e-06 
-9.462470636617503e-06 
-9.483431581115466e-06 
7.39928375534636e-06 
6.523183237022884e-07 
-3.730743293183865e-06 
-3.495768831763684e-06 
1.436853790512731e-05 
9.901697501557653e-06 
1.077698407892225e-05 
9.205060043525545e-07 
-1.847029516232326e-06 
-5.748313056465456e-06 
6.693967238513439e-07 
1.255003239101437e-05 
4.3562165984863e-06 
6.669810377889329e-06 
-6.666020095513803e-06 
9.140019813192869e-06 
3.471458749250083e-06 
-1.11579034592466e-05 
2.818503230731024e-06 
-2.394908116742752e-06 
6.514350660629421e-06 
-5.873974535401959e-06 
-5.221843608413382e-06 
-1.330295385435703e-05 
5.898350118883736e-06 
-6.070421669169666e-08 
-3.888133260238855e-08 
-5.773632328470875e-07 
1.286748028533469e-05 
9.504840106171999e-06 
2.867783948360657e-06 
-1.014478657895236e-05 
1.215862185045949e-05 
-1.241348616556112e-06 
1.952370660235453e-06 
-4.513159858838034e-06 
-1.162433458009162e-05 
-1.865726195774569e-06 
-2.556156502126507e-05 
-2.599347042183797e-06 
6.806643753971511e-06 
0 
0 
0 
0 
0 
0 
0 
0 
0 
0 
0 
0 
0 
0 
0 
0 
0 
0 
0 
0 
0 
0 
0 
0 
0 
0 
0 
0 
0 
0 
0 
0 
9.84252166194966e-06 
4.782304086032932e-06 
5.233286683452165e-06 
7.969431754455219e-06 
-1.399884533769075e-06 
-7.859577157684454e-07 
-8.678750997771663e-06 
-8.492651741535472e-06 
-9.278075790490293e-06 
-3.253293034814459e-06 
2.235941742136475e-06 
1.077077107084274e-05 
1.535526669946219e-05 
-3.639900129013415e-06 
2.555671676067254e-07 
1.825913516264031e-06 
-1.676320531871735e-06 
-7.932474676975397e-07 
4.930305358244154e-06 
6.434627977932594e-06 
6.564801184696398e-06 
1.294371093216492e-06 
-3.021422056475738e-06 
-2.171166582860913e-07 
-3.810698246710111e-06 
-4.790189722364546e-06 
9.494731392742903e-06 
-4.076045926213551e-06 
-2.748832946919512e-06 
-1.577320115392412e-05 
7.19180324548051e-06 
5.37424506168679e-07 
5.1154172295739e-06 
-1.142376520648296e-05 
-6.77007417388372e-06 
1.333355734281818e-05 
-8.756191470020329e-06 
7.108524504361634e-06 
9.031685693754935e-06 
1.005630879803748e-07 
2.494836091065085e-06 
-2.94865564759894e-06 
-8.912597304187451e-06 
1.176391030213258e-06 
-3.780462371857427e-06 
5.608945142011712e-06 
-4.244761312487792e-06 
-3.175679704145954e-06 
-5.218724618489758e-06 
5.318162264289269e-06 
1.877039027901426e-06 
-3.973893277376123e-06 
-4.764505922850518e-06 
-1.134257735280153e-05 
-8.574978575690316e-08 
5.218833396335431e-06 
-8.699728659787457e-07 
-1.233720526614847e-05 
-1.887747800151784e-05 
-7.425934676168019e-06 
1.16194560676708e-05 
1.532576576585844e-05 
3.189439345638695e-06 
1.212460827466119e-05 
-1.686532764491456e-05 
1.021354279600636e-06 
3.69660710115922e-06 
1.100117624400986e-05 
5.343463134942804e-06 
1.093961614677732e-06 
1.262319142191381e-05 
-6.378606961748297e-06 
-7.505507704023086e-06 
-5.834440600226396e-06 
7.114682981702931e-06 
1.317805851015623e-05 
1.563420199362713e-06 
1.19143420805713e-05 
-2.437120863662685e-05 
7.044216736582084e-06 
3.046050378836017e-06 
-7.344059077866831e-06 
-1.035339235323425e-05 
1.368368678028415e-05 
1.017990125875777e-05 
-1.128506726218809e-05 
8.178985159890592e-06 
1.087603273896268e-05 
-8.087421189971964e-06 
1.032266631342377e-05 
-8.101810354426734e-06 
-4.268863966150539e-06 
1.680622919536624e-05 
-2.009659095521272e-05 
9.306690222488949e-06 
-2.242258186154961e-05 
0 
0 
0 
0 
0 
0 
0 
0 
0 
0 
0 
0 
0 
0 
0 
0 
0 
0 
0 
0 
0 
0 
0 
0 
0 
0 
0 
0 
0 
0 
0 
0 
-1.86894585460262e-06 
6.624157528527943e-06 
2.897007297528735e-06 
1.105224916405785e-05 
2.36274916269155e-06 
-9.957126121050686e-07 
-8.308825079469958e-06 
1.619567100491608e-06 
-6.571792206527061e-06 
-2.338094330821508e-06 
5.038721376410124e-06 
5.015847904131603e-06 
6.59295698771835e-06 
-1.483835533186581e-06 
2.409793303563677e-06 
9.759250358376277e-06 
2.566453188298446e-06 
-3.149874647834204e-06 
3.012692174262899e-06 
-4.294820509534147e-06 
-2.28697155255547e-06 
-7.802738875930702e-06 
1.001807434006605e-05 
1.786446681833474e-06 
-8.604058454266673e-06 
-3.247824475869192e-06 
7.545406696678078e-06 
-2.199225774068403e-05 
-3.916833438439908e-05 
-1.385288219745881e-05 
8.214141806218004e-06 
-1.15315224725502e-05 
5.687220109240748e-06 
3.793892493153787e-06 
-7.945917646587306e-06 
1.028002142693889e-05 
-5.145235042770493e-06 
8.411571160637091e-06 
-3.946114340958737e-06 
-6.481179922844662e-06 
-8.28622081304852e-06 
-6.619954007670744e-06 
1.490221774443645e-05 
-2.835845327500163e-06 
2.20653810981451e-06 
-2.97851085476796e-06 
-1.832924404720383e-06 
3.368148294111264e-06 
-4.333558324366506e-06 
-9.718849539636059e-06 
-1.34230869859377e-05 
8.3743800898877e-06 
7.39040424859329e-06 
1.478345207105821e-05 
1.041412418527751e-05 
1.592078388463731e-05 
-4.930320399002833e-06 
-1.526756064199508e-05 
-3.861176531587067e-05 
-4.355965608794133e-05 
-3.055451998746688e-05 
1.53745972305803e-05 
-8.54098217479088e-07 
5.263721934889433e-06 
-1.21048376451969e-05 
-5.034793374034732e-06 
9.040066702918198e-06 
1.513717752506442e-05 
2.58150149021611e-06 
-7.243947047596835e-06 
2.136935305971696e-05 
6.169156668132707e-07 
3.448260880073109e-07 
-6.468363760645625e-06 
5.977118579144525e-07 
1.90139785578062e-05 
1.172403773225675e-05 
7.268742128097256e-06 
1.392959907052099e-05 
7.559384254232299e-06 
-4.326924335003473e-06 
-7.76225884302616e-06 
2.483591748945085e-06 
-1.029593881188768e-05 
-3.901964304941399e-06 
-1.585661134230908e-05 
4.015606472570463e-05 
1.788835739981172e-05 
-1.446770431692075e-05 
1.397019802867116e-05 
-9.338650962575071e-06 
-3.167068109097677e-06 
2.180957894003317e-05 
8.536360573254076e-06 
1.937462811773797e-05 
-5.656256944008581e-06 
0 
0 
0 
0 
0 
0 
0 
0 
-2.863457626783181e-06 
-6.958183847823063e-07 
4.940025801519971e-07 
-1.896459357087132e-06 
-2.524259848367848e-06 
4.986134513479554e-06 
-2.945407048621574e-06 
-1.327409338354863e-06 
2.153837119847242e-06 
-8.805749765703001e-07 
6.880339802034675e-06 
1.193082560855322e-06 
-7.616507035712957e-07 
6.192490843766967e-06 
-8.926560156182514e-06 
3.54930334038775e-06 
-4.312828375363517e-06 
3.533531759280737e-06 
2.267425965746928e-06 
-1.392732252280222e-06 
-2.0209375169406e-06 
4.152959386903059e-08 
-3.577064023484874e-06 
-3.845661215386634e-06 
0 
0 
0 
0 
0 
0 
0 
0 
-1.306752639478814e-05 
-9.00416611841702e-06 
-8.423948449256983e-07 
-3.591434335556383e-06 
-1.34431934494135e-05 
-8.721534496363815e-06 
-7.251902776917896e-07 
-1.154417778860658e-05 
-3.686927794174509e-05 
1.064366145954836e-05 
-1.95187204129806e-06 
1.452090370368666e-05 
-1.619772449958823e-05 
3.609969353877047e-07 
-1.026069815868578e-06 
1.558147432533883e-05 
1.976371521965251e-05 
-8.021941105889575e-06 
-9.170311616363917e-06 
-5.399623945177668e-06 
-1.240676737897787e-05 
1.386894679275784e-06 
1.994816072474991e-05 
-1.00235812040754e-05 
0 
0 
0 
0 
0 
0 
0 
0 
-5.417977385695616e-06 
5.597323617352661e-06 
9.883262751576e-06 
-9.551688476586885e-06 
1.949345262166508e-06 
-1.774182380084984e-06 
7.79604571545701e-06 
-8.088224646959361e-06 
1.048430242039423e-05 
1.973965247726133e-05 
-1.174189278215168e-05 
3.352196085413043e-06 
-1.818264571665985e-06 
-8.991985045471018e-06 
1.345168849563534e-05 
7.759273147380641e-06 
2.751677673111251e-06 
-7.080656057351065e-06 
4.073847145456467e-08 
5.182677690429956e-06 
9.809161499232851e-06 
5.294293362613651e-06 
8.956395751669769e-06 
5.051885310151671e-06 
0 
0 
0 
0 
0 
0 
0 
0 
1.514619792148091e-05 
-3.247863642549183e-06 
-2.578462902371658e-06 
-5.150820222724859e-06 
-6.487277600110245e-06 
1.884219581889115e-05 
1.183980458679767e-05 
9.166176500633382e-06 
-1.052869942459193e-05 
6.67770096374158e-06 
1.495944417059737e-05 
7.993915847923246e-06 
9.692091074504437e-06 
-2.025437293695506e-05 
-3.49856865358731e-05 
-1.285912194322392e-05 
1.404769871855198e-05 
1.302776444424235e-05 
-4.483760632119959e-06 
-5.815573507012023e-06 
-8.831759303092079e-06 
6.159441568249377e-06 
-1.392461345149929e-05 
-3.644326737376736e-06 
-5.280444744544213e-07 
2.967656975185025e-07 
-5.206013081708295e-07 
-4.936629592018046e-07 
-2.319290313640862e-07 
1.190423405013468e-06 
-6.185759372706997e-07 
-4.126520639370741e-08 
1.926735018557852e-06 
-1.526788225670861e-06 
2.9340764818172e-06 
-2.883279779635605e-07 
-3.22051560211886e-06 
6.026636495791495e-06 
-5.699215053750208e-06 
1.597142750566327e-06 
-6.980283090922784e-07 
1.389201400546747e-06 
3.846543551771487e-06 
-3.719867682835824e-07 
-1.171373647586804e-06 
3.456214523528423e-06 
-7.08189166334922e-06 
5.376337655842359e-07 
-1.917129470435837e-06 
1.18112900934225e-07 
9.919278375216792e-07 
-2.021891296638494e-06 
-3.28385857055704e-06 
-3.417451735102443e-07 
-3.653760566181424e-07 
-2.668562935228484e-06 
-5.376852876970176e-06 
2.026134347662935e-06 
-3.886536308379862e-06 
-1.930798356964276e-06 
-1.565746686967101e-06 
4.837230264364884e-06 
-4.022628796075291e-06 
-5.06044271987353e-06 
5.745882132694131e-06 
9.488341290950716e-07 
6.422197459790062e-07 
2.86306258364318e-06 
-1.405210548466178e-05 
-6.9665112355847e-06 
-4.827764236927061e-08 
-2.938418081572374e-06 
-1.747041456766169e-05 
-9.220972036121549e-06 
-1.742617907114451e-06 
2.188494318256662e-06 
-1.696485080846329e-05 
3.044565791793161e-06 
2.456420044380257e-06 
2.142416970530622e-06 
1.844853244032754e-05 
6.109919692634355e-06 
-1.016064110946611e-05 
1.521401671450224e-06 
4.23467289043875e-06 
-3.843319073711205e-06 
1.934376427462284e-05 
-1.575575603758508e-05 
-5.290585895531006e-06 
4.780967000892074e-06 
8.811528575530618e-07 
-3.912222129910271e-06 
-2.236134318455188e-07 
4.027970013229417e-06 
3.541843233786368e-06 
-3.076299450255716e-06 
-1.204386371815228e-05 
-2.153999883502819e-06 
-4.935413002957025e-06 
-6.434242331470764e-07 
-1.22519170516937e-05 
-1.835801438309371e-05 
1.171841199968173e-05 
9.129574825552704e-06 
1.118363603222916e-05 
1.08775272191514e-05 
-7.369465984616185e-07 
2.861381692302228e-06 
1.843866283085753e-06 
-2.556843713097158e-06 
2.010003719720278e-06 
-1.392141391523633e-05 
-4.26112769785891e-06 
1.709723786221893e-05 
2.18161233059684e-06 
8.17164488603412e-07 
3.64332497008467e-07 
7.454424479210607e-06 
-9.767873853223929e-06 
5.034444761281667e-06 
-3.771077855663299e-06 
9.117312248156052e-07 
-8.945216845903106e-07 
-1.735972929331826e-06 
-3.624841373299091e-06 
3.158793858692071e-06 
5.191041330756948e-07 
9.360199914808215e-07 
2.24098083584306e-05 
7.280318685670471e-06 
1.645142806011559e-06 
-1.671616163212339e-06 
4.772641415990487e-06 
7.081419765016543e-06 
-1.239085208098858e-05 
1.206560620357274e-06 
-1.127761154877821e-05 
1.707987822123419e-05 
3.514774430818551e-06 
-4.12181409733971e-06 
-1.331111993723826e-05 
-1.265556335632594e-05 
-2.138612600065829e-05 
2.137770955238449e-06 
-3.664254811344127e-06 
3.150436838813765e-06 
1.271086493838757e-06 
-5.119029732829047e-06 
-8.707522514119866e-06 
1.097479073967945e-05 
-6.106993006943758e-06 
-1.754071996710586e-06 
-4.839763636395165e-07 
-9.101456603471621e-08 
2.9343647118496e-07 
-7.088950276160138e-07 
-1.493012628213963e-06 
4.006766823815634e-06 
-2.353482075310132e-06 
-8.937151790390208e-07 
5.915195061381521e-06 
6.195983626635499e-07 
4.25362965708252e-06 
2.616540712694209e-07 
-3.641635020160657e-07 
5.216924657115355e-06 
-7.18488116471077e-06 
3.134539479450491e-06 
-5.305550671152773e-06 
1.071645952705982e-06 
9.944034197153511e-07 
-1.877371391543704e-06 
-1.06419554772059e-06 
6.999104661138671e-07 
-2.613745419300527e-06 
-2.870339186485447e-06 
2.770839218387371e-06 
2.135462551556933e-07 
1.427782517249206e-06 
-6.508074467761518e-07 
-2.245578417810098e-06 
1.720064530917674e-07 
-8.68450155449518e-07 
1.590117198015587e-06 
4.174908578632054e-06 
-7.702900795864747e-07 
-6.169360551007806e-06 
3.847921118887118e-06 
-7.400202076796093e-06 
-1.783403749033999e-06 
-3.685452541328806e-06 
-1.12050528712838e-05 
-2.324905364382675e-05 
6.868878877525632e-06 
2.874513432199187e-06 
8.380416520356965e-06 
-6.344033319004275e-06 
7.24851852194942e-07 
-4.301611174386787e-06 
1.425516759344422e-05 
1.161431794424596e-05 
-6.446119567010081e-06 
-1.775757338426348e-05 
-5.808414941287997e-06 
-1.05981358773046e-05 
3.642989834388774e-06 
1.498989451768212e-05 
-9.752237896070819e-06 
1.030977442905881e-05 
7.928532690181784e-06 
1.340353556034501e-06 
-4.492541555325047e-06 
-2.391313833661819e-06 
3.555665312502021e-06 
3.483197207195001e-06 
-2.656669414847927e-06 
-7.419582883334254e-06 
2.268748501287128e-06 
6.634558342928887e-06 
-8.816510597644277e-06 
2.720228401419904e-06 
2.567169002688694e-06 
7.205283661455694e-06 
-6.327038876133884e-06 
5.809088394528691e-06 
8.402063297887595e-06 
-4.366330264281798e-06 
-3.125037964109245e-06 
1.499413188721335e-06 
-9.593704466909648e-06 
4.85284091522238e-06 
3.040684352429705e-06 
-1.400912152380547e-05 
3.205686378753947e-06 
3.417223064894002e-06 
4.192603480720491e-06 
1.95825984819963e-06 
1.27290176578744e-05 
1.455204276810267e-05 
-3.980133250068791e-06 
1.62873143282203e-07 
8.539126290421719e-06 
-4.154721479143436e-06 
2.737712247515448e-06 
-1.073732686559487e-06 
-2.078603865894343e-05 
3.258539357875261e-06 
1.015084098994232e-05 
8.199090777807418e-06 
3.713233084414024e-06 
-1.178397327757043e-06 
-3.182806607928666e-06 
-7.606295445287652e-06 
1.320802703551296e-05 
5.392566535285943e-06 
7.920817581174374e-06 
4.32577884679424e-06 
6.666911810394399e-06 
1.001530300581284e-05 
1.08609948827399e-06 
4.450961082235558e-06 
-5.484761060098816e-06 
-2.02654765300914e-05 
-1.892045010854001e-06 
9.258155717487082e-06 
9.51442506389395e-06 
-9.821682690900413e-06 
4.961647720619674e-07 
-9.650110058122398e-06 
6.709241114671428e-06 
-1.331425818255585e-05 
5.370267718325561e-06 
2.512170755110378e-06 
5.797802611525203e-06 
7.547250005075771e-08 
-6.373262960649256e-06 
3.189243760407786e-06 
-4.188050932508092e-06 
4.174941810876155e-06 
5.483852639112861e-06 
3.139699894485024e-06 
2.981520773993875e-07 
1.372145969124346e-06 
3.69222548306622e-07 
-3.668526028951299e-06 
3.923312693062004e-06 
-4.238472998679107e-06 
3.044040438194279e-07 
5.975542605152855e-07 
1.446044797823515e-06 
2.366743779694671e-06 
-1.253290206211297e-06 
-1.617940708106641e-06 
4.353904057400839e-06 
-5.517201560124329e-06 
5.721865327264579e-07 
-3.595570707468176e-06 
-1.736392643712266e-06 
-3.89650326794557e-08 
-1.882911270799129e-06 
-2.609806664775649e-06 
-1.60543118929463e-07 
-2.222447407967379e-07 
-2.187626252444408e-06 
-4.686491359963959e-07 
5.986015975740889e-07 
8.787649487336367e-07 
1.141085614177088e-06 
3.503220903632877e-07 
8.564666251281593e-07 
-1.136298657287468e-06 
2.572286747785921e-06 
2.048870756278776e-05 
-3.304442833203879e-07 
-3.118405522235485e-07 
5.731278186595827e-06 
-8.850930910147431e-06 
2.27987184457114e-06 
-2.676761325593157e-06 
-1.085486104352155e-06 
-2.255122279974737e-05 
-8.567564410435629e-06 
-4.228004952132754e-06 
2.108253634255613e-07 
-9.506817562440204e-06 
5.902011302193235e-06 
4.612420827017916e-06 
2.103934359173871e-06 
7.786595326805109e-06 
-4.652413164317523e-06 
-1.176239115483146e-05 
1.340566047371058e-06 
8.030919328183595e-06 
-1.293787851636496e-06 
1.932206885000585e-05 
-1.10827210662907e-05 
-4.898343137792831e-06 
-2.195590181264822e-06 
3.624337277735089e-07 
-7.801622493315461e-06 
-1.941050677814546e-06 
4.330657321021882e-06 
-1.584352367270744e-06 
-1.059814393263616e-05 
-3.147943159530611e-06 
-3.136076007004452e-06 
1.668317638598124e-06 
-8.924459614259237e-06 
-6.96019800673155e-07 
-1.538433782723016e-05 
-3.242647591018229e-06 
2.629139866758811e-06 
1.875786711899521e-05 
8.144236039857204e-06 
-1.561363426368229e-07 
-1.830387522685683e-06 
3.327408625169836e-08 
-8.242586108580008e-06 
1.92478918888958e-06 
-1.418314645240642e-05 
-1.609187699036317e-06 
7.812759196990973e-06 
4.976446170067035e-06 
-2.287040005507149e-06 
4.235816820482806e-06 
9.586402692254548e-06 
-2.337621790493936e-07 
-4.333095368159718e-06 
-7.631825050751923e-06 
-2.635525550511472e-06 
-3.829693305643074e-06 
1.007475335456446e-05 
3.071586196295896e-06 
-8.306119243958245e-06 
7.401752120981181e-06 
4.014625947613816e-06 
1.566386463561589e-05 
7.467386291289567e-06 
2.81417990614831e-06 
-6.919358881206639e-06 
3.139815490716271e-06 
1.565558736684967e-05 
8.064269605518377e-07 
5.793848812690698e-06 
-8.09420084096306e-07 
1.039004232870181e-05 
9.828688163887929e-07 
-1.545710962024265e-06 
-8.577258268409847e-06 
-3.662783534520423e-06 
-1.198438340555636e-05 
9.152706434707167e-06 
1.091031856889276e-07 
2.672972950465323e-06 
-5.078420518841887e-06 
-2.696613145218442e-06 
-8.908468242652937e-06 
3.785691176045775e-06 
-8.00315145518376e-06 
4.848644446475337e-06 
2.509512252463238e-06 
2.813883295292342e-06 
7.289823672096505e-06 
-5.81750692852645e-06 
-3.976201757954201e-06 
-1.211484436390863e-05 
5.365086635450733e-06 
9.912403607103536e-06 
7.795800000019786e-06 
2.160523577016202e-06 
2.362571892471037e-06 
1.975292912998296e-07 
-1.443376184123377e-06 
4.619658184604016e-06 
-5.394422751589924e-06 
1.414267693068858e-06 
-3.614932409701309e-06 
4.560151251716004e-07 
5.141621937875671e-07 
-1.816913937322465e-06 
-9.096782281097931e-07 
1.63331345934679e-06 
-2.520519540873837e-06 
-3.038046805727627e-06 
2.776698763587323e-06 
-4.097283927101234e-07 
3.936482437041918e-07 
4.766503971413192e-07 
-9.069597187598175e-07 
1.751366086436963e-08 
-5.218619432455137e-07 
2.732016844656903e-06 
-4.308872651568026e-07 
7.238936033522442e-07 
6.682023016945651e-07 
1.547773201739046e-07 
7.790884150891507e-07 
-5.27632529143238e-07 
-1.57995428661675e-07 
-8.125549948657353e-07 
4.598773167810713e-06 
2.717690223160878e-06 
5.128844403029797e-06 
5.382545009265395e-06 
-6.71199961229634e-07 
2.276864783994812e-06 
-3.941075615816127e-06 
-4.358975990628071e-07 
1.885253977034129e-06 
-2.487967805599733e-06 
-1.650799788911228e-05 
-1.746537760196593e-06 
-5.370282277699888e-06 
1.766666443251246e-06 
1.060246593135884e-05 
-6.25137511877067e-06 
4.067718257361256e-06 
9.126103381972345e-07 
1.026593842649959e-06 
-2.704956423531067e-06 
4.936363723085186e-06 
2.493154298857218e-06 
3.540941472627377e-06 
-1.452165479507854e-06 
-1.767456931311277e-06 
7.511081634245641e-06 
-4.415730050043495e-06 
-8.42686474466907e-06 
-7.1878307647501e-08 
6.489071474094946e-06 
6.925763327357971e-06 
-6.834657739672333e-06 
1.580736680073786e-05 
6.481934172059164e-06 
1.534425280992377e-06 
-1.076395662891876e-05 
1.596583367901219e-05 
-9.096489855196771e-06 
-5.643681267677065e-06 
1.069917344509103e-06 
-7.70241206380363e-06 
-4.939127330102857e-06 
8.137298551111671e-06 
-2.573840485720599e-06 
3.548629830715522e-06 
1.196271520259531e-05 
1.574125865498781e-05 
-4.208553093623579e-06 
6.485034020487736e-06 
9.433422009436458e-07 
-2.109710687248383e-07 
3.063397755807058e-06 
4.714175417061498e-06 
-2.261094433931367e-05 
3.883817867638082e-06 
4.320103336175992e-06 
5.062540686147903e-06 
-8.308869874678442e-06 
-7.130212905726696e-06 
5.477456131228801e-06 
3.681284896977479e-06 
-1.090014885522952e-06 
1.137664337649204e-05 
8.044900591825808e-06 
1.45903511828973e-05 
5.42018360364547e-06 
1.024216549925946e-05 
-9.916463353565597e-06 
6.74799849514034e-06 
5.776929893148191e-06 
1.947859871468742e-06 
1.112660210819237e-06 
5.107057068683961e-06 
3.436226458570594e-06 
-1.136010410678108e-05 
-4.100926209939441e-06 
-8.618638517299053e-06 
-1.829810649975639e-06 
4.961477155570052e-06 
7.089267401497882e-06 
-7.376178851504823e-06 
5.649188416585188e-06 
-4.873031639366424e-06 
4.473480651822617e-06 
1.013266878682428e-05 
5.276532075083116e-07 
-9.283404310745672e-06 
-4.167663592333589e-06 
1.504695265559307e-06 
4.364424647091993e-06 
3.909060149239641e-06 
-5.228512314086275e-06 
-1.286394868149382e-06 
-1.047010512839142e-05 
6.184941069793717e-06 
2.141376547674385e-05 
4.376181898800064e-06 
2.943075173935281e-06 
1.714612298593205e-06 
-1.305998423348534e-06 
-1.998979740144313e-06 
3.064087669443551e-06 
-5.018689656915427e-06 
-6.458005900156677e-07 
-2.753925320546375e-07 
-1.187450767004087e-06 
-3.691607340243821e-07 
-1.507860312290386e-06 
-1.217091026417941e-06 
-1.039226818421753e-06 
-5.815392307792362e-07 
-2.272555028563876e-06 
2.205260824431549e-06 
2.30348255328249e-07 
7.151310903430725e-07 
1.965180883546479e-06 
1.417150675651719e-06 
4.561464896917038e-07 
-7.406886859425423e-07 
3.91919161683597e-06 
2.433649660100351e-06 
-1.593442070885617e-06 
2.784801163068609e-06 
-2.1287010900165e-06 
1.17595625421545e-06 
-2.400855703957339e-06 
2.848911754833359e-06 
-3.377666089684411e-06 
-1.671413161359824e-05 
4.161997832940141e-07 
-5.283014246622914e-07 
2.049095531150343e-06 
2.429337078788773e-06 
3.726902000533775e-06 
-3.095668555326993e-06 
-2.67985765349771e-06 
1.27919779629133e-05 
-5.008803764097249e-06 
-1.53938316613052e-05 
1.540923667083369e-06 
1.399719156220173e-05 
-2.3869199442568e-06 
1.172016209602088e-05 
-4.568763368593801e-06 
-4.869944155113559e-06 
-1.448299131154679e-05 
-8.102394587024619e-08 
-8.747670846813288e-06 
5.028277940169376e-06 
5.75805609764549e-06 
-3.086066027696695e-06 
-1.16132530827947e-05 
5.144076602851494e-06 
-9.69800343146577e-06 
-1.205173382199537e-06 
-4.702126270457081e-06 
1.151313788737608e-05 
-1.168409806521794e-06 
5.395540629645435e-06 
5.71768877560927e-06 
1.581700995900386e-05 
-4.445548281853357e-06 
1.284144885438151e-06 
-5.647825319004336e-06 
1.226495604304442e-05 
-1.547931960394083e-05 
2.915641939078852e-06 
-1.790638021456475e-05 
2.911797734609651e-06 
3.761276854211419e-06 
9.197517622553124e-06 
-9.457506899797088e-06 
9.494960716923323e-06 
4.71333472891771e-06 
-1.398170626333103e-06 
-8.561072857582516e-06 
-4.476174550364352e-06 
9.919348554200122e-07 
-1.288895167886187e-05 
1.639706903303661e-05 
1.137130109511101e-05 
-1.086143475015877e-05 
1.223325842785399e-06 
4.778388537695211e-06 
9.284532526642874e-06 
1.32910652102539e-06 
-4.654038227707854e-06 
-3.79001020611648e-06 
8.400707976125513e-06 
-3.230139606655513e-07 
1.37909546021662e-05 
-4.549971823237307e-06 
5.268421612580484e-06 
1.93474307636576e-06 
7.382901573134147e-06 
-5.359213391080824e-06 
-2.494468864637323e-06 
-1.501379222777413e-06 
6.430008690885765e-06 
1.045873217333628e-05 
2.817600782161302e-06 
-1.103551588862839e-06 
-3.341366769372148e-06 
2.27009949362736e-08 
-5.077035186677984e-06 
-6.56294175443043e-06 
5.928123204676078e-07 
1.669046559383549e-05 
2.123855813771858e-06 
3.79625009480568e-06 
6.366696974813864e-06 
2.094459855413405e-06 
3.670609029397617e-06 
-3.4630484683109e-06 
-1.860318197921658e-06 
-8.257430651544496e-06 
1.595000029201298e-06 
9.156337477083815e-06 
-5.857644548622542e-06 
-1.013601180123344e-05 
3.781053113905368e-06 
9.873643995597059e-06 
-3.142250170576588e-06 
1.928803627331257e-05 
-2.334594614880768e-06 
1.675613469446481e-06 
4.305075219153884e-07 
-1.781504568463528e-06 
-1.081603685015259e-06 
-2.743485728378193e-07 
-2.890189553148399e-06 
-3.441021310600673e-06 
3.208744201793032e-06 
-7.271140100196103e-07 
8.164393829023963e-07 
8.76850988928128e-07 
-1.108049657409701e-07 
-8.079087543868284e-07 
-6.972169028121954e-07 
1.720647568257365e-06 
1.877939966751185e-06 
3.078175068261374e-07 
1.666225101760177e-06 
-6.652040967872553e-08 
1.836171223319107e-06 
-1.003859706101721e-06 
3.750091868379049e-07 
1.302258388727888e-06 
3.401920395984658e-06 
-6.425911418678565e-07 
5.237856992881994e-06 
-1.199772038037655e-06 
2.195650228745904e-06 
-2.07148970661073e-06 
4.869995408304448e-06 
-3.621367506482243e-06 
-3.768773078446277e-08 
3.005137414242482e-06 
-1.621998241199987e-05 
1.331120690500427e-06 
2.415493930873937e-06 
3.796058560803399e-06 
3.679524036609365e-06 
-4.43673189548613e-06 
-6.454937571003715e-07 
-6.173725867661391e-06 
8.445620249124903e-08 
3.044944793116851e-06 
1.349752645793987e-05 
-3.323015087410574e-07 
4.259700755083436e-06 
-3.646298748035649e-08 
-4.476275289027722e-06 
-3.915554570235709e-06 
-2.683579093119238e-06 
-1.002603715411732e-05 
7.444833289081063e-06 
3.195211508993749e-06 
3.584116217787868e-06 
-9.630879113408393e-06 
-7.174810386171548e-07 
9.668536434657534e-07 
5.99278886244422e-06 
-4.621058246809769e-06 
8.671707270898876e-06 
-1.324540819545083e-07 
5.358824821362938e-07 
5.239195665927606e-06 
-1.28664161563524e-05 
-1.393056036082402e-05 
5.933375758245735e-06 
-9.41896206804422e-06 
1.744946558737573e-06 
-2.044145254166058e-06 
1.697535887473585e-05 
-1.021616568074413e-05 
6.362116746203514e-06 
2.536059919553901e-06 
1.775545986239202e-08 
2.718336753092701e-06 
1.223276615520582e-05 
-2.118408610871007e-05 
5.417870267696101e-07 
-4.000705291644995e-06 
1.480684298521569e-06 
-5.687729115460094e-06 
-7.888427027965441e-06 
9.939882627395376e-06 
1.277652080809038e-05 
4.606490868241299e-06 
-6.806119230704576e-06 
2.466487428731076e-05 
1.029105442532978e-05 
1.284316530922165e-05 
6.781437598511862e-06 
-5.676979415373047e-06 
2.630737780660447e-06 
2.791118824200893e-07 
1.362495518598059e-05 
-1.317547199571572e-05 
-3.131476448631767e-07 
-8.497926995240972e-06 
-4.582045058910984e-06 
-8.224941166445059e-06 
-1.110361526798259e-05 
-8.83598391945337e-06 
1.877468944253543e-05 
1.217644541587838e-05 
-4.250528971938047e-06 
7.588534224452746e-06 
-4.253600347515268e-07 
1.226460133039701e-05 
1.306367449100464e-05 
-1.215442877813644e-07 
-1.381754037797446e-05 
-2.754604303190705e-06 
4.316870396337687e-06 
6.183617444735392e-07 
7.780470859517426e-06 
-1.791356167522417e-06 
9.325573593426768e-07 
4.735074463080915e-06 
4.116975297141807e-06 
7.390353415083897e-06 
-4.341188214179814e-06 
1.399665745618562e-05 
-1.973550063493679e-06 
-1.274197271450162e-05 
2.424717577573711e-06 
1.952624143736217e-06 
3.747441677965034e-06 
-1.579579070731264e-06 
-7.115275803916718e-07 
2.835094166890919e-07 
1.071129525577746e-07 
-1.934019102741706e-06 
-2.002417089112837e-07 
-2.211108919878835e-06 
-1.738909251710106e-06 
-3.325946610589986e-06 
1.127853419029019e-06 
3.234474573695919e-07 
1.54013129859989e-06 
1.987262953245516e-06 
2.224392711001311e-07 
-3.035560570904138e-07 
-6.265431670207226e-07 
2.779087829927007e-06 
1.649609315955561e-06 
-1.616482817442587e-06 
3.949955013227229e-06 
-1.558889873833781e-06 
1.786336929694263e-06 
-3.10703087078392e-06 
3.897195828869366e-06 
-1.909991003745229e-06 
2.084261431150792e-06 
1.053697965209073e-06 
5.044960172808064e-06 
6.634845328611689e-07 
2.573390004380206e-06 
1.356059190100027e-07 
3.66447792836143e-06 
-1.274089986767453e-06 
5.793592278721979e-06 
2.063989695773987e-06 
-1.737580021876169e-05 
-2.912035533535944e-07 
1.516571417935641e-05 
-4.662575448612536e-06 
9.118003774568507e-06 
-7.378165854214021e-06 
-6.808907302657329e-06 
-1.255971038447584e-05 
4.667359859743247e-06 
-3.651124256048642e-06 
6.784939597509786e-06 
-2.125033707459187e-07 
-8.069247806956954e-07 
-1.253523878821225e-05 
-2.617580938066729e-06 
-1.4343730786153e-05 
1.034997018753763e-06 
-4.196783886448719e-06 
1.220418868170131e-05 
9.814725831384518e-07 
5.511139904145245e-06 
8.807668269272277e-06 
4.405868850994133e-06 
1.546110411575339e-06 
-2.034623739731858e-06 
-1.917370704598689e-06 
7.85888159686407e-06 
4.434726991836398e-06 
-5.420894509975364e-06 
-9.384323041089137e-06 
-5.783006413604783e-06 
-4.238756885377478e-06 
-3.098927521043078e-07 
-1.566679136276449e-05 
4.311623205689293e-06 
-1.044551614217267e-05 
5.564542110137283e-06 
-7.960678586003644e-06 
-4.975151871843314e-06 
8.407057444540832e-07 
-1.602402779684736e-05 
1.65826533325566e-05 
1.317899544892628e-05 
-1.06064197339676e-05 
-1.641885855302687e-05 
1.429946955094564e-05 
1.836023758987473e-05 
-5.737390268242867e-06 
-2.340156141075156e-06 
2.666079332572687e-06 
5.332535435141553e-06 
6.732150169294623e-06 
-8.395893660343013e-06 
-7.35283577831394e-06 
-4.194414677575935e-07 
8.940626294587463e-06 
1.284699208729605e-06 
-1.0805286129286e-05 
-2.825301615360097e-06 
2.216867636202855e-06 
1.330283585948205e-05 
-1.729554964580666e-05 
2.941030071701273e-07 
-7.740873730849765e-06 
-9.570909321065699e-06 
6.3377894862516e-07 
-4.747733202873302e-06 
-1.305003784380728e-05 
5.550811272642341e-06 
1.763434878393968e-05 
-4.71396643936929e-06 
4.687964580537959e-06 
5.72352693268043e-07 
1.337415507999032e-06 
5.608577585604108e-06 
1.572517430576955e-06 
-1.209831733627721e-05 
-5.008295836390674e-06 
-6.274029273052796e-06 
2.672656690805081e-06 
-7.023917507334336e-06 
-1.251459650227212e-05 
-1.070848440169559e-06 
1.554641262883226e-05 
-2.006600863351283e-06 
6.090543522504513e-06 
1.802218985119845e-06 
5.504333593922003e-06 
-2.748658484369072e-06 
-1.066654534027425e-05 
-1.339466898072691e-06 
-2.703068845225791e-06 
7.738815112260311e-06 
4.709124395763616e-06 
3.831082341548599e-06 
7.606710837697416e-07 
7.567263647242146e-07 
3.398567817260666e-07 
-1.759454937263279e-06 
-1.681673860381375e-06 
-1.086454928996061e-06 
3.383848988070642e-07 
1.999149230240621e-06 
2.153666659292146e-06 
2.363660164126717e-06 
-4.499727307127362e-07 
-7.846740676064643e-07 
-1.47064140988942e-06 
8.91122668573396e-07 
9.930263097235998e-07 
1.610094006565147e-06 
-1.162241629615779e-06 
6.068699643380256e-06 
9.700958018500468e-07 
3.904971137020275e-06 
-2.620571407672762e-06 
6.189304866086979e-06 
-4.115384887213902e-06 
1.157931493432472e-06 
2.565885070126e-06 
4.44050252568005e-06 
1.465871643848257e-06 
2.909285511523483e-07 
7.106816537975861e-07 
2.93419292962762e-06 
3.069246804059845e-06 
-6.675529614077453e-06 
1.87269622615017e-06 
-1.49552826969207e-06 
1.633207171599899e-06 
1.055473942417686e-05 
-1.721729587929403e-06 
3.543775437608448e-06 
-1.366198542896477e-06 
-6.495644487122501e-06 
-4.533592973937726e-06 
1.026915666882302e-06 
-1.061236094516353e-05 
5.990172311114231e-06 
1.222347802854145e-06 
1.275065041340501e-06 
-8.927367887475443e-06 
-1.182186583462649e-05 
3.81208187047204e-06 
2.577008377193305e-06 
-4.071536019255155e-06 
5.519602113210513e-06 
-8.148333599657278e-07 
-6.594524794187445e-06 
-1.557033131333597e-06 
5.035871958456539e-06 
-2.927135878408421e-07 
-8.335789785600721e-06 
4.436979171337029e-06 
-8.945653992986365e-06 
3.623242088831649e-06 
-5.655849971428003e-06 
-4.736410014102552e-06 
1.116703758267696e-05 
9.089814267497005e-07 
-8.389308361543231e-06 
-7.806171231579083e-06 
3.967892300250073e-06 
-1.646727670172904e-05 
-4.590874189624671e-06 
2.239505904235178e-06 
-4.413886660980588e-06 
8.919443088768864e-07 
-3.955545049686728e-06 
9.533478226333986e-06 
7.012430729998595e-06 
2.996275539197996e-06 
-1.341316108541544e-05 
3.174768456011188e-05 
5.370714102953135e-06 
1.897638552611218e-06 
-1.842501797353102e-06 
-4.089894572430862e-07 
-2.708686973279894e-06 
1.059977729440674e-06 
5.074806862842804e-06 
-1.947133326116994e-05 
-4.712228676011546e-06 
9.941233706134776e-06 
-2.321762641256558e-06 
4.874066866229616e-06 
7.306241313571031e-06 
1.031376896680669e-05 
1.610663039390418e-05 
-7.562504815828816e-06 
1.57673967922583e-06 
3.690794508735688e-06 
-2.842438151524708e-06 
9.481821616893776e-06 
1.323186620641943e-05 
-4.954828441867933e-06 
3.476552035511114e-07 
9.890644303988546e-06 
1.010406966565669e-06 
-2.85620096564865e-06 
4.190358481499021e-06 
-4.156660344394102e-06 
-2.130931933906463e-06 
6.808432552682112e-06 
2.61715840705472e-06 
1.771911762094878e-05 
-1.70715114313655e-05 
2.511706092203596e-06 
-9.872330370522475e-06 
-8.831430925284801e-06 
-4.714561239279104e-06 
1.482099775103608e-06 
1.187800417215824e-06 
6.703401427584528e-06 
6.24113553525101e-06 
-2.254364765444989e-06 
4.701195194859876e-06 
-1.452584920484887e-05 
1.262135299165938e-05 
4.833813355289798e-06 
1.12977396365273e-05 
-1.53451197176172e-05 
2.467683211669124e-06 
3.180044463457676e-06 
8.331300362547514e-07 
1.379924403847335e-06 
-1.527921549544862e-06 
-1.155944846199118e-06 
-9.90808882641134e-07 
1.274331499061531e-06 
1.806858778283958e-06 
-4.122727652308879e-07 
4.455273885913275e-06 
-7.415644399499455e-07 
9.81391441117036e-07 
-3.677153200870356e-06 
3.737808159326977e-06 
-2.061444459250388e-06 
1.334188276098139e-06 
1.106916315444795e-06 
5.519923557213336e-06 
2.800685700546032e-06 
1.386359351208332e-06 
1.762777734563976e-07 
3.589888388083859e-06 
-2.296287473645909e-06 
-1.19650067574784e-06 
1.397296936846705e-06 
5.328202306532812e-06 
2.039606440588349e-06 
1.04091219752986e-06 
9.897965838449061e-07 
4.330632373845494e-06 
3.443973274361653e-06 
-2.74859213325618e-06 
5.648953971639892e-06 
6.735193289197334e-06 
-6.981979695471137e-06 
2.832918816168589e-06 
-4.144148544037544e-06 
-5.907685864295865e-06 
-1.000248735383619e-05 
-4.254215133467943e-07 
-9.9611684637053e-06 
2.446452950952352e-06 
-5.897763222926515e-07 
1.072283676856691e-05 
-2.89650795736464e-06 
2.611240857576846e-06 
4.66649766883662e-06 
-1.188786296074641e-07 
-7.65587128595444e-06 
-7.721147099330922e-06 
-3.819329890318399e-06 
-6.866313658093506e-06 
6.739905175231516e-06 
-1.918520115693244e-05 
-1.762229515179542e-05 
-2.456816332105263e-06 
-5.762501976572531e-07 
-1.111935435388841e-06 
-3.152878845917965e-06 
1.273656743718615e-06 
-3.520015800563619e-06 
-3.486605996635408e-06 
8.265191652697332e-06 
5.249948092594061e-06 
6.37769591351301e-06 
-8.313416392085359e-06 
5.835376199665019e-06 
6.720505066461048e-06 
-1.173296672433865e-05 
-9.364533332518838e-06 
2.300224853423195e-05 
1.494901759650356e-05 
-3.828677300039686e-07 
3.444007043180315e-06 
4.028621727522731e-06 
7.370249552481073e-07 
-1.994120396362402e-06 
-1.19334916745671e-05 
-3.013320186463375e-07 
-2.478446957989928e-06 
1.297494023598386e-05 
-1.359217629070128e-05 
-2.241618627562249e-07 
-3.787842196823866e-06 
1.893800171212458e-05 
6.7294826751676e-06 
-3.005029889971324e-05 
-4.832936299766172e-06 
6.98074184550017e-06 
9.1667899838122e-06 
9.258194855620056e-06 
-2.515968045439323e-07 
-5.623464645305027e-07 
1.314353150380106e-05 
1.925123278898485e-06 
-8.933125128763749e-06 
6.688829449359852e-06 
6.81538194464193e-06 
5.925730385234221e-06 
3.998118322957647e-06 
-3.671003693631903e-07 
2.269438045430131e-05 
1.583793287085437e-05 
-1.409649546171358e-05 
-2.08086225209079e-06 
-6.175466188763667e-06 
-1.099018969693658e-05 
-2.48993798976191e-06 
6.539445042209516e-06 
4.061701406546807e-06 
1.596203006213691e-05 
-1.147540716436254e-05 
-6.452952699112428e-06 
-5.548940910278392e-06 
-8.001110555265368e-06 
8.835653483720254e-07 
-1.870398138556773e-07 
2.073286671752891e-06 
1.649100918689645e-05 
1.192815952059181e-06 
1.889401982933712e-06 
3.045922992114746e-06 
-4.559767186822174e-06 
2.464003430839245e-06 
-1.298217183374753e-06 
3.689354179918397e-06 
-1.51488255896947e-05 
3.188398719784423e-06 
3.171865860691973e-06 
1.814554825676048e-06 
1.410077338142581e-07 
-1.435707880298754e-06 
-2.437155443774803e-06 
5.822338866184976e-07 
5.669159439366097e-07 
6.979840715652458e-07 
-2.133501256905842e-06 
5.612293362062495e-06 
2.335491240376247e-06 
2.410179185637631e-06 
-2.673061734632518e-06 
5.309073728269553e-06 
-3.946592789948887e-06 
9.941535139120256e-07 
2.509691184155724e-06 
3.677675771267955e-06 
2.801841697222388e-06 
-1.162831899973471e-06 
2.501311014600116e-07 
3.085510046257814e-06 
3.083735800368079e-06 
-4.183015738320574e-07 
-1.638170050368199e-07 
6.832088471421603e-06 
3.697088715941761e-06 
3.180775231014944e-06 
2.423516554872298e-06 
2.00652152998003e-06 
-5.715372547817928e-07 
5.243564257852212e-06 
5.81650465711783e-06 
6.675548557955953e-06 
-8.205790545343901e-06 
8.217994783097216e-07 
-2.396170316850371e-06 
-3.406299755250924e-06 
-9.243741898002958e-06 
-1.143156724324303e-05 
6.430397937340018e-06 
5.080704563944806e-06 
3.076946163467325e-06 
1.148519985043048e-06 
-3.178507254909854e-06 
-1.534879153672644e-05 
-6.643943336574392e-06 
1.042844158535693e-05 
-6.877959423646935e-06 
-1.286116337495699e-05 
-1.605431195337734e-06 
-1.971019023320279e-05 
-2.781321970319975e-06 
-1.88482907606069e-05 
-4.586029441764293e-06 
-2.547732654145146e-06 
6.546631976701923e-06 
4.019247763239458e-06 
-2.181334698089813e-06 
-1.202462153940954e-06 
-4.805324846910472e-06 
-1.078100438438624e-05 
-2.148755479842897e-06 
-4.076780315642462e-06 
1.400357126731542e-05 
1.377515820024811e-05 
9.14436545124089e-06 
-3.440311703222847e-06 
-1.970087284493287e-06 
-9.26731298253948e-06 
3.651153536445108e-05 
5.830175956357426e-06 
-3.056400071429623e-06 
-2.044079325136653e-06 
4.545059719991156e-06 
-8.815823348664939e-06 
-1.143258979365612e-05 
-1.063150343496534e-05 
-2.012639516803177e-05 
4.79650380725325e-06 
1.473725685627911e-05 
-1.761443712202324e-05 
1.379309348226328e-05 
6.282107564878606e-08 
1.63879679267056e-05 
9.899256125146963e-06 
-1.128225183429571e-05 
7.592613169965293e-06 
7.331356653886563e-07 
1.333179986645821e-05 
-6.809335954854812e-06 
3.859549882746493e-06 
6.909849907017698e-06 
-1.613532910752417e-05 
4.145656531578543e-06 
2.113416038450267e-06 
-1.394547701568778e-06 
8.449544793254537e-06 
2.074692946807154e-06 
8.797630230910714e-08 
3.247281547346067e-06 
1.419668668060739e-05 
1.830929844885255e-05 
-1.425114967921448e-05 
2.661983392708554e-06 
-9.467725257017066e-06 
-9.467584964849274e-07 
-5.224465039095326e-06 
-2.817176082171048e-06 
1.746445851936073e-05 
5.97692994987748e-06 
6.215243269588968e-06 
-6.983837334247578e-06 
3.154648371336655e-06 
-1.381290827681863e-05 
1.321083749620323e-05 
1.528741965696115e-05 
1.440516884411072e-05 
2.422907320175132e-06 
5.682374224567927e-06 
1.499027925835241e-05 
8.720406384069887e-06 
8.024491021749539e-07 
-3.548013561624183e-06 
3.312538651135381e-06 
3.013038466985121e-06 
7.319075484621915e-06 
3.685975409041931e-06 
-3.050847702309574e-07 
3.729486056498758e-06 
5.632966976993737e-07 
4.390776408756446e-07 
-3.186966005368425e-06 
3.129364224925365e-06 
-1.318355686294026e-06 
2.476217903588249e-06 
1.107697477476244e-06 
4.160716640913834e-06 
3.415160166177522e-06 
4.885037061831968e-07 
1.657471715593407e-07 
2.918499512215101e-06 
-1.401355996998335e-06 
-9.179420940958587e-07 
6.412563519767873e-07 
4.994645431951479e-06 
2.311305526958187e-06 
8.567777231986585e-07 
1.017637018750258e-06 
5.006175490043166e-06 
2.934649295140034e-06 
2.394571985996571e-06 
1.331008632231618e-06 
7.578476825110155e-06 
4.695327767927233e-06 
3.328189020776062e-06 
1.445866122204129e-06 
-2.098054680293471e-06 
-2.220232016070104e-06 
9.290213271178596e-06 
-6.660406200126312e-06 
8.867899517208957e-06 
7.532663586618656e-06 
7.30852057938827e-06 
-1.055905516036068e-05 
-4.082116243856831e-06 
1.817882248923133e-06 
-2.608282717895703e-06 
-9.758066145022191e-06 
-1.582281243827963e-06 
3.786559843047624e-06 
-1.827507636301959e-05 
-9.497508757073436e-08 
-1.999234084785213e-05 
-2.013273029887633e-05 
2.33191465471319e-06 
-7.921437573650488e-06 
-1.000979480919309e-06 
-2.240869773012992e-06 
2.104467152293294e-06 
-1.035021339171386e-05 
-6.634296041807431e-06 
1.243808687946713e-06 
7.643704359994173e-06 
1.025126764244175e-06 
-2.328336487421541e-08 
1.045895377261961e-05 
-2.150353093276003e-06 
3.473904961054832e-06 
-3.563159143333637e-06 
-1.139131660705489e-05 
1.530106210474302e-05 
1.984057791835736e-05 
1.514981464517005e-05 
7.719139485393393e-06 
-5.141612816656051e-06 
-5.993974640501595e-06 
4.159105953511479e-06 
1.734037095056527e-05 
-6.037222645940409e-06 
1.613951784306762e-05 
-1.090298189092982e-05 
1.001490643857199e-05 
-7.12044717360457e-06 
6.039514581996821e-06 
-1.331198007159856e-05 
-2.553658142169162e-05 
-1.25396059842362e-05 
1.403945493353514e-05 
-1.839724501773088e-06 
1.595426256341912e-05 
-2.086330967359226e-08 
5.493073767954571e-06 
-2.977791798520424e-06 
7.367214892426392e-06 
8.200017177377264e-06 
5.833812298981628e-06 
7.029423749739024e-06 
8.353809562723556e-06 
1.040933440969801e-05 
-4.729162948715292e-06 
-6.639010688932445e-06 
4.596131451691755e-06 
1.100477125702387e-05 
2.442507968420431e-06 
2.622031007350527e-06 
-6.93553223501115e-06 
-2.757087014125731e-06 
-3.882930311489408e-06 
2.968002270725962e-05 
1.129402296851002e-05 
-1.992478722254192e-06 
-4.296360343202978e-06 
-7.26756922230592e-07 
-5.37206795187521e-06 
2.537647499313617e-06 
-5.0385598395365e-07 
5.781002316389338e-06 
2.809604441357448e-05 
1.066573854774973e-05 
2.783028094403943e-07 
1.214259118645956e-06 
-5.882908741274324e-06 
-3.152450164919478e-06 
-1.025783447797137e-05 
5.404904374936113e-06 
-6.617152389739086e-06 
1.207224640067737e-06 
1.29905055265988e-05 
1.051663618978377e-05 
-4.105014721902955e-06 
9.251311780821074e-06 
1.01240338407245e-05 
-1.107858806791001e-06 
9.956568022101442e-06 
1.853533432784919e-06 
-1.252402854070636e-06 
4.339823405839544e-06 
2.598121259314721e-06 
1.56752052050775e-06 
-2.534770801621501e-06 
3.903508357340428e-06 
-3.219804251449076e-06 
1.376289057853024e-06 
3.504791371540845e-06 
1.242307592463887e-06 
1.530209929796538e-06 
-1.19745954146245e-06 
4.8851820388024e-07 
3.824885846391247e-06 
2.471462378491111e-06 
1.395502914158095e-06 
-1.412168466553024e-06 
6.732530529451217e-06 
1.215127749732617e-06 
3.289069244509779e-06 
2.2314521497612e-06 
2.327861336986957e-06 
-1.860320146148523e-06 
-6.872667207313841e-07 
1.610048693851821e-06 
7.304844772906297e-06 
7.652563099203093e-06 
2.89217346269759e-06 
-2.347590214320926e-06 
-1.742197808930137e-06 
-6.239992462800643e-07 
-3.798696971916877e-06 
7.262258440059364e-06 
1.177266627706568e-05 
7.325462237681826e-06 
-1.10722096464601e-06 
-1.044923608352473e-05 
-8.168854933393192e-06 
-7.062641089971518e-06 
4.324774186126706e-06 
-1.437216768306908e-05 
-9.170099263627571e-06 
-2.347804107855347e-06 
-1.889922463521761e-05 
-2.080026154339191e-06 
-1.454178414914367e-05 
-7.886891469499969e-06 
3.120365550189131e-06 
3.479716235544353e-06 
4.440704509958301e-06 
-1.018902099470569e-05 
-5.719293351461793e-06 
-1.412381403512617e-05 
-5.319586541569363e-06 
-7.248579563200538e-06 
2.492187579171097e-07 
6.025563002413204e-06 
6.402770940202342e-06 
1.066206835722184e-05 
-4.79364523277272e-07 
-5.383211128627383e-06 
-3.048806879068336e-06 
-8.999770244246096e-07 
3.102531116699129e-06 
1.888642929545227e-06 
4.822368774384577e-06 
7.389879263149885e-06 
-6.872241860477908e-06 
-3.466018602291415e-06 
9.078966375078648e-06 
-1.425185349654827e-05 
4.269149517784167e-06 
1.662330641754571e-05 
-1.596355242380083e-05 
1.674980268188551e-05 
-2.781434199238899e-06 
1.958032343829866e-06 
-7.046555614851619e-06 
-3.761584266890749e-06 
3.170931567712658e-06 
-3.091751495266477e-07 
1.410180346132078e-06 
1.94022206993468e-06 
-2.353198190673287e-06 
5.410059420236169e-07 
-3.138217371445401e-05 
8.371407127163779e-07 
9.822614290696352e-06 
8.507257564869984e-06 
-2.509131616000615e-06 
1.383879012538369e-05 
1.614585977526541e-05 
1.087600402375208e-06 
1.429150890153239e-05 
5.974645996205448e-06 
1.165797485790422e-06 
2.558086276777524e-06 
-1.643314795068718e-06 
2.237981712634012e-06 
-5.516547084763064e-06 
-1.003096172282873e-05 
1.25907942394176e-05 
-1.118071818668211e-05 
6.369221992804288e-06 
-6.777943335171251e-07 
4.989702372486549e-06 
-8.905521446351154e-06 
1.525346712087881e-05 
1.645495366522719e-05 
-5.686603399748244e-06 
3.217679769151103e-07 
2.264277409347142e-06 
1.52252686512978e-05 
8.739497685727115e-06 
-6.055690738644614e-06 
-2.570616190746516e-06 
4.795033560672243e-06 
-1.319731640468518e-05 
1.841747485679677e-05 
-3.418433808382309e-06 
-2.60086689276233e-06 
4.768690435364396e-06 
-4.090672589726343e-06 
1.040149532624628e-06 
-6.78928025702376e-06 
1.690684115870455e-05 
7.473205855556703e-06 
2.986169020496871e-06 
3.776607428171114e-06 
1.931358985127936e-06 
2.419584678660179e-06 
6.663164889233695e-07 
1.245622981246408e-07 
2.439537184417628e-06 
-1.241336389689181e-06 
6.213386632832012e-07 
1.73850359831823e-06 
1.849773939456739e-06 
-2.668576513791156e-08 
1.261531843790975e-06 
7.445000746231171e-07 
5.986231871724956e-06 
6.142736300166038e-07 
1.552981297301497e-06 
7.547645570353898e-07 
6.132374455335088e-06 
1.189898228846487e-06 
1.888052163771092e-06 
3.334526409961767e-07 
-2.89386291200844e-06 
-2.679696705267335e-06 
-3.003794129097893e-06 
-5.429924043786352e-08 
8.566196204556395e-06 
7.069678081789671e-06 
2.064466963486401e-06 
-4.786435224276062e-06 
-8.607461713827078e-07 
3.521825156489707e-07 
-1.507951974691146e-06 
-1.081217448104772e-06 
3.025854958775705e-06 
3.826688472168279e-06 
-1.189442968890467e-05 
-4.623815045286814e-06 
-1.876588180617139e-05 
-1.495082920421214e-05 
-8.063603056117607e-07 
-1.133328281366268e-05 
1.628725511386174e-06 
-7.81783777632196e-06 
1.693136979965703e-06 
-4.546439518184384e-06 
9.46791126874613e-07 
-4.995618205930368e-07 
7.952337944993163e-06 
-1.109845621874096e-06 
-1.906262347306535e-06 
-1.159638309347475e-06 
-1.403568481319209e-05 
-7.695118921446145e-06 
-3.483858473839921e-06 
-1.138314529378243e-05 
3.98376302440162e-06 
5.486758379462862e-06 
4.899713006507616e-07 
-7.394537810283616e-06 
5.75598149472883e-06 
-5.635419972471814e-06 
-3.643639687738166e-07 
9.27087021928791e-06 
-5.38474517695055e-06 
1.531207771023097e-05 
-1.235092012069664e-06 
8.611341540843407e-06 
-5.763459716572327e-06 
-5.980231724937794e-06 
-1.13625450786128e-05 
-1.290607110241825e-05 
-1.755187349444944e-05 
1.409786807581818e-05 
-2.287024010916662e-06 
1.55805629644386e-05 
-1.947365120508359e-06 
-3.298093155280175e-06 
3.055088265782514e-06 
1.099936324611374e-06 
5.408739043883216e-06 
-9.106753235217963e-06 
-4.756515182321182e-06 
1.966921733413528e-05 
4.192440112356194e-06 
-5.123922803762397e-09 
-7.849452281402374e-06 
3.227908090867141e-06 
1.116956885008405e-05 
1.254159038612016e-05 
-2.513782234401395e-06 
-1.708892328019438e-06 
8.123349892016014e-06 
-1.120741258487309e-05 
3.761650624889636e-06 
1.507087408915166e-05 
4.510759809809769e-06 
-7.034844520661326e-07 
-7.598459567645339e-08 
1.267875293324835e-06 
-1.604831881954492e-06 
1.874246991487312e-06 
-1.423562997334698e-05 
1.074477390554707e-06 
2.365426675467471e-06 
-1.171123247313988e-06 
2.817092781633128e-06 
-4.185016473164103e-06 
-5.745967532917526e-06 
-7.310158756240697e-06 
-6.790721553050546e-06 
6.883353403400771e-06 
-3.469800885147587e-06 
1.279710898150748e-05 
8.213809967018549e-06 
-1.395952735831121e-05 
7.376153769764281e-06 
-8.404282952630052e-06 
6.37535093237119e-06 
4.870017260396379e-06 
2.967978468846748e-06 
4.75539887764054e-06 
3.812784655773468e-06 
-8.619884954639603e-07 
7.724120342469736e-06 
2.492989137681459e-05 
1.305214289566358e-05 
-2.448296053516709e-07 
2.817151741682379e-06 
6.088648285490453e-06 
-6.230679704648676e-07 
9.620302396169438e-07 
-1.000036744824424e-07 
2.764763538903531e-07 
3.443813413084508e-06 
1.275807556075944e-06 
1.70933322581165e-06 
-6.695136884541385e-07 
4.386086370549397e-06 
-1.02974182437176e-06 
2.247650623166422e-06 
1.028769159230226e-06 
2.451891686753828e-06 
-2.691827878481983e-06 
-1.094758732980368e-06 
3.363146135867698e-07 
6.431040745804286e-06 
4.577271273064228e-06 
2.164415480451962e-06 
-3.265251083342596e-06 
-2.519366357667413e-06 
-6.76472680014512e-07 
-1.469816021194718e-06 
-5.311315662270026e-07 
6.464176807436758e-06 
2.410902081043613e-06 
1.618073716189369e-06 
-1.955430786699113e-06 
-1.847383191034531e-06 
2.401684514468283e-07 
8.836128119026572e-07 
-1.292437758475181e-06 
-3.045627023504758e-06 
1.653773560154449e-06 
-1.124065581440421e-05 
-4.328407828207671e-06 
-9.500039788908334e-06 
-6.451300392389436e-06 
1.868652686958571e-06 
6.52748501224614e-06 
4.807762459171291e-06 
-7.535850296714498e-06 
-3.95402300806096e-06 
-1.312667459570183e-05 
-3.474432226465616e-06 
-4.551965812632245e-06 
7.72760212350797e-06 
1.030624615845711e-05 
-1.303167785901598e-06 
1.323594108799852e-06 
-6.602322176422769e-06 
-1.342220353847893e-05 
-9.022662527687628e-06 
-4.718733814047875e-06 
-5.036389427072437e-06 
-1.979839344330374e-07 
-5.147471061211656e-06 
-5.511901131802579e-06 
9.228801200052255e-06 
-5.020296951243378e-06 
7.030047478048198e-06 
6.582105447972351e-06 
-1.807844951039256e-06 
1.379916957930429e-05 
-2.248952629245394e-06 
1.41472744159788e-05 
2.253604515652422e-06 
-3.75435334713e-06 
5.029101171469681e-06 
7.991941700391313e-06 
-5.129138329236291e-06 
-2.625283089754782e-06 
-1.825186504215829e-06 
1.053678615850339e-05 
1.723072514212941e-06 
-1.313789066413082e-05 
-3.78929482100414e-06 
-4.718049885780864e-06 
6.33403472729072e-06 
-6.384244675602357e-06 
-1.39088206817746e-05 
7.8949543223878e-06 
3.693208706659309e-06 
-5.056037787052906e-06 
4.535238037514793e-07 
2.430130263116609e-06 
3.753025350569394e-06 
1.125511637592057e-05 
6.224777865849775e-06 
1.066764956766834e-06 
1.372542750536653e-05 
1.771616310938844e-06 
-1.4286299588971e-05 
1.019893126780661e-05 
2.749617937651607e-06 
-5.589078090267992e-06 
2.643513707429736e-06 
-5.432644798514622e-06 
9.305362710247828e-06 
1.839469267404376e-06 
-3.375268082968999e-06 
-5.724734928456438e-06 
-7.577238886470638e-07 
1.151134311827452e-05 
7.496204340344722e-06 
-3.010016077706563e-06 
-1.033210096914892e-05 
-2.586121504760661e-07 
-4.440730030776979e-06 
2.116163939958873e-05 
-1.059974921110965e-05 
-5.328664879285235e-06 
-2.178106104788813e-06 
-5.921531556810334e-06 
-8.307601759172701e-06 
-9.177643602257428e-07 
1.278230735227272e-05 
3.754788552083516e-06 
1.549485177325466e-05 
1.034262004901066e-05 
-7.160510450373478e-06 
-1.676541122051629e-06 
-1.31590323954193e-06 
7.886907841466365e-06 
-6.565548351086528e-06 
3.603748003259866e-07 
1.248726643715605e-06 
3.231750218619979e-06 
8.820239645937292e-07 
9.345247440728238e-08 
2.202136140651207e-06 
-4.003801668322887e-07 
4.929164455003363e-06 
6.455684870275459e-08 
1.080200485758193e-06 
1.59655270459714e-07 
3.948315817489807e-06 
2.318713380431554e-07 
8.115557424276941e-07 
-5.646334330636457e-07 
-2.055452909737293e-06 
-3.169814323554905e-06 
-4.235438005617206e-06 
-1.316934805105028e-06 
8.161799455421231e-06 
6.331228434419678e-06 
2.076990652760246e-06 
-4.944794613892708e-06 
-9.916846864386408e-07 
1.166926559432423e-06 
1.461886065049867e-06 
-3.100908714986642e-07 
2.602412879062758e-06 
-2.076968940449738e-06 
2.759656271962865e-06 
1.57956573506402e-06 
-4.149912685625608e-06 
7.182464480487378e-07 
-1.588900977156981e-07 
-8.145090720076642e-06 
3.904152960263994e-06 
3.418870652916014e-06 
2.962818488697537e-06 
-7.392942173271954e-06 
2.378924407660299e-06 
-1.438668577548346e-06 
6.361998661528126e-06 
6.861282155358793e-07 
-9.176881836837505e-06 
8.873030648176e-07 
-1.079783874125713e-05 
-6.05708655831715e-07 
-9.603294190712746e-06 
-8.793924564913841e-06 
2.789826117879101e-06 
8.03481321643741e-06 
-1.651680296353002e-06 
-8.087301558901948e-07 
4.780979955159146e-06 
-6.317055862240676e-06 
-5.884525515626326e-06 
8.281792862462301e-07 
-7.236484609869395e-06 
-1.008160530072942e-06 
-4.529656045285867e-06 
1.453308893317404e-06 
5.200878628750802e-06 
-9.267274645432517e-06 
9.761833590369337e-06 
-7.511293893470759e-06 
-1.916714767693249e-05 
1.018501685356424e-05 
1.148567906815909e-05 
9.397299801609126e-06 
1.96090331942752e-06 
-9.963800135620694e-06 
1.563363715399727e-05 
3.357932623597671e-07 
-2.296488667058162e-06 
-1.638284287320694e-05 
-8.297548572856674e-06 
2.332069297071218e-05 
7.275396014899744e-06 
-3.640118753080686e-06 
6.11370074194869e-06 
-1.559637423715703e-06 
9.080301182565866e-06 
3.472348557082066e-06 
-1.754945555802506e-05 
6.797053071507881e-07 
-2.691169924339546e-06 
-1.417224019712176e-05 
-1.512344922933393e-05 
7.251841130274285e-06 
3.50247934653549e-06 
8.250296550091113e-06 
7.339273958918849e-06 
8.870506456714186e-07 
1.642025213049334e-06 
1.985383342185181e-05 
-2.903858981219652e-05 
9.771949321935417e-07 
6.679046583858227e-06 
-5.908654766596155e-06 
9.422575012115602e-06 
4.199976998794819e-06 
-3.859661921410568e-06 
-7.064967304977639e-06 
-2.407236335479246e-07 
1.143093675121426e-05 
-8.181276805825264e-06 
8.818888787339086e-06 
7.692865192452967e-06 
-1.996483433678899e-06 
-6.239350450174565e-06 
-1.660728731827731e-05 
-3.265498535461017e-06 
1.220961984019323e-06 
7.317190029664056e-07 
-1.0333835923636e-06 
2.140233863601541e-07 
3.241796318368687e-07 
-2.829580819690151e-06 
2.632508386416986e-05 
1.022214340837564e-05 
-4.646314211222129e-06 
1.765025047983065e-05 
6.359420814397504e-06 
-1.269069349706242e-05 
3.092882710617785e-06 
3.337884614484839e-06 
-1.455181843959929e-05 
-5.080683492625354e-06 
-2.795571974939428e-07 
7.543875303398192e-07 
-6.879004948227152e-07 
3.12542969965901e-06 
-4.969986051962853e-07 
2.563008157854182e-06 
1.072107345993839e-06 
1.83956297050374e-06 
-2.378569216654314e-06 
-2.102565935264524e-06 
-4.660194563434723e-07 
5.47243874132131e-06 
3.660761000414721e-06 
1.30166692650353e-06 
-2.962346880628059e-06 
-2.00512552672441e-06 
-1.270951735281063e-06 
-4.514546911877659e-06 
-3.281357531765282e-07 
5.955130748642037e-06 
1.600948585298419e-06 
-4.06086145540273e-08 
-2.144755908575051e-06 
-2.603047441166322e-06 
-2.031839724986558e-07 
1.653157073595326e-06 
-1.888273683039181e-06 
1.245436546955842e-06 
-1.497976117819488e-06 
2.662356504273159e-06 
2.652724196094689e-07 
-3.311675164251183e-06 
-9.104433416593848e-07 
-7.809120538904558e-08 
-3.20940758964607e-06 
5.153128384028257e-06 
7.228522691550252e-06 
-4.44040496019179e-06 
-8.619688517491088e-06 
-5.299517002304526e-06 
-6.287083389257629e-06 
5.194677814839158e-06 
1.335156431652319e-05 
-2.998418782029101e-06 
9.310143329002588e-06 
-4.913840816577121e-06 
-7.149146004395748e-06 
-8.595597164278658e-06 
-9.844929470335858e-06 
-9.507119938870598e-06 
-2.561584622754267e-06 
-1.773895165754368e-06 
-6.385824238092681e-06 
6.911661229794788e-06 
-4.856854663401738e-06 
5.713734471588506e-07 
2.230796226101672e-06 
-5.566906819810308e-06 
-9.314902910979381e-07 
-2.282445737634731e-06 
9.207993744514984e-06 
5.062567763473251e-06 
-1.09857854063319e-05 
1.11362516723542e-05 
-7.261731645055179e-06 
-6.799868465539445e-06 
-5.507763843124924e-07 
8.664732909738016e-06 
7.841680351618991e-06 
7.039416013249806e-06 
-7.999668448337378e-06 
5.683085488506831e-06 
-2.842245234856308e-06 
1.76562286321267e-06 
-1.251489221134516e-05 
-1.158232411475329e-05 
1.154785118060004e-05 
-3.936496435722143e-07 
-5.683384428147565e-06 
8.604854144263426e-06 
-1.552822309925166e-06 
-4.509158671929849e-06 
7.397075473208585e-06 
-2.977652470637715e-06 
2.505966679153195e-06 
4.528854061142771e-06 
3.934612602682372e-06 
-3.056902881661192e-05 
3.865332948449496e-08 
-3.485272761022829e-06 
-7.539002751482875e-07 
5.35547277095848e-06 
-8.779216501742554e-06 
1.29838093593071e-06 
8.215255923437494e-06 
-1.731894901158248e-05 
3.940875803691427e-06 
-3.03625866112493e-06 
6.082628048392702e-06 
1.542628732022471e-05 
4.827137235056916e-06 
-9.139598291089924e-06 
3.197396676702621e-06 
7.276685529390784e-06 
8.533132303106538e-06 
-1.057532565548334e-05 
-1.051345281365332e-05 
1.747901511097792e-06 
-3.428684620161463e-06 
-9.697922008919014e-06 
-9.275511658492359e-06 
1.466599632015806e-05 
5.144562488521296e-06 
1.445470433164893e-05 
-5.27043408170429e-07 
-5.232544276354946e-06 
1.081489667774432e-07 
-6.301337922202578e-06 
-1.183536585461421e-07 
-1.301103415144368e-05 
-6.210934966184256e-06 
4.951055664292466e-06 
-3.206417554368709e-06 
-4.245305363598064e-06 
-2.810414036973734e-06 
7.184960438519766e-07 
6.808057879434721e-06 
1.282077834379277e-05 
1.07023575869482e-07 
-2.511668393541106e-07 
-1.207884228090665e-06 
3.592454594795499e-06 
-2.855104508607393e-07 
1.280857895269204e-06 
2.452763977605042e-07 
-1.616565731719103e-06 
-2.534525470963248e-06 
-5.24198769281199e-06 
-1.309134839792325e-06 
6.949360528467879e-06 
4.736484210378257e-06 
2.223329197668795e-06 
-4.492130303316208e-06 
-8.183310166524009e-07 
6.188256227055682e-07 
-1.161303815228636e-06 
4.583307429183342e-07 
2.331031439791471e-06 
-2.314063619444807e-06 
2.993571270217683e-07 
1.041083086617276e-06 
-5.004644148107006e-06 
-8.433341295820364e-08 
-2.40992330723215e-07 
-3.507346503801191e-06 
3.426792377682117e-06 
3.351513335188316e-06 
2.521741181778479e-06 
-1.929162946609317e-06 
-5.289474475407961e-07 
-5.869025147286721e-06 
5.013352383649219e-06 
-2.462168555495622e-06 
-6.845814240814521e-06 
1.195697643576641e-05 
-9.819772646156852e-06 
4.054271408200085e-06 
-9.857714323346515e-06 
-5.071906128587295e-06 
-2.560329935553559e-06 
4.649448121005896e-06 
2.588118037968378e-06 
7.811289539308975e-06 
5.446399220456704e-06 
-8.22563653804074e-06 
-7.705865863159522e-06 
-5.358792683972654e-07 
-6.409487309000384e-06 
1.311584530279349e-06 
-2.786587411059652e-06 
2.11767216849719e-06 
4.407477804730453e-06 
-5.845047588835179e-06 
6.661662054684845e-06 
-1.070004766864612e-05 
-3.526392287959213e-06 
-2.735734137375827e-06 
-1.047803709005715e-05 
8.097668664898373e-06 
9.669477260517915e-06 
-1.318920281246441e-05 
1.023600504752722e-05 
2.268223662476699e-06 
-5.669947628034562e-07 
-1.637943081958223e-05 
4.998594207670608e-06 
2.272509470799125e-05 
9.120059234229274e-06 
5.285556630539315e-06 
-1.818583451270946e-06 
-9.629965493126102e-06 
-1.128294210225258e-06 
-6.261486098477229e-06 
-1.191953084390537e-05 
9.256481816995617e-06 
-3.445993620157822e-06 
-7.598004928850918e-06 
-6.077964658671817e-06 
-2.918977004941887e-06 
-4.323467844587987e-06 
1.082891505845341e-06 
-2.413839892327313e-06 
3.79896226117641e-07 
3.031973450199156e-06 
1.801094680740454e-05 
-1.847714539531718e-05 
-3.414029972845635e-06 
-6.834074830284787e-06 
1.560056630963565e-06 
-3.704147897527955e-06 
7.169723956115335e-06 
2.008025491053766e-05 
5.611781480665305e-08 
7.287375322362382e-06 
-7.569580458740619e-06 
-1.171004088542505e-05 
1.436404909417052e-06 
7.457655767228634e-06 
1.007849035244266e-05 
-4.940952849890485e-06 
-1.542568152789494e-06 
1.327952988477894e-05 
-2.28792385557199e-06 
-1.0258271116444e-06 
-7.385466771081391e-06 
2.328916347947193e-06 
7.907811700624863e-06 
-1.608746480096056e-06 
1.513134976350837e-05 
1.732351631527423e-05 
-9.137286234656026e-06 
1.183565706457619e-05 
-1.694870696345461e-05 
-7.305535904809176e-06 
1.202291637181388e-05 
2.428797527160684e-06 
-1.085343225947758e-05 
-7.66043985520191e-06 
1.94283478934319e-06 
2.539604914039245e-06 
3.671043514157642e-06 
1.480385290833086e-06 
-1.82470781736882e-06 
8.87401430100639e-06 
-4.441819424966409e-07 
1.539614953706197e-05 
2.553706208179697e-06 
-3.371417766391442e-06 
-9.359796614772257e-07 
4.383587830786166e-06 
1.438751513304642e-06 
1.002176320858807e-06 
-2.013363222907159e-06 
-1.560266327117541e-06 
-3.452993727279343e-07 
-4.732793532612071e-06 
-6.79434412467782e-07 
5.182088654708681e-06 
1.381671760129511e-06 
-1.427475941300792e-06 
-2.423296764860474e-06 
-2.005774377466805e-06 
3.18508908401768e-07 
9.780201086216943e-07 
-2.7980053826828e-06 
1.523740030902668e-06 
-1.725029131652352e-06 
3.955485389667355e-07 
-1.785600136526683e-07 
-3.154975522061899e-06 
1.193479226419501e-07 
-2.081429743595864e-06 
-1.271688694322837e-06 
3.67577250955134e-06 
1.909137900141041e-06 
-4.683728242476155e-06 
-2.960308037687459e-06 
7.859628794737328e-07 
-9.8536080172446e-06 
2.286060202422095e-06 
8.052731604648916e-06 
-3.734701356154455e-06 
1.727753548539966e-05 
-2.372215275298081e-06 
-2.201338161635231e-06 
-5.561652040987106e-06 
1.02806315174337e-06 
-7.045058422627928e-06 
-1.102190514697846e-05 
7.814022400766885e-06 
8.934246773097477e-07 
9.345519628992578e-06 
-4.983781996115485e-06 
-2.155495703289452e-06 
4.427034538738133e-06 
-8.39418245994973e-06 
4.978796206706959e-07 
-7.024863689827538e-06 
7.651740074409469e-06 
7.766935622312329e-06 
-6.691700072846816e-06 
1.831872546361722e-05 
-2.585272054495181e-07 
-1.095007677074644e-05 
-8.410046061145042e-06 
-2.061063443239221e-05 
-2.204229594796448e-05 
-2.548647823781199e-05 
-1.230069058252e-05 
8.286300679411565e-07 
3.244135673249475e-06 
1.765585705263707e-06 
-1.27195575792048e-05 
3.43119404755268e-06 
1.587906868806217e-05 
5.107230973432922e-06 
8.536083971532855e-06 
9.612376044707462e-06 
-1.062458895871428e-05 
-1.030667121573983e-05 
1.665571272021221e-06 
-6.403502175305866e-06 
5.57499234953179e-06 
8.198986559691673e-06 
5.633384739106988e-06 
-2.221370577161605e-05 
-7.493224382481666e-06 
-8.884812424239839e-06 
-1.209240931889487e-05 
6.144521970673317e-07 
-6.636836649385055e-06 
1.090959533328686e-06 
8.304098598259437e-06 
-4.721213602743532e-07 
5.174340557807705e-06 
-7.82576678859848e-06 
5.674534837809439e-06 
-1.988067663775975e-05 
-5.861537645450671e-06 
4.753223121109521e-06 
1.596135623797551e-06 
-1.179900540492282e-06 
-4.725579537584035e-06 
-9.961507927557085e-06 
-1.560513446733119e-05 
1.846320024364292e-06 
2.228694625537659e-06 
3.183321784954061e-07 
-2.915984650955831e-06 
2.395737726063232e-05 
-4.432630966468255e-07 
1.349932278630679e-05 
-9.637208028534121e-06 
-2.811552579014164e-06 
9.14990726167662e-06 
-2.879770268044989e-06 
-1.379826302657823e-06 
-1.454831584762739e-05 
-6.180813793720787e-06 
2.218573102839306e-06 
-1.667796789613517e-05 
6.814807825708801e-06 
6.175429631277207e-06 
2.099494384484923e-07 
8.251503703115133e-06 
